{
    "fc1.weight": [
        [
            -0.013133151456713676,
            0.020016422495245934,
            -0.021671898663043976,
            -0.0018736041383817792,
            -0.02286495640873909,
            0.020918671041727066,
            -0.02600206807255745,
            0.009498268365859985,
            0.008098741993308067,
            -0.021624933928251266,
            0.02450956031680107,
            -0.012858026660978794,
            -0.0020699789747595787,
            -0.0171524528414011,
            0.03151077404618263,
            -0.0077389879152178764,
            -0.016912948340177536,
            -0.013586567714810371,
            0.028880171477794647,
            -0.0010511025320738554,
            0.0019331894582137465,
            0.0018947831122204661,
            0.013216557912528515,
            0.018532732501626015,
            -0.01326671801507473,
            0.026712950319051743,
            -0.02177496999502182,
            0.019011033698916435,
            -0.025431737303733826,
            0.023964229971170425,
            -0.009528100490570068,
            0.014256875030696392,
            0.023129230365157127,
            -0.024045387282967567,
            0.03663475066423416,
            -0.022358892485499382,
            0.023532956838607788,
            0.007924019359052181,
            0.05603384971618652,
            0.010067575611174107,
            0.05276758596301079,
            0.0007006615633144975,
            -0.0018867147155106068,
            -0.0249403677880764,
            -0.09677416831254959,
            -0.011903978884220123,
            -0.004374959506094456,
            0.03932584077119827,
            0.020050326362252235,
            -0.016401024535298347,
            0.009143613278865814,
            0.008090194314718246,
            0.004652599338442087,
            0.037353698164224625,
            0.01629396341741085,
            -0.006970972754061222,
            0.026196159422397614,
            0.03329997882246971,
            0.009695309214293957,
            0.011899787001311779,
            0.014156914316117764,
            0.034078702330589294,
            -0.020878132432699203,
            0.033308245241642,
            0.06951769441366196,
            0.09026613086462021,
            0.15749193727970123,
            0.10762424021959305,
            0.14652413129806519,
            0.16999229788780212,
            0.15644939243793488,
            0.12446082383394241,
            0.13217224180698395,
            0.15408991277217865,
            0.2611105740070343,
            0.23925597965717316,
            0.17717759311199188,
            0.12347619235515594,
            0.11896141618490219,
            0.05521930009126663,
            -0.028982436284422874,
            0.010077668353915215,
            0.03807033225893974,
            0.014436089433729649,
            0.03119455650448799,
            -0.014516893774271011,
            0.03254372626543045,
            -0.016022177413105965,
            0.03167487680912018,
            0.03355253115296364,
            0.06425949186086655,
            0.0668535977602005,
            0.09798076003789902,
            0.16395892202854156,
            0.14663726091384888,
            0.07014669477939606,
            -0.02227112092077732,
            -0.06508577615022659,
            -0.01690489985048771,
            0.02394847199320793,
            -0.01752910390496254,
            0.05333922058343887,
            0.1905185580253601,
            0.21523338556289673,
            0.2452123910188675,
            0.19026803970336914,
            0.16257669031620026,
            0.08099478483200073,
            0.049482665956020355,
            0.015003428794443607,
            0.014967959374189377,
            0.023221928626298904,
            0.015913542360067368,
            0.007609834428876638,
            0.019341811537742615,
            -0.011837036348879337,
            0.03605758771300316,
            -0.03234047442674637,
            -0.019141245633363724,
            0.025333736091852188,
            -0.0635618194937706,
            -0.10254780203104019,
            -0.17151224613189697,
            -0.20582209527492523,
            -0.20579199492931366,
            -0.1724386215209961,
            -0.15881359577178955,
            -0.15810009837150574,
            -0.0983712449669838,
            -0.09455882012844086,
            -0.1084308922290802,
            -0.11937083303928375,
            -0.12144885212182999,
            -0.08022873848676682,
            -0.04647834226489067,
            0.07425674051046371,
            0.09966135025024414,
            0.009645216166973114,
            0.02043597586452961,
            0.035518892109394073,
            0.004787930753082037,
            -0.01802104339003563,
            0.009582879953086376,
            -0.04161010682582855,
            -0.019326113164424896,
            -0.10159578174352646,
            -0.10737117379903793,
            -0.10361523181200027,
            -0.05608316510915756,
            -0.05273100733757019,
            -0.0945960059762001,
            -0.20877759158611298,
            -0.16902689635753632,
            -0.17360374331474304,
            -0.09313291311264038,
            -0.11607977002859116,
            -0.0807647705078125,
            -0.012557677924633026,
            -0.035259295254945755,
            0.03035527653992176,
            0.026453794911503792,
            -0.01075308583676815,
            0.05902824178338051,
            0.15088284015655518,
            0.15786659717559814,
            0.06311559677124023,
            -0.004623752553015947,
            -0.022676218301057816,
            0.010778522118926048,
            0.03825834393501282,
            -0.00316861504688859,
            -0.07302830368280411,
            -0.04251495748758316,
            -0.03624456003308296,
            -0.13738498091697693,
            -0.017896605655550957,
            -0.08830592781305313,
            -0.06755495071411133,
            -0.06409484893083572,
            -0.13541215658187866,
            -0.11842844635248184,
            -0.16972893476486206,
            -0.08048190176486969,
            -0.11303020268678665,
            -0.11193309724330902,
            -0.07912139594554901,
            -0.06860602647066116,
            -0.014594594947993755,
            -0.0033671397250145674,
            0.004164192825555801,
            0.12459176033735275,
            0.2938666343688965,
            0.32334548234939575,
            0.1475132256746292,
            0.004796137567609549,
            -0.014961862936615944,
            0.012387131340801716,
            0.02176794782280922,
            -0.03676006197929382,
            -0.08880916982889175,
            -0.10419401526451111,
            -0.07216223329305649,
            -0.13216237723827362,
            -0.049608223140239716,
            -0.0070365979336202145,
            -0.012567466124892235,
            -0.020185891538858414,
            -0.07560404390096664,
            -0.1575509011745453,
            -0.15834374725818634,
            -0.09829173982143402,
            -0.03989705070853233,
            -0.05481850355863571,
            -0.06061655655503273,
            -0.06576462835073471,
            -0.05491254851222038,
            -0.03638565167784691,
            0.001502325409092009,
            0.0051002586260437965,
            0.22609610855579376,
            0.3446637988090515,
            0.17247524857521057,
            0.008568576537072659,
            -0.011383301578462124,
            -0.002196576679125428,
            0.0011938862735405564,
            -0.0346088744699955,
            -0.08426911383867264,
            -0.14859500527381897,
            -0.08290711790323257,
            -0.07185672223567963,
            0.018888812512159348,
            0.01567487232387066,
            0.08034359663724899,
            0.01507717277854681,
            -0.018256699666380882,
            -0.12856890261173248,
            -0.15114200115203857,
            -0.13550253212451935,
            -0.10696777701377869,
            -0.11335252970457077,
            -0.11365915089845657,
            -0.1008923277258873,
            -0.06504575908184052,
            -0.05001657083630562,
            0.02622055634856224,
            0.011718920432031155,
            0.1375257968902588,
            0.3340485095977783,
            0.2557782828807831,
            0.04048532992601395,
            0.013332687318325043,
            0.003291736589744687,
            -0.026978272944688797,
            -0.0264678243547678,
            -0.16989904642105103,
            -0.1855749636888504,
            -0.12123119831085205,
            -0.017867501825094223,
            0.03018850088119507,
            0.05317380651831627,
            0.05224598944187164,
            0.06452850997447968,
            0.00697616720572114,
            -0.10282298177480698,
            -0.2806706130504608,
            -0.2834775447845459,
            -0.17121371626853943,
            -0.18836136162281036,
            -0.15817131102085114,
            -0.09173407405614853,
            -0.08653290569782257,
            -0.04329606145620346,
            -0.016719575971364975,
            -0.07314205914735794,
            0.030229706317186356,
            0.2263289839029312,
            0.23757602274417877,
            0.0188757237046957,
            0.011936362832784653,
            0.0022318849805742502,
            -0.03218628838658333,
            -0.058870404958724976,
            -0.17216335237026215,
            -0.14767365157604218,
            -0.09386150538921356,
            0.04744063317775726,
            0.08792635053396225,
            0.1293911635875702,
            0.10088186711072922,
            0.1511901468038559,
            0.16211897134780884,
            0.10735028237104416,
            -0.15038469433784485,
            -0.3825581669807434,
            -0.2577010691165924,
            -0.2246786206960678,
            -0.165264293551445,
            -0.11974415183067322,
            -0.13364318013191223,
            -0.12537741661071777,
            -0.09670198708772659,
            -0.14397472143173218,
            -0.13270488381385803,
            -0.03991140052676201,
            0.12455324083566666,
            -0.02787376381456852,
            -0.024878259748220444,
            -0.00765520753338933,
            0.009788121096789837,
            -0.10607615858316422,
            -0.17387650907039642,
            -0.14663422107696533,
            -0.01916867308318615,
            0.10962247848510742,
            0.12463756650686264,
            0.1543809473514557,
            0.1544019728899002,
            0.2051014006137848,
            0.29625770449638367,
            0.27037787437438965,
            0.09337472170591354,
            -0.15378022193908691,
            -0.15349064767360687,
            -0.05723046511411667,
            -0.07141250371932983,
            -0.10160986334085464,
            -0.07367260754108429,
            -0.10241298377513885,
            -0.08689354360103607,
            -0.2341734766960144,
            -0.20448553562164307,
            -0.24103061854839325,
            0.007141191978007555,
            -0.007928065024316311,
            -0.006881488021463156,
            -0.029035363346338272,
            -0.010859229601919651,
            -0.06514900177717209,
            -0.12834616005420685,
            -0.09725451469421387,
            0.025170737877488136,
            0.1711413711309433,
            0.10997139662504196,
            0.11860282719135284,
            0.20447082817554474,
            0.17281267046928406,
            0.26363182067871094,
            0.3244597613811493,
            0.30538564920425415,
            -0.032247405499219894,
            0.038002368062734604,
            0.11515755951404572,
            0.0960855707526207,
            0.0628669261932373,
            -0.018183860927820206,
            -0.08773281425237656,
            -0.046570900827646255,
            -0.13625702261924744,
            -0.11693397164344788,
            -0.14533251523971558,
            -0.12483202666044235,
            -0.10212278366088867,
            0.02369638718664646,
            0.003236748045310378,
            -0.027407091110944748,
            -0.060113854706287384,
            -0.10763336718082428,
            -0.048248883336782455,
            0.07431653887033463,
            0.17249657213687897,
            0.1381978690624237,
            0.14206703007221222,
            0.13914667069911957,
            0.155012309551239,
            0.17506325244903564,
            0.21932436525821686,
            0.1711074709892273,
            -0.02682601846754551,
            0.11433226615190506,
            0.07080933451652527,
            0.13759703934192657,
            0.1472848802804947,
            0.04206596687436104,
            -0.006170134525746107,
            -0.01865577884018421,
            -0.019162526354193687,
            -0.024320609867572784,
            0.01398974284529686,
            -0.13032276928424835,
            -0.05988844856619835,
            0.014643369242548943,
            0.0314190648496151,
            -0.0028086102101951838,
            -0.045482784509658813,
            -0.005470486357808113,
            0.09533760696649551,
            0.0947219729423523,
            0.2024582028388977,
            0.1304534673690796,
            0.08983407914638519,
            0.08815693110227585,
            0.06705742329359055,
            0.15389510989189148,
            0.1443883776664734,
            0.07459797710180283,
            0.004848618060350418,
            0.04751235619187355,
            0.09288076311349869,
            0.1143922358751297,
            0.020494217053055763,
            0.0626339241862297,
            0.027681507170200348,
            0.0026865985710173845,
            0.040772467851638794,
            0.031857989728450775,
            0.008230657316744328,
            -0.048483956605196,
            -0.08602771162986755,
            0.0005649267113767564,
            -0.011820372194051743,
            -0.018557241186499596,
            0.012160009704530239,
            -0.0023260246962308884,
            0.01806304045021534,
            0.051707491278648376,
            0.11849819868803024,
            0.12279786914587021,
            0.07260961085557938,
            0.04503481462597847,
            0.055324334651231766,
            0.12626594305038452,
            0.16239407658576965,
            0.04934258759021759,
            0.08300814032554626,
            0.0841071829199791,
            0.13511773943901062,
            0.07581388205289841,
            0.02460048906505108,
            -0.03872460499405861,
            -0.03354170173406601,
            0.006425520405173302,
            0.027627743780612946,
            0.05493396520614624,
            -0.047128766775131226,
            -0.10324811935424805,
            -0.08811131119728088,
            0.006874316371977329,
            0.013799584470689297,
            0.03595588728785515,
            -0.0017285989597439766,
            -0.06958796828985214,
            -0.11495614051818848,
            -0.08016064763069153,
            0.04197966307401657,
            0.06697432696819305,
            0.06167877838015556,
            0.07821352779865265,
            0.05210164561867714,
            0.15217164158821106,
            0.14704222977161407,
            0.05617217347025871,
            0.1561955064535141,
            0.1661694198846817,
            0.12361477315425873,
            0.011035959236323833,
            -0.013916152529418468,
            -0.0377265028655529,
            0.016980236396193504,
            -0.004524326417595148,
            0.042090050876140594,
            -0.011735077947378159,
            -0.07314814627170563,
            -0.09750495105981827,
            -0.13684427738189697,
            0.026260893791913986,
            0.037388887256383896,
            0.008273813873529434,
            -0.011533760465681553,
            -0.10404452681541443,
            -0.20536088943481445,
            -0.20145051181316376,
            -0.07900112867355347,
            0.013624620623886585,
            0.04701288044452667,
            0.07603607326745987,
            0.05152766779065132,
            0.1380508840084076,
            0.06987526267766953,
            0.09043237566947937,
            0.1416621059179306,
            0.10598838329315186,
            0.021973012015223503,
            -0.05279834195971489,
            0.009033188223838806,
            -0.07699382305145264,
            -0.02502826228737831,
            -0.004819473251700401,
            -0.010376029647886753,
            -0.0657401978969574,
            -0.18846745789051056,
            -0.16437090933322906,
            -0.10269269347190857,
            -0.025513770058751106,
            0.01843169517815113,
            0.005037573631852865,
            -0.019975757226347923,
            -0.10484796017408371,
            -0.1696002036333084,
            -0.17446063458919525,
            -0.048064593225717545,
            -0.09183073788881302,
            0.014843054115772247,
            0.05181609094142914,
            0.017999107018113136,
            -0.04592891409993172,
            -0.0327153317630291,
            -0.06704465299844742,
            0.013002441264688969,
            -0.01557986717671156,
            0.017885688692331314,
            -0.025862229987978935,
            -0.06901724636554718,
            -0.029335614293813705,
            -0.047850508242845535,
            -0.05274403095245361,
            -0.1302591860294342,
            -0.155845507979393,
            -0.20233651995658875,
            -0.15968365967273712,
            0.017343323677778244,
            0.03456563130021095,
            0.011361440643668175,
            -0.01283730287104845,
            0.0011655063135549426,
            -0.1511683464050293,
            -0.1209503561258316,
            -0.08586473762989044,
            -0.004598742350935936,
            -0.06389860063791275,
            -0.09009555727243423,
            -0.09446204453706741,
            -0.062311455607414246,
            -0.008822624571621418,
            -0.04615054279565811,
            -0.08966358751058578,
            -0.03357797861099243,
            0.037883076816797256,
            0.022369153797626495,
            0.009797207079827785,
            -0.015019622631371021,
            0.017205845564603806,
            -0.03490235283970833,
            -0.006476020440459251,
            -0.08577432483434677,
            -0.07765088975429535,
            -0.19598636031150818,
            -0.15498501062393188,
            -0.008118906989693642,
            -0.010168453678488731,
            -0.0252132099121809,
            0.012714114040136337,
            0.013934571295976639,
            -0.09450490772724152,
            -0.16017740964889526,
            -0.020384203642606735,
            -0.030359337106347084,
            -0.04710717499256134,
            -0.06808995455503464,
            -0.08018238097429276,
            -0.0744849368929863,
            -0.04048705846071243,
            0.030086755752563477,
            0.01461874134838581,
            0.04114874452352524,
            0.08564029633998871,
            0.03287375718355179,
            0.019811687991023064,
            0.003504000371322036,
            -0.04201645776629448,
            -0.09724485874176025,
            -0.0824020653963089,
            -0.07256384938955307,
            -0.11273499578237534,
            -0.1552426666021347,
            -0.10565659403800964,
            -0.0375366248190403,
            0.0302166435867548,
            -0.02284380979835987,
            0.005938989110291004,
            0.005598755087703466,
            -0.07571107894182205,
            -0.08170102536678314,
            -0.06213989108800888,
            -0.06846590340137482,
            -0.010622644796967506,
            -0.09709931164979935,
            -0.06595496088266373,
            -0.07702844589948654,
            0.012280210852622986,
            0.03484445437788963,
            0.06722453236579895,
            0.026827482506632805,
            0.0033236939925700426,
            0.010433831252157688,
            0.03318072855472565,
            -0.03349948674440384,
            -0.05600074678659439,
            -0.10295876860618591,
            -0.06602045893669128,
            -0.08123350143432617,
            -0.07218873500823975,
            -0.04561316594481468,
            -0.04444730281829834,
            0.00780742010101676,
            0.01710638217628002,
            -0.02696036733686924,
            -0.021200327202677727,
            0.018495870754122734,
            -0.0502445250749588,
            -0.008207796141505241,
            -0.11582674831151962,
            -0.11749386042356491,
            -0.08025390654802322,
            -0.030476823449134827,
            -0.03368716314435005,
            -0.06495606899261475,
            -0.063286192715168,
            -0.014548801816999912,
            -0.02545531652867794,
            -0.038122400641441345,
            -0.05636261776089668,
            -0.012808989733457565,
            -0.005211293697357178,
            0.014140933752059937,
            -0.016861137002706528,
            0.01424788311123848,
            0.029238954186439514,
            -0.025644822046160698,
            -0.06398793309926987,
            0.002673249924555421,
            -0.03553564101457596,
            -0.012635821476578712,
            0.022027403116226196,
            0.021804053336381912,
            0.0011005839332938194,
            -0.018975097686052322,
            0.0031291611958295107,
            -0.03251943737268448,
            -0.12007161229848862,
            -0.1678871214389801,
            -0.06250900030136108,
            0.024137208238244057,
            -0.019935714080929756,
            0.04460914433002472,
            0.04267379641532898,
            0.010188407264649868,
            0.0038368680980056524,
            0.06436899304389954,
            0.0348709337413311,
            0.040690381079912186,
            0.04479231312870979,
            0.1264745146036148,
            0.10083680599927902,
            0.1662900447845459,
            0.09484578669071198,
            0.03990733250975609,
            0.03665068373084068,
            -0.03356293961405754,
            -0.036370646208524704,
            0.001598811591975391,
            -0.026192624121904373,
            0.01587321050465107,
            0.031381960958242416,
            0.021041451022028923,
            -0.038094937801361084,
            -0.06974722445011139,
            -0.1309860795736313,
            -0.10146427899599075,
            -0.11046253889799118,
            -0.09502575546503067,
            -0.05624645575881004,
            -0.06562014669179916,
            -0.0430980883538723,
            -0.052124131470918655,
            -0.041382890194654465,
            -0.057989537715911865,
            -0.022855322808027267,
            0.021580025553703308,
            -0.015128662809729576,
            0.08301891386508942,
            0.14002105593681335,
            0.12319004535675049,
            0.13246257603168488,
            0.0744943618774414,
            0.07691462337970734,
            -0.002731660846620798,
            0.0007470811251550913,
            0.024063648656010628,
            0.018486013635993004,
            0.019086292013525963,
            -0.00439296243712306,
            -0.0299312062561512,
            -0.01646200194954872,
            0.0415506586432457,
            -0.007080627605319023,
            0.004886975046247244,
            -0.01615273393690586,
            -0.11947047710418701,
            -0.22371184825897217,
            -0.20086833834648132,
            -0.22733032703399658,
            -0.2311127632856369,
            -0.23079751431941986,
            -0.244688019156456,
            -0.20428071916103363,
            -0.18538722395896912,
            -0.18748442828655243,
            -0.17796486616134644,
            -0.1368357390165329,
            0.007643560413271189,
            0.03156393766403198,
            0.018329273909330368,
            0.024488482624292374,
            -0.010321847163140774,
            0.006855586543679237,
            0.00611991947516799,
            0.015992632135748863,
            0.02428937330842018,
            -0.014671606943011284,
            0.0344163216650486,
            -0.007140916306525469,
            -0.0021207742393016815,
            -0.0026113244239240885,
            0.018691178411245346,
            -0.043993569910526276,
            -0.14145085215568542,
            -0.1762409806251526,
            -0.20074881613254547,
            -0.18175555765628815,
            -0.14945043623447418,
            -0.1811441332101822,
            -0.17125365138053894,
            -0.1905878335237503,
            -0.16607142984867096,
            -0.16101475059986115,
            -0.09308052808046341,
            -0.06088780239224434,
            -0.014341278932988644,
            -0.05202466621994972,
            0.011809512041509151,
            0.016837401315569878,
            -0.015317319892346859,
            -0.007835706695914268,
            -0.004852933343499899,
            -0.021921176463365555,
            -0.006405833642929792,
            0.020159605890512466,
            0.027575796470046043,
            -0.027155477553606033,
            0.0317174568772316,
            0.0032176016829907894,
            0.027405284345149994,
            -0.027260510250926018,
            -0.00576632097363472,
            -0.03502097725868225,
            -0.03125188127160072,
            -0.015019388869404793,
            -0.026392929255962372,
            -0.07188563048839569,
            -0.024484995752573013,
            0.00043995832675136626,
            -0.050064049661159515,
            -0.04912613704800606,
            -0.02814008854329586,
            -0.029061822220683098,
            -0.02775650843977928,
            0.020450057461857796,
            0.00047339199227280915,
            -0.013560503721237183,
            -0.02908983826637268,
            -0.017632052302360535,
            0.0015820043627172709,
            0.006309077609330416
        ],
        [
            -0.011995029635727406,
            0.042480699717998505,
            0.01605975814163685,
            -0.011865495704114437,
            -0.0024189890827983618,
            -0.0021317198406904936,
            -0.00835124496370554,
            0.0445198118686676,
            -0.008844095282256603,
            -0.008616014383733273,
            0.034870442003011703,
            0.0563976988196373,
            0.0038774600252509117,
            0.03969789668917656,
            0.045738816261291504,
            0.019988784566521645,
            0.004764878191053867,
            0.05277786776423454,
            0.002444653073325753,
            -0.0061935726553201675,
            0.030214078724384308,
            0.010900217108428478,
            0.014446930959820747,
            0.02792963758111,
            -0.0020513057243078947,
            0.05646222084760666,
            -0.007154523395001888,
            0.04437670111656189,
            0.0013134069740772247,
            0.030837835744023323,
            0.034499187022447586,
            -0.007540990132838488,
            0.026951178908348083,
            0.038672205060720444,
            -0.004854400176554918,
            -0.009999209083616734,
            0.03610222414135933,
            -0.014458093792200089,
            0.0060877725481987,
            -0.047843728214502335,
            0.033080704510211945,
            -0.011036609299480915,
            -0.014856744557619095,
            0.04394370689988136,
            0.0031329644843935966,
            -0.0016755678225308657,
            0.024958206340670586,
            0.024182153865695,
            0.012825177051126957,
            0.018782028928399086,
            0.023479744791984558,
            0.004933399148285389,
            0.015094882808625698,
            0.017140092328190804,
            0.023705987259745598,
            0.038208961486816406,
            -0.00931746605783701,
            0.042338818311691284,
            -0.009134767577052116,
            0.00308323185890913,
            0.019321108236908913,
            -0.011298741213977337,
            -0.016378315165638924,
            -0.04153125360608101,
            -0.0693528950214386,
            -0.09361450374126434,
            -0.18191014230251312,
            -0.19754628837108612,
            -0.27455368638038635,
            -0.33884093165397644,
            -0.2820955514907837,
            -0.2268936038017273,
            -0.12711463868618011,
            -0.10988521575927734,
            -0.11228601634502411,
            -0.14005085825920105,
            -0.08073006570339203,
            -0.07932768017053604,
            -0.08849457651376724,
            -0.0341048501431942,
            0.03853403404355049,
            0.056206125766038895,
            0.00036149643710814416,
            0.044367026537656784,
            0.03797377273440361,
            0.028799934312701225,
            -0.008438712917268276,
            0.001642092247493565,
            -0.00044693646486848593,
            0.0139314578846097,
            0.01643793098628521,
            -0.0738266259431839,
            -0.08420611917972565,
            -0.17308716475963593,
            -0.2974426746368408,
            -0.3199593424797058,
            -0.3569192886352539,
            -0.43873944878578186,
            -0.47926539182662964,
            -0.4757439196109772,
            -0.5858050584793091,
            -0.5434685349464417,
            -0.5489727258682251,
            -0.4830738604068756,
            -0.3944844603538513,
            -0.29255029559135437,
            -0.2195550799369812,
            -0.1858849972486496,
            -0.11947180330753326,
            0.003382796188816428,
            0.002975810319185257,
            0.003786984132602811,
            0.007682478986680508,
            0.054863207042217255,
            0.051983654499053955,
            0.06088941544294357,
            0.050142839550971985,
            0.01729472354054451,
            0.005049227271229029,
            0.015813186764717102,
            -0.025366581976413727,
            -0.04068717360496521,
            -0.05798177048563957,
            -0.027641186490654945,
            -0.016155323013663292,
            -0.04696988686919212,
            -0.010799748823046684,
            -0.04966207966208458,
            -0.12469601631164551,
            -0.1027800589799881,
            -0.09726154804229736,
            -0.1204741895198822,
            -0.1289965957403183,
            -0.13966961205005646,
            -0.07904396206140518,
            -0.08518297970294952,
            -0.0020257867872714996,
            0.0018190781120210886,
            0.03698252886533737,
            0.025980373844504356,
            0.0043691047467291355,
            0.048400696367025375,
            -0.0037197808269411325,
            0.01246197335422039,
            0.009260040707886219,
            0.01672922447323799,
            0.006934496108442545,
            -0.04809722676873207,
            -0.049972474575042725,
            -0.07995946705341339,
            -0.12267144024372101,
            -0.0800287127494812,
            -0.11716499924659729,
            -0.043654195964336395,
            -0.01967763528227806,
            0.006447662133723497,
            0.0021294355392456055,
            0.02768653817474842,
            0.016560543328523636,
            -0.012110983952879906,
            0.061689652502536774,
            0.037339452654123306,
            0.09472044557332993,
            0.17085936665534973,
            0.16400186717510223,
            0.0758577436208725,
            0.04119924083352089,
            0.045355457812547684,
            0.05871955305337906,
            0.039193302392959595,
            -0.0060015409253537655,
            0.01335343811661005,
            0.06784769147634506,
            -0.015840427950024605,
            -0.04842629283666611,
            -0.02366279996931553,
            -0.06692430377006531,
            -0.03861634433269501,
            -0.046845149248838425,
            -0.027772003784775734,
            -0.04809708148241043,
            -0.05364762246608734,
            -0.030152052640914917,
            -0.03374146670103073,
            -0.048794619739055634,
            -0.06108478829264641,
            -0.02671772614121437,
            0.05144913122057915,
            0.0650235190987587,
            0.0318031907081604,
            0.044035281985998154,
            0.27376651763916016,
            0.4492276906967163,
            0.2878066301345825,
            0.09048251062631607,
            0.053555529564619064,
            0.018848836421966553,
            0.01700315624475479,
            0.030443387106060982,
            0.014026964083313942,
            0.05347597971558571,
            0.04147079959511757,
            -0.0243340115994215,
            -0.022317759692668915,
            0.03568894788622856,
            -0.017563842236995697,
            0.015659457072615623,
            -0.039880115538835526,
            -0.10661390423774719,
            -0.037999484688043594,
            -0.04919183626770973,
            -0.05976124480366707,
            -0.01945394277572632,
            -0.0314517505466938,
            0.013709682039916515,
            0.0024588177911937237,
            0.03045014850795269,
            0.013584339059889317,
            0.0552387572824955,
            0.21927574276924133,
            0.4751783609390259,
            0.41476303339004517,
            0.10889933258295059,
            0.053065381944179535,
            0.03935158997774124,
            0.007620157673954964,
            -0.05224805325269699,
            -0.046929486095905304,
            0.04260297119617462,
            -0.05947417393326759,
            -0.04950166121125221,
            -0.034382160753011703,
            -0.039752934128046036,
            0.01609424315392971,
            0.0002415367343928665,
            -0.05837968364357948,
            -0.04274563118815422,
            -0.05218547582626343,
            -0.03846343606710434,
            -0.04127460718154907,
            -0.03176001459360123,
            -0.020638879388570786,
            0.022359972819685936,
            0.00825898814946413,
            -0.0015052244998514652,
            0.0024901283904910088,
            0.000991479610092938,
            0.09264101088047028,
            0.45769020915031433,
            0.4652780294418335,
            0.15113070607185364,
            0.027178281918168068,
            0.004647222347557545,
            0.017755968496203423,
            -0.04083338752388954,
            -0.10035454481840134,
            -0.06428313255310059,
            -0.05920157581567764,
            0.010144918225705624,
            0.015054775401949883,
            0.036349520087242126,
            0.03971320018172264,
            0.013702546246349812,
            -0.018529843538999557,
            -0.1356956660747528,
            -0.13732390105724335,
            -0.14746856689453125,
            -0.13302740454673767,
            -0.11991532146930695,
            -0.03706273436546326,
            -0.06731054931879044,
            -0.044857848435640335,
            -0.010129258036613464,
            0.045559823513031006,
            0.020464546978473663,
            0.07855942845344543,
            0.3435690402984619,
            0.43245643377304077,
            0.15989768505096436,
            0.02451743371784687,
            0.05081559345126152,
            0.013723767362535,
            0.005756007041782141,
            -0.06996062397956848,
            -0.08219349384307861,
            -0.020003726705908775,
            -0.00574516924098134,
            0.046472467482089996,
            0.04065059497952461,
            0.04607895761728287,
            0.0782301053404808,
            0.04754108190536499,
            -0.023388326168060303,
            -0.16834023594856262,
            -0.05027614161372185,
            -0.07766958326101303,
            -0.14919054508209229,
            -0.10543571412563324,
            -0.0855693593621254,
            -0.07671508193016052,
            -0.07941929996013641,
            -0.027633070945739746,
            -0.05492076277732849,
            -0.02606216073036194,
            0.08524584770202637,
            0.3214377760887146,
            0.13857807219028473,
            0.008141690865159035,
            0.0009887004271149635,
            -0.008172842673957348,
            -0.03438657149672508,
            -0.09181377291679382,
            -0.09547090530395508,
            -0.020573047921061516,
            0.05210041627287865,
            0.05203625187277794,
            0.07471571117639542,
            0.0635797455906868,
            0.08148789405822754,
            0.20923954248428345,
            0.08200696110725403,
            -0.025320041924715042,
            0.1670129895210266,
            0.053598497062921524,
            -0.16200877726078033,
            -0.08537138253450394,
            -0.03724760189652443,
            -0.06901801377534866,
            -0.11769895255565643,
            -0.09850920736789703,
            -0.08041472733020782,
            -0.14144203066825867,
            -0.015733888372778893,
            0.1581762135028839,
            0.06967867165803909,
            0.010488594882190228,
            0.025470905005931854,
            -0.02282564528286457,
            -0.06624969094991684,
            -0.07571546733379364,
            -0.061667922884225845,
            0.023020263761281967,
            0.11308387666940689,
            0.057119887322187424,
            0.08055578172206879,
            0.08763370662927628,
            0.1309410184621811,
            0.20504572987556458,
            0.14799565076828003,
            0.18161724507808685,
            0.3822951018810272,
            0.11836547404527664,
            -0.012865114025771618,
            0.03494078293442726,
            0.06524160504341125,
            0.004522784613072872,
            -0.0687713697552681,
            -0.08801180869340897,
            -0.16673511266708374,
            -0.2210615873336792,
            -0.1725071221590042,
            0.03477877005934715,
            0.031609781086444855,
            0.04735037684440613,
            0.02529745176434517,
            0.03045831248164177,
            -0.03547492250800133,
            -0.0655297338962555,
            -0.030301012098789215,
            0.051202982664108276,
            0.07043198496103287,
            0.08279836177825928,
            0.0798492506146431,
            0.050928764045238495,
            0.027213100343942642,
            0.06981830298900604,
            0.03305548429489136,
            0.3006709814071655,
            0.2679228186607361,
            0.07213973999023438,
            -0.0026159833651036024,
            0.03888433799147606,
            0.12023017555475235,
            -0.00040568606345914304,
            0.02480527013540268,
            -0.10843347758054733,
            -0.19984394311904907,
            -0.288185179233551,
            -0.2062511444091797,
            -0.030813273042440414,
            0.0586407445371151,
            0.04534868896007538,
            0.0065165925770998,
            -0.011238191276788712,
            -0.02263113111257553,
            0.00811139214783907,
            0.029167909175157547,
            0.052344370633363724,
            0.10361750423908234,
            0.03502241149544716,
            0.023962652310729027,
            0.017992621287703514,
            -0.03322641924023628,
            -0.06042727828025818,
            -0.0026461572851985693,
            0.26394808292388916,
            0.20675544440746307,
            0.09410277754068375,
            -0.06339816004037857,
            0.05407033488154411,
            0.06905227899551392,
            -0.002922625979408622,
            -0.03266437351703644,
            -0.06230994686484337,
            -0.12936711311340332,
            -0.15957531332969666,
            -0.08117928355932236,
            0.019632697105407715,
            0.025936441496014595,
            0.008952411822974682,
            0.0075719463638961315,
            0.03773008659482002,
            -0.004395500756800175,
            -0.013236552476882935,
            0.015708457678556442,
            -0.021464699879288673,
            0.05040096119046211,
            0.003310905769467354,
            -0.004921504762023687,
            -0.044730864465236664,
            -0.057983577251434326,
            -0.07407015562057495,
            0.05870681628584862,
            0.27583417296409607,
            0.21094614267349243,
            0.09573119133710861,
            -0.0779617428779602,
            -0.007325252518057823,
            0.04413807764649391,
            -0.016644656658172607,
            -0.05330555513501167,
            -0.08156101405620575,
            -0.0036405352875590324,
            -0.039065051823854446,
            -0.06721074134111404,
            -0.02609694004058838,
            0.039889849722385406,
            0.004756967071443796,
            0.0427786186337471,
            -0.008434576913714409,
            0.07841505110263824,
            0.07346857339143753,
            -0.008858473971486092,
            -0.07114507257938385,
            -0.02981332689523697,
            -0.0502077080309391,
            -0.023053789511322975,
            -0.02080959640443325,
            -0.0505935363471508,
            -0.06243368238210678,
            0.11501002311706543,
            0.29881489276885986,
            0.22838781774044037,
            0.03679841384291649,
            -0.02167915552854538,
            0.021278198808431625,
            -0.037207480520009995,
            -0.04958859458565712,
            -0.06092752888798714,
            -0.028797006234526634,
            0.027948973700404167,
            0.06819260865449905,
            -0.022000139579176903,
            -0.07415497303009033,
            0.04743140563368797,
            0.01896783523261547,
            0.05292617902159691,
            0.015846066176891327,
            0.0577920563519001,
            0.08746093511581421,
            -0.05452901870012283,
            -0.10231755673885345,
            -0.08197706937789917,
            -0.06542564183473587,
            -0.026243191212415695,
            -0.03261959180235863,
            -0.04978572577238083,
            -0.018090536817908287,
            0.10412198305130005,
            0.23168091475963593,
            0.16031314432621002,
            -0.00027741887606680393,
            0.01137090940028429,
            -0.041341282427310944,
            -0.05979341268539429,
            -0.04412292689085007,
            -0.03318718075752258,
            0.006889414973556995,
            -0.017001422122120857,
            -0.0036082782316952944,
            -0.1002640426158905,
            -0.107217937707901,
            0.03170580789446831,
            0.05635392665863037,
            0.020123301073908806,
            0.05318648740649223,
            0.020145751535892487,
            0.046673718839883804,
            -0.03521880507469177,
            -0.1453334540128708,
            -0.014586166478693485,
            -0.06947638839483261,
            -0.053663015365600586,
            -0.08392751961946487,
            -0.0810733288526535,
            -0.04368085786700249,
            -0.0536891371011734,
            0.06593623012304306,
            0.019216779619455338,
            -0.004537709057331085,
            -0.028432205319404602,
            -0.054392311722040176,
            -0.06811228394508362,
            -0.038013435900211334,
            0.0076835136860609055,
            -0.04008582606911659,
            0.030828123912215233,
            -0.041363462805747986,
            -0.16036181151866913,
            -0.10313793271780014,
            0.014076481573283672,
            0.012139905244112015,
            0.0280934926122427,
            -0.0061247991397976875,
            0.07618634402751923,
            0.09741216897964478,
            -0.004789342638105154,
            -0.05610162019729614,
            -0.05641566216945648,
            -0.05552786588668823,
            -0.07559730112552643,
            -0.024979576468467712,
            -0.13020741939544678,
            -0.17360466718673706,
            -0.21201635897159576,
            -0.08142534643411636,
            -0.09573941677808762,
            0.009867101907730103,
            -0.014701085165143013,
            -0.005127806216478348,
            0.010587216354906559,
            -0.032378703355789185,
            -0.04545069485902786,
            -0.011839828453958035,
            -0.0039664870128035545,
            0.017659209668636322,
            -0.09621622413396835,
            -0.05323205515742302,
            -0.009160018526017666,
            0.057089176028966904,
            0.03272761404514313,
            0.00968971662223339,
            0.06213918700814247,
            0.06025293096899986,
            0.02758895233273506,
            -0.07522294670343399,
            0.010195069015026093,
            0.011240164749324322,
            0.003682977519929409,
            0.03926318883895874,
            -0.010507294908165932,
            -0.016134317964315414,
            -0.09759388864040375,
            -0.05840165540575981,
            -0.0324384830892086,
            0.009328831918537617,
            -0.017604196444153786,
            0.0011061255354434252,
            0.03973770514130592,
            -0.009080201387405396,
            0.01373512577265501,
            -0.027915887534618378,
            0.025189245119690895,
            -0.005487760528922081,
            -0.11734957247972488,
            -0.02722029946744442,
            -0.016041766852140427,
            0.03635922446846962,
            0.04043705761432648,
            0.032764654606580734,
            0.034923866391181946,
            0.06193109229207039,
            0.0020154304802417755,
            -0.06432715803384781,
            -0.0017760767368599772,
            0.04737948253750801,
            0.0006605169037356973,
            0.013982944190502167,
            0.020313851535320282,
            0.011809439398348331,
            -0.020908297970891,
            -0.020508164539933205,
            0.0007092697778716683,
            -0.03035099431872368,
            -0.009427747689187527,
            -0.029328230768442154,
            -0.00535062188282609,
            -0.08388181030750275,
            -0.011816387996077538,
            -0.006821779999881983,
            -0.009151953272521496,
            -0.06834757328033447,
            -0.06280622631311417,
            -0.01603221893310547,
            0.005463292356580496,
            0.02051466889679432,
            0.028527365997433662,
            0.005128133110702038,
            0.044937729835510254,
            0.05072228983044624,
            0.019633999094367027,
            0.011480826884508133,
            0.01017293706536293,
            -0.0015371369663625956,
            -0.00947416853159666,
            -0.04180655628442764,
            -0.03269818797707558,
            0.008614519611001015,
            -0.03135519474744797,
            -0.02212652564048767,
            -0.0365050733089447,
            -0.0012066289782524109,
            -0.015516206622123718,
            0.009353446774184704,
            0.001554594375193119,
            0.011248718947172165,
            -0.0014659838052466512,
            -0.061267152428627014,
            -0.02519259788095951,
            -0.020306091755628586,
            -0.032659102231264114,
            -0.0038610745687037706,
            0.05204266682267189,
            0.021227024495601654,
            0.015706699341535568,
            0.03940214961767197,
            -0.0005309439147822559,
            0.06471811234951019,
            0.03463960066437721,
            0.0022768054623156786,
            -0.042684514075517654,
            -0.05325954779982567,
            0.043202243745326996,
            0.06353895366191864,
            0.022110575810074806,
            0.07681066542863846,
            0.06763581931591034,
            0.07802211493253708,
            0.08749617636203766,
            0.07117919623851776,
            0.11199871450662613,
            0.09425941854715347,
            0.10030165314674377,
            0.07326201349496841,
            0.11219612509012222,
            0.039920344948768616,
            0.02262905426323414,
            -0.021709434688091278,
            0.0026465149130672216,
            0.002348218811675906,
            0.02618519775569439,
            -0.002046486595645547,
            0.04628090187907219,
            -0.0027739698998630047,
            0.04217337816953659,
            0.07312667369842529,
            -0.0026129449252039194,
            -0.08265524357557297,
            -0.1212097555398941,
            -0.1455651968717575,
            -0.08756353706121445,
            -0.03622832149267197,
            -0.03744940087199211,
            -0.018684247508645058,
            -0.019787317141890526,
            -0.04883489012718201,
            0.01725878193974495,
            0.013663019053637981,
            0.028101960197091103,
            0.010518830269575119,
            0.09413037449121475,
            0.09306412190198898,
            0.021650969982147217,
            0.062036316841840744,
            0.016575442627072334,
            0.026055464521050453,
            0.05272889882326126,
            0.0034778830595314503,
            0.04349907860159874,
            -0.007842499762773514,
            0.045283641666173935,
            0.025433970615267754,
            0.019118323922157288,
            0.04618728533387184,
            -0.061861321330070496,
            -0.21793748438358307,
            -0.25639790296554565,
            -0.3081386983394623,
            -0.3125986158847809,
            -0.288356214761734,
            -0.29226136207580566,
            -0.25398755073547363,
            -0.2461630403995514,
            -0.25579479336738586,
            -0.24924400448799133,
            -0.3436300754547119,
            -0.2912566661834717,
            -0.2796799838542938,
            -0.25154662132263184,
            -0.16278430819511414,
            -0.09691263735294342,
            -0.03832356631755829,
            -0.025743070989847183,
            0.04695965349674225,
            0.03997204825282097,
            -0.0019960247445851564,
            0.04306035861372948,
            0.05385419726371765,
            0.04818865284323692,
            0.014395791105926037,
            0.030975760892033577,
            -0.010393247939646244,
            -0.058408837765455246,
            -0.05730970576405525,
            -0.07473864406347275,
            -0.07472635805606842,
            -0.11759847402572632,
            -0.1717003881931305,
            -0.15170298516750336,
            -0.1293848156929016,
            -0.14743714034557343,
            -0.24215532839298248,
            -0.21384093165397644,
            -0.1645973175764084,
            -0.10943932086229324,
            -0.1253308206796646,
            -0.06179085746407509,
            -0.07449747622013092,
            -0.0016584459226578474,
            -0.008331929333508015,
            -0.009792907163500786,
            0.006129739806056023,
            0.01338322926312685,
            0.04672450199723244,
            0.014041286893188953,
            0.02230299636721611,
            0.04784456640481949,
            0.02030334621667862,
            0.012263561598956585,
            -0.010515174828469753,
            0.05351374298334122,
            -0.012647944502532482,
            0.05335259437561035,
            0.005480560474097729,
            0.006554707419127226,
            0.01256087701767683,
            0.03638717532157898,
            -0.0013689816696569324,
            0.05132870376110077,
            0.021488597616553307,
            -0.021487336605787277,
            0.0076908222399652,
            -0.014044787734746933,
            -0.006146631203591824,
            0.004719151183962822,
            0.017637571319937706,
            0.028361471369862556,
            0.014056377112865448,
            0.04395217075943947,
            0.019907817244529724,
            0.041596055030822754,
            0.05617339909076691,
            0.0009923393372446299,
            0.00032264352194033563
        ]
    ],
    "fc1.bias": [
        -0.030956367030739784,
        -0.02486574649810791
    ],
    "fc2.weight": [
        [
            0.08123468607664108,
            -0.6973860263824463
        ],
        [
            -0.952947199344635,
            0.8099631667137146
        ],
        [
            -0.1670357584953308,
            -0.07284794747829437
        ],
        [
            -0.6196390390396118,
            0.41747742891311646
        ],
        [
            0.8826712369918823,
            -0.39092740416526794
        ],
        [
            0.18746331334114075,
            0.29565805196762085
        ],
        [
            1.0556526184082031,
            -1.3375332355499268
        ],
        [
            0.20582565665245056,
            -0.40613481402397156
        ],
        [
            0.026052454486489296,
            0.397068589925766
        ],
        [
            0.6037541627883911,
            -0.34025394916534424
        ]
    ],
    "fc2.bias": [
        1.8596930503845215,
        -1.635511875152588,
        1.5773801803588867,
        0.5354118347167969,
        -2.0961060523986816,
        -0.845122218132019,
        -0.8746167421340942,
        1.757311463356018,
        -0.5950144529342651,
        0.16245901584625244
    ]
}