{
  "conv_layer.0.weight": [
    [
      [
        [
          -0.6466580629348755,
          0.05883887782692909,
          0.6654679775238037
        ],
        [
          -0.3073442578315735,
          0.45018813014030457,
          0.38144391775131226
        ],
        [
          0.634594202041626,
          0.48146411776542664,
          0.7377957105636597
        ]
      ]
    ]
  ],
  "conv_layer.0.bias": [
    0.8096322417259216
  ],
  "fc_layer.weight": [
    [
      -0.09227079898118973,
      -0.24092373251914978,
      -0.1439780741930008,
      -0.13695457577705383,
      -0.328887939453125,
      -0.26128798723220825,
      0.02064620703458786,
      -0.35120776295661926,
      -0.14592814445495605,
      -0.12429528683423996,
      0.07243621349334717,
      0.24107401072978973,
      -0.11439482867717743,
      -0.38647323846817017,
      -0.2815152704715729,
      -0.012157727964222431,
      0.10932552814483643,
      -0.11763375252485275,
      0.015601041726768017,
      0.09215253591537476,
      -0.178339883685112,
      -0.0698845237493515,
      0.12082888931035995,
      0.14420461654663086,
      -0.7179995775222778,
      -0.3017366826534271,
      0.10073738545179367,
      0.10509391129016876,
      -0.1809026300907135,
      0.156991109251976,
      0.0710376426577568,
      -0.21359661221504211,
      0.18489579856395721,
      -0.03446958214044571,
      -0.060936424881219864,
      -0.12227006256580353,
      0.09194649755954742,
      0.18020427227020264,
      0.23548340797424316,
      0.020811624825000763,
      0.02065378986299038,
      -0.1077035591006279,
      -0.3697797656059265,
      -0.3545096218585968,
      -0.1552206575870514,
      -0.4120575487613678,
      -0.6527612209320068,
      -0.4759502708911896,
      -0.16044719517230988
    ],
    [
      -0.02603815495967865,
      -0.12220903486013412,
      0.010129433125257492,
      0.09368260949850082,
      -0.20796294510364532,
      -0.03593447431921959,
      0.21071568131446838,
      -0.03436597064137459,
      -0.23827211558818817,
      -0.05030464008450508,
      -0.09322027117013931,
      0.03062431514263153,
      -0.00845671072602272,
      -0.3659825921058655,
      0.006506654899567366,
      -0.1422107070684433,
      -0.2714622914791107,
      0.3880212903022766,
      -0.2310219705104828,
      -0.3085119426250458,
      -0.5271401405334473,
      -0.016693346202373505,
      -0.22534044086933136,
      -0.1865374892950058,
      0.3384300768375397,
      -0.2224094569683075,
      -0.5873856544494629,
      0.2844172418117523,
      -0.42302170395851135,
      -0.19233909249305725,
      -0.13860878348350525,
      0.3311786949634552,
      -0.4491616487503052,
      0.035993531346321106,
      0.2621960937976837,
      0.04859814792871475,
      0.18210668861865997,
      -0.025296952575445175,
      -0.1948220580816269,
      0.15737272799015045,
      -0.16348925232887268,
      0.4231678247451782,
      -0.06911852210760117,
      -0.23455609381198883,
      -0.30744391679763794,
      -0.15688414871692657,
      -0.13339638710021973,
      -0.07596927881240845,
      0.4176667332649231
    ],
    [
      -0.06380829215049744,
      0.053614143282175064,
      0.047804154455661774,
      -0.04886724427342415,
      -0.0767824575304985,
      -0.15178193151950836,
      -0.10512818396091461,
      0.07763997465372086,
      0.03771980106830597,
      0.29155316948890686,
      0.17521516978740692,
      0.018727511167526245,
      -0.13246460258960724,
      -0.46819907426834106,
      0.027124974876642227,
      -0.15138199925422668,
      -0.3616785407066345,
      -0.270649254322052,
      -0.04198693856596947,
      -0.07232125103473663,
      -0.4599071443080902,
      -0.1552887111902237,
      -0.12677545845508575,
      -0.16131488978862762,
      0.03967371955513954,
      -0.0545964241027832,
      -0.21242287755012512,
      0.31043675541877747,
      0.13668571412563324,
      0.18680700659751892,
      0.2959119975566864,
      0.17699982225894928,
      -0.03590516000986099,
      0.06433215737342834,
      0.4458499252796173,
      0.17357690632343292,
      0.14592720568180084,
      0.06184694916009903,
      -0.11481664329767227,
      0.004423963371664286,
      0.12973719835281372,
      0.41505080461502075,
      -0.22594667971134186,
      -0.48356252908706665,
      -0.4951734244823456,
      -0.24044205248355865,
      -0.19077180325984955,
      -0.3896402418613434,
      -0.05272163078188896
    ],
    [
      -0.036792609840631485,
      0.09151209145784378,
      0.07455191016197205,
      0.01009705476462841,
      -0.15499645471572876,
      -0.24884794652462006,
      -0.2548588216304779,
      0.23660609126091003,
      0.19721044600009918,
      0.18578951060771942,
      0.000673376489430666,
      -0.05538535490632057,
      -0.19722217321395874,
      -0.5649533271789551,
      0.13364385068416595,
      -0.07294569909572601,
      -0.3094770312309265,
      0.2587709426879883,
      0.15000969171524048,
      -0.03816903755068779,
      -0.5684884190559387,
      0.007758125197142363,
      -0.29291775822639465,
      0.021094493567943573,
      0.06037598103284836,
      -0.10156746208667755,
      -0.22733835875988007,
      -0.14546902477741241,
      0.40061235427856445,
      0.07542957365512848,
      -0.4620565176010132,
      -0.27509331703186035,
      0.15276630222797394,
      -0.0008088753675110638,
      -0.5843589901924133,
      0.23424451053142548,
      0.30942341685295105,
      0.10321787744760513,
      0.14160439372062683,
      0.03738819435238838,
      -0.0654313936829567,
      -0.27797943353652954,
      0.20948240160942078,
      0.00977756455540657,
      0.08278577774763107,
      0.08988729119300842,
      -0.08318544179201126,
      -0.2234535664319992,
      -0.17194725573062897
    ],
    [
      -0.12333919107913971,
      -0.12924353778362274,
      -0.33596518635749817,
      -0.13722708821296692,
      -0.06898943334817886,
      -0.0458071269094944,
      0.023141464218497276,
      0.196695938706398,
      0.08909665048122406,
      -0.00680881179869175,
      -0.28094035387039185,
      -0.011471194215118885,
      0.17956486344337463,
      0.19554650783538818,
      -0.15318737924098969,
      -0.11028826236724854,
      0.17608961462974548,
      -0.2627934515476227,
      0.16393506526947021,
      -0.20935793220996857,
      -0.2746342420578003,
      -0.05924661457538605,
      0.24870087206363678,
      0.35281693935394287,
      0.1605151742696762,
      0.250650018453598,
      0.17600305378437042,
      -0.15646351873874664,
      -0.3452289402484894,
      -0.11031684279441833,
      -0.2817138135433197,
      0.048096008598804474,
      -0.1391056776046753,
      -0.18149062991142273,
      -0.2666357755661011,
      -0.27855929732322693,
      -0.43249133229255676,
      -0.3931173086166382,
      0.03991011902689934,
      -0.08834490925073624,
      -0.13461869955062866,
      -0.13684681057929993,
      -0.36974209547042847,
      0.02533491514623165,
      -0.1338268518447876,
      -0.2667778432369232,
      -0.16192737221717834,
      -0.18792594969272614,
      -0.02042177878320217
    ],
    [
      -0.20227837562561035,
      -0.221676766872406,
      -0.048028167337179184,
      -0.08033870905637741,
      -0.06951899826526642,
      -0.2730550467967987,
      0.20261940360069275,
      -0.4158017039299011,
      -0.038797084242105484,
      0.06919534504413605,
      -0.2470257580280304,
      0.2666422128677368,
      0.23990857601165771,
      0.43020039796829224,
      -0.2652484178543091,
      0.017817961052060127,
      0.19691263139247894,
      -0.062100283801555634,
      -0.28117573261260986,
      -0.06746737658977509,
      0.737066924571991,
      -0.1356055587530136,
      -0.155277281999588,
      0.16900919377803802,
      -0.1326889842748642,
      -0.2986452877521515,
      -0.3984387516975403,
      -0.15917131304740906,
      0.10211855918169022,
      0.06549790501594543,
      -0.37647753953933716,
      -0.20196755230426788,
      0.1415940225124359,
      0.12933771312236786,
      -0.09472904354333878,
      -0.04475310817360878,
      0.12091325968503952,
      0.19877851009368896,
      0.049551237374544144,
      0.073331318795681,
      0.08853078633546829,
      0.33284929394721985,
      0.24638351798057556,
      -0.4556061625480652,
      -0.15241828560829163,
      0.06842835247516632,
      -0.12610894441604614,
      0.07031863927841187,
      0.6225131154060364
    ],
    [
      0.210507333278656,
      0.17311926186084747,
      0.2770432233810425,
      0.08417590707540512,
      0.3345775008201599,
      0.4270140528678894,
      0.26523464918136597,
      -0.1664181500673294,
      -0.031058168038725853,
      -0.19667616486549377,
      -0.07284139841794968,
      -0.17538774013519287,
      -0.08254364132881165,
      0.09655096381902695,
      -0.37995851039886475,
      0.002919707214459777,
      0.16724546253681183,
      -0.2349359691143036,
      -0.2375672608613968,
      0.03499482944607735,
      -0.13202734291553497,
      -0.38897934556007385,
      0.052075617015361786,
      0.09693162888288498,
      0.20269429683685303,
      -0.15305101871490479,
      0.1010410413146019,
      0.015870166942477226,
      -0.7487369775772095,
      0.0030974589753896,
      0.2789801359176636,
      -0.03237667307257652,
      0.13041026890277863,
      0.08014015108346939,
      0.07014212757349014,
      -0.5802573561668396,
      -0.37184417247772217,
      -0.036697860807180405,
      0.102248415350914,
      -0.0013089729472994804,
      -0.20547376573085785,
      -0.17479026317596436,
      -0.32243168354034424,
      -0.6178037524223328,
      -0.9347984790802002,
      -0.6348621845245361,
      -0.8180407285690308,
      -0.5879286527633667,
      -0.11558035761117935
    ],
    [
      0.14725233614444733,
      -0.4406876564025879,
      -0.5533769130706787,
      -0.44730648398399353,
      -0.5440194606781006,
      -0.5799639821052551,
      0.14891403913497925,
      0.17308767139911652,
      0.10575680434703827,
      0.13785451650619507,
      -0.2582096755504608,
      -0.05820265784859657,
      -0.101984404027462,
      -0.3165844976902008,
      0.29686272144317627,
      0.15608522295951843,
      -0.032462842762470245,
      0.2349391132593155,
      0.16933171451091766,
      -0.13924090564250946,
      -0.3347405195236206,
      0.08394695073366165,
      0.040947094559669495,
      -0.34953752160072327,
      -0.3360965847969055,
      0.2917388677597046,
      -0.031200017780065536,
      0.12462064623832703,
      -0.02370288223028183,
      -0.02927514538168907,
      -0.26397985219955444,
      0.1608363389968872,
      -0.09826791286468506,
      -0.09390954673290253,
      -0.045871224254369736,
      0.08222061395645142,
      -0.12867136299610138,
      -0.06564321368932724,
      0.019495761021971703,
      -0.31618747115135193,
      -0.5388194918632507,
      0.008981119841337204,
      0.39852455258369446,
      0.4344419240951538,
      0.2137492448091507,
      0.311246782541275,
      0.198506698012352,
      0.051835376769304276,
      0.08596710860729218
    ],
    [
      -0.2784472405910492,
      -0.15670962631702423,
      -0.04041182994842529,
      -0.09055019915103912,
      -0.16401760280132294,
      -0.11764291673898697,
      -0.4000832736492157,
      -0.17056091129779816,
      -0.07437922805547714,
      0.09520704299211502,
      0.07103758305311203,
      0.10053932666778564,
      -0.027102310210466385,
      0.16567254066467285,
      -0.0005308277904987335,
      0.0900149717926979,
      0.04334328696131706,
      -0.21034519374370575,
      0.04426434636116028,
      0.16230408847332,
      0.18992145359516144,
      -0.19746644794940948,
      -0.16937966644763947,
      -0.06791569292545319,
      0.20995479822158813,
      -0.14229433238506317,
      -0.11178389936685562,
      -0.1485215425491333,
      -0.23083235323429108,
      -0.020673779770731926,
      0.22021529078483582,
      -0.2693556845188141,
      -0.2899619936943054,
      -0.16184313595294952,
      -0.3145599067211151,
      -0.2799956500530243,
      0.05144350975751877,
      0.020380746573209763,
      0.298612505197525,
      0.18973375856876373,
      0.005530941765755415,
      -0.3972921073436737,
      -0.634348452091217,
      -0.3696161210536957,
      -0.2485835999250412,
      -0.03768983110785484,
      -0.10922941565513611,
      -0.2518962323665619,
      -0.3629003167152405
    ],
    [
      0.02260766178369522,
      -0.34869909286499023,
      -0.32470330595970154,
      -0.4084954559803009,
      -0.5838561654090881,
      -0.42941728234291077,
      -0.22729425132274628,
      -0.5927415490150452,
      -0.3132302463054657,
      -0.056578800082206726,
      0.18766279518604279,
      0.0027214742731302977,
      -0.3671555519104004,
      -0.6268659234046936,
      -0.11072885990142822,
      0.11235376447439194,
      0.07284274697303772,
      -0.15920045971870422,
      0.11668560653924942,
      0.040328219532966614,
      -0.5478406548500061,
      0.10678413510322571,
      0.07934624701738358,
      0.03002799302339554,
      0.10238021612167358,
      0.20464487373828888,
      -0.04679939150810242,
      -0.5592993497848511,
      -0.2262304276227951,
      0.029175875708460808,
      -0.33913376927375793,
      0.012308026663959026,
      -0.009944220073521137,
      -0.2551177740097046,
      -0.2577826678752899,
      -0.19549915194511414,
      -0.011068688705563545,
      -0.2518755793571472,
      -0.06499964743852615,
      -0.19201155006885529,
      -0.01102352049201727,
      0.10872974991798401,
      0.052410632371902466,
      0.18040141463279724,
      0.2588959038257599,
      0.1604100614786148,
      0.18610301613807678,
      0.20511570572853088,
      -0.32747095823287964
    ]
  ],
  "fc_layer.bias": [
    -0.08971118927001953,
    0.2350970059633255,
    0.05561208724975586,
    0.015533014200627804,
    -0.16867510974407196,
    0.49317285418510437,
    0.031979162245988846,
    0.14918529987335205,
    -0.25997182726860046,
    -0.09615734964609146
  ]
}