{
  "conv_layer.0.weight": [
    [
      [
        [
          -0.4376938045024872,
          -0.14792533218860626,
          0.4162352979183197,
          0.5186242461204529,
          0.2553356885910034
        ],
        [
          -0.4361872971057892,
          -0.15255548059940338,
          0.4203331172466278,
          0.7021452188491821,
          0.3131217956542969
        ],
        [
          0.5218202471733093,
          0.4960683286190033,
          0.5693843364715576,
          0.2868613004684448,
          -0.0719435065984726
        ],
        [
          0.14526866376399994,
          0.5291343331336975,
          0.2882474958896637,
          0.6421193480491638,
          0.5513002276420593
        ],
        [
          0.0418500117957592,
          0.1792721152305603,
          0.2740977704524994,
          0.2990698516368866,
          0.6801000237464905
        ]
      ]
    ]
  ],
  "conv_layer.0.bias": [
    0.22428566217422485
  ],
  "fc_layer.weight": [
    [
      -0.05203063040971756,
      -0.02052602544426918,
      -0.0671502947807312,
      -0.03167763352394104,
      -0.14546814560890198,
      -0.09769257158041,
      -0.14078544080257416,
      -0.1793787032365799,
      -0.25092750787734985,
      -0.2595078647136688,
      -0.21600832045078278,
      -0.09536153078079224,
      -0.054560184478759766,
      -0.11033079773187637,
      -0.08555983752012253,
      -0.1472664177417755,
      -0.07633282989263535,
      -0.03703940287232399,
      -0.006321033928543329,
      0.007938256487250328,
      0.08617176115512848,
      -0.0002889760653488338,
      -0.016831528395414352,
      -0.0979866087436676,
      -0.1807917207479477,
      -0.055193882435560226,
      -0.09968265146017075,
      -0.018698688596487045,
      0.0066497414372861385,
      -0.10037142783403397,
      -0.02449842542409897,
      -0.10439235717058182,
      0.008547184057533741,
      0.03198789432644844,
      -0.046451929956674576,
      0.1146186888217926,
      0.07849007099866867,
      0.0030866723973304033,
      0.005200977902859449,
      0.024635519832372665,
      -0.0702173039317131,
      -0.16701368987560272,
      -0.11719934642314911,
      -0.0927792564034462,
      -0.09942736476659775,
      0.023430397734045982,
      -0.08994752168655396,
      0.025799864903092384,
      0.024114737287163734,
      0.15298053622245789,
      0.15041951835155487,
      0.08819444477558136,
      0.06808250397443771,
      0.01487930491566658,
      -0.06281423568725586,
      -0.19730521738529205,
      -0.12064517289400101,
      -0.14785602688789368,
      -0.09395124018192291,
      -0.04846183955669403,
      -0.07154008746147156,
      -0.0037927492521703243,
      0.051748305559158325,
      0.09205643832683563,
      0.15501518547534943,
      0.1526181846857071,
      0.11782867461442947,
      0.07258796691894531,
      -0.017449241131544113,
      -0.30871981382369995,
      -0.0020995005033910275,
      -0.08450935035943985,
      0.04620272293686867,
      0.006419035606086254,
      0.0034550081472843885,
      0.03138398006558418,
      -0.13383503258228302,
      -0.12998683750629425,
      -0.016608022153377533,
      0.019922172650694847,
      0.0180458165705204,
      0.14638788998126984,
      0.16118597984313965,
      -0.1682804524898529,
      -0.11217751353979111,
      -0.007315903436392546,
      0.09107005596160889,
      -0.043817512691020966,
      0.10327842086553574,
      -0.020380940288305283,
      -0.13419125974178314,
      -0.4427272081375122,
      -0.2061598300933838,
      -0.05694533511996269,
      0.017538027837872505,
      0.0636032223701477,
      0.18689551949501038,
      0.02412552200257778,
      -0.12286648899316788,
      -0.04278279095888138,
      0.0322447270154953,
      0.11768335103988647,
      0.17591246962547302,
      0.01244987640529871,
      -0.2895292341709137,
      -0.4506794214248657,
      -0.1269420087337494,
      0.05596855655312538,
      -0.04545685276389122,
      0.05958756431937218,
      0.1132022961974144,
      -0.10052820295095444,
      -0.14072149991989136,
      0.06475934386253357,
      0.018907643854618073,
      0.1237899661064148,
      0.19334113597869873,
      0.02036222070455551,
      -0.3601043224334717,
      -0.24637289345264435,
      0.04764236882328987,
      0.10017888247966766,
      -0.009279413148760796,
      0.13117669522762299,
      -0.015516981482505798,
      -0.18989889323711395,
      -0.14583753049373627,
      0.0155659643933177,
      0.018441414460539818,
      0.01148191373795271,
      0.2046080082654953,
      0.05762789770960808,
      -0.12214617431163788,
      -0.0213639996945858,
      0.04471302032470703,
      -0.09101592004299164,
      -0.03381449356675148,
      0.007728948723524809,
      -0.04788385331630707,
      -0.15624672174453735,
      -0.1277657300233841,
      -0.020424094051122665,
      0.07703353464603424,
      -0.02965565398335457,
      0.20791731774806976,
      0.09407898038625717,
      0.06704673916101456,
      0.044414617121219635,
      0.06808201223611832,
      -0.08211871981620789,
      -0.0041222767904400826,
      0.055493079125881195,
      -0.097686268389225,
      -0.1353941112756729,
      -0.1192505732178688,
      0.0437527559697628,
      -0.025350909680128098,
      -0.0501537062227726,
      0.10365109890699387,
      0.17944054305553436,
      0.046809758991003036,
      0.046658486127853394,
      -0.0707140564918518,
      -0.07716395705938339,
      -0.03936733677983284,
      -0.007695235777646303,
      -0.1251034140586853,
      -0.08781823515892029,
      -0.004381163977086544,
      -0.1971798986196518,
      0.0946177989244461,
      -0.07044782489538193,
      0.020328383892774582,
      0.09824831783771515,
      0.0915495976805687,
      -0.05268494039773941,
      -0.03161783516407013,
      -0.15142062306404114,
      -0.20634214580059052,
      -0.12557357549667358,
      -0.13518106937408447,
      -0.04062962159514427,
      -0.0864790752530098,
      -0.09384455531835556,
      -0.1164712905883789,
      -0.2850554287433624,
      -0.28248992562294006,
      -0.17800311744213104,
      -0.11722085624933243,
      -0.22659888863563538,
      -0.25612911581993103,
      -0.22469669580459595,
      -0.1751459389925003,
      -0.07462390512228012,
      -0.08058536797761917,
      -0.05200005695223808
    ],
    [
      0.13454250991344452,
      0.18684296309947968,
      0.1780298948287964,
      0.05186934024095535,
      0.059401363134384155,
      -0.05121595039963722,
      0.05885043740272522,
      0.12128307670354843,
      0.00766280572861433,
      -0.019847659394145012,
      -0.019909892231225967,
      0.07517603039741516,
      0.1735660880804062,
      0.18364381790161133,
      0.1425757110118866,
      0.12037129700183868,
      0.2165287435054779,
      0.053831834346055984,
      -0.06542224436998367,
      0.01640721596777439,
      0.12098117917776108,
      0.12439421564340591,
      0.04934282600879669,
      0.0005706821102648973,
      0.11183207482099533,
      0.0822320431470871,
      0.009163386188447475,
      0.06754414737224579,
      0.16306854784488678,
      0.12078002095222473,
      0.043755047023296356,
      -0.17740757763385773,
      -0.0879833921790123,
      -0.07554565370082855,
      -0.015298156999051571,
      -0.1498003900051117,
      -0.19105273485183716,
      -0.035771407186985016,
      0.07828930020332336,
      0.06057697907090187,
      0.04216105118393898,
      0.004443391691893339,
      0.1366368532180786,
      -0.04732009023427963,
      -0.17555905878543854,
      -0.23733723163604736,
      -0.13591143488883972,
      -0.013965686783194542,
      0.01271507516503334,
      -0.0201357863843441,
      -0.17576037347316742,
      -0.011620528064668179,
      0.03457704931497574,
      -0.1496167629957199,
      -0.19701780378818512,
      -0.12014688551425934,
      0.157904714345932,
      -0.032139312475919724,
      -0.14783859252929688,
      -0.21210356056690216,
      -0.0750628262758255,
      -0.12673252820968628,
      0.05529725179076195,
      0.11268763244152069,
      -0.015386689454317093,
      -0.03197304904460907,
      -0.05301846191287041,
      -0.208993062376976,
      -0.41703563928604126,
      0.011615607887506485,
      0.09648188203573227,
      -0.02669072523713112,
      -0.12638550996780396,
      -0.06510836631059647,
      -0.11644428968429565,
      -0.11057568341493607,
      0.22844943404197693,
      0.25717002153396606,
      0.03825436159968376,
      -0.1295478641986847,
      -0.12544527649879456,
      -0.24471303820610046,
      -0.029484273865818977,
      0.048161908984184265,
      0.0859188586473465,
      0.11145789176225662,
      -0.020461510866880417,
      0.0724635198712349,
      -0.2104964703321457,
      -0.15910391509532928,
      0.1592729538679123,
      0.24397306144237518,
      -0.018368834629654884,
      -0.20278112590312958,
      -0.1439179927110672,
      -0.06201440468430519,
      0.09315089881420135,
      0.18175746500492096,
      0.22460681200027466,
      -0.013526651076972485,
      -0.10840369760990143,
      0.041815534234046936,
      -0.2904738187789917,
      -0.04890647158026695,
      0.14642806351184845,
      0.2437121570110321,
      -0.19081102311611176,
      -0.3730287551879883,
      -0.22862370312213898,
      -0.08637014031410217,
      -0.009940973483026028,
      0.19672726094722748,
      0.15959946811199188,
      -0.18711872398853302,
      -0.37688305974006653,
      -0.018276194110512733,
      -0.21564847230911255,
      -0.02889670990407467,
      0.20776940882205963,
      0.10472995042800903,
      -0.272329717874527,
      -0.26177480816841125,
      -0.06863405555486679,
      -0.06816744804382324,
      0.05031837522983551,
      0.12939512729644775,
      0.18633092939853668,
      -0.0614812970161438,
      -0.17960825562477112,
      -0.026951730251312256,
      0.0019906701054424047,
      0.009638732299208641,
      0.2733098566532135,
      -0.08518364280462265,
      -0.14374570548534393,
      0.13452529907226562,
      0.03976184502243996,
      0.07941204309463501,
      0.06872951239347458,
      0.14023028314113617,
      0.12486109882593155,
      0.13003654778003693,
      0.026182347908616066,
      0.10000893473625183,
      -0.01566511020064354,
      -0.11211274564266205,
      0.06120070070028305,
      -0.09640349447727203,
      -0.01603332720696926,
      0.18155013024806976,
      0.049604348838329315,
      -0.08558491617441177,
      0.09780088067054749,
      0.19467318058013916,
      0.11491382122039795,
      0.13363508880138397,
      0.0890529677271843,
      0.14065641164779663,
      0.029479598626494408,
      -0.07213284820318222,
      -0.04413660988211632,
      -0.052637502551078796,
      0.18022821843624115,
      0.11479245126247406,
      0.0049087172374129295,
      -0.0845613181591034,
      0.15833936631679535,
      0.1102677658200264,
      0.07770901173353195,
      0.17529796063899994,
      0.17096881568431854,
      0.08860395103693008,
      -0.07047714293003082,
      -0.24197645485401154,
      -0.17695152759552002,
      0.020770028233528137,
      0.14147405326366425,
      -0.08026078343391418,
      -0.0533013641834259,
      0.11201485246419907,
      0.1829410344362259,
      0.16202546656131744,
      0.12272291630506516,
      0.051456648856401443,
      -0.16869555413722992,
      -0.11277075856924057,
      -0.2625117301940918,
      -0.3225470781326294,
      -0.28786465525627136,
      -0.31419050693511963,
      -0.10027691721916199,
      0.15858125686645508,
      0.112785205245018,
      0.19280759990215302,
      0.11385927349328995,
      0.12613937258720398
    ],
    [
      -0.06785452365875244,
      0.00027061268338002264,
      -0.05628576874732971,
      0.0070700617507100105,
      0.08369626849889755,
      0.16053347289562225,
      0.11044082045555115,
      0.010187776759266853,
      0.021989179775118828,
      -0.14458051323890686,
      -0.08618571609258652,
      -0.026370346546173096,
      -0.039153020828962326,
      0.015740588307380676,
      -0.03656935691833496,
      -0.051385752856731415,
      0.012697474099695683,
      0.1124999150633812,
      0.07373622059822083,
      0.07256856560707092,
      0.08364666253328323,
      0.1421855092048645,
      0.13612911105155945,
      -0.0013434160500764847,
      -0.12196215242147446,
      -0.13318993151187897,
      -0.07859726250171661,
      -0.0950666069984436,
      0.0319628082215786,
      -0.018160387873649597,
      -0.0575847402215004,
      -0.019115280359983444,
      -0.009170091710984707,
      0.03495858609676361,
      0.02290276437997818,
      0.00425783870741725,
      0.021260030567646027,
      -0.03975503146648407,
      -0.06609153747558594,
      -0.08875222504138947,
      -0.11632288247346878,
      -0.10724955797195435,
      -0.07367553561925888,
      0.13008086383342743,
      0.027294527739286423,
      0.05644725263118744,
      0.17976176738739014,
      0.08939160406589508,
      0.08851133286952972,
      0.024986589327454567,
      0.027500398457050323,
      -0.0379641093313694,
      0.005674487911164761,
      -0.16567771136760712,
      -0.17477865517139435,
      -0.1457320898771286,
      0.024168476462364197,
      0.13496658205986023,
      0.08466094732284546,
      -0.02808913215994835,
      -0.031267788261175156,
      -0.10225977003574371,
      0.022608688101172447,
      0.050502315163612366,
      0.02872481383383274,
      0.061932891607284546,
      0.039678703993558884,
      -0.04295537993311882,
      -0.11474952101707458,
      -0.14257602393627167,
      -0.010259472765028477,
      -0.047967519611120224,
      -0.20474392175674438,
      -0.1821371614933014,
      -0.2033417969942093,
      -0.21004697680473328,
      -0.3481929898262024,
      -0.17399227619171143,
      -0.1157214418053627,
      -0.02529081515967846,
      0.02158568985760212,
      -0.12085726112127304,
      -0.13787002861499786,
      0.1650126874446869,
      -0.08455226570367813,
      -0.12002775818109512,
      -0.2680758535861969,
      -0.15201105177402496,
      -0.0830385684967041,
      -0.19045428931713104,
      -0.1947338730096817,
      -0.08003513514995575,
      -0.15669682621955872,
      -0.025952881202101707,
      -0.05133106932044029,
      -0.1523664891719818,
      0.035167671740055084,
      0.27174124121665955,
      0.05980220064520836,
      -0.027529243379831314,
      -0.12994380295276642,
      -0.034499391913414,
      0.04555585980415344,
      0.08443522453308105,
      0.12667226791381836,
      0.07253652065992355,
      -0.06175089254975319,
      -0.015823936089873314,
      -0.014661201275885105,
      -0.06273651868104935,
      0.24224501848220825,
      0.3702571988105774,
      -0.05183891952037811,
      0.08910182863473892,
      0.1259523630142212,
      0.06647120416164398,
      0.02779744565486908,
      0.19087548553943634,
      0.12617574632167816,
      0.055731549859046936,
      0.017360882833600044,
      0.013459834270179272,
      -0.07392147928476334,
      0.03388218581676483,
      0.24621541798114777,
      0.47570544481277466,
      0.05591373145580292,
      0.22920241951942444,
      0.15518803894519806,
      0.06992479413747787,
      0.0838620737195015,
      0.09499567747116089,
      0.06240858882665634,
      0.08400179445743561,
      0.07314635813236237,
      0.03251950815320015,
      0.08332152664661407,
      0.011123953387141228,
      0.28878048062324524,
      0.2444872409105301,
      -0.10249251127243042,
      0.12759248912334442,
      0.14657020568847656,
      0.09326160699129105,
      0.0951203852891922,
      0.07087785005569458,
      0.04589759185910225,
      -0.04802572727203369,
      0.01770971342921257,
      0.0815269872546196,
      0.16387155652046204,
      0.14692507684230804,
      0.280475914478302,
      0.06696724146604538,
      0.011387141421437263,
      -0.011448553763329983,
      -0.0271954033523798,
      0.07018978148698807,
      0.1194520890712738,
      -0.004230264108628035,
      -0.0360061377286911,
      -0.05202048644423485,
      0.08930648118257523,
      0.14512668550014496,
      0.048628661781549454,
      0.13221973180770874,
      0.16215811669826508,
      0.05708031356334686,
      -0.07109744846820831,
      -0.021068956702947617,
      0.02387448027729988,
      -0.0690411776304245,
      0.01674395054578781,
      -0.09062886983156204,
      -0.09123370051383972,
      -0.11628494411706924,
      0.04575066268444061,
      0.01908107101917267,
      -0.10963407158851624,
      -0.01801464334130287,
      -0.016851477324962616,
      -0.0417599156498909,
      -0.09655513614416122,
      -0.108009934425354,
      -0.3117406964302063,
      -0.32783085107803345,
      -0.2558029294013977,
      -0.1672735959291458,
      0.003876199247315526,
      -0.18999874591827393,
      -0.16063372790813446,
      -0.23860447108745575,
      -0.08929598331451416,
      -0.13027426600456238,
      -0.08573105186223984,
      -0.0629807710647583
    ],
    [
      -0.06698388606309891,
      -0.11255109310150146,
      -0.12192263454198837,
      -0.0864054411649704,
      -0.005027097649872303,
      0.06809569150209427,
      0.2663984000682831,
      0.22476355731487274,
      0.05330828204751015,
      0.10493054240942001,
      -0.062417011708021164,
      -0.09553878754377365,
      -0.08407630771398544,
      -0.14270630478858948,
      -0.07654039561748505,
      -0.014380387961864471,
      0.07454922050237656,
      0.06412604451179504,
      0.005880432203412056,
      0.05418701469898224,
      0.013346605934202671,
      0.025019735097885132,
      0.06120094284415245,
      -0.023442618548870087,
      -0.05479861795902252,
      -0.2494393140077591,
      -0.27976518869400024,
      -0.16285739839076996,
      -0.0008714612922631204,
      0.09667093306779861,
      0.03691723942756653,
      0.014654469676315784,
      0.14240671694278717,
      0.09909012168645859,
      0.11754392087459564,
      0.10841584205627441,
      0.03541218861937523,
      -0.04176606237888336,
      -0.09439818561077118,
      -0.17463646829128265,
      -0.23998914659023285,
      -0.1282697319984436,
      -0.07035785913467407,
      0.14534598588943481,
      0.07604748755693436,
      0.14516086876392365,
      0.12889450788497925,
      -0.027857158333063126,
      0.09381330013275146,
      0.025606149807572365,
      -0.0019320165738463402,
      0.020609620958566666,
      -0.012177912518382072,
      -0.05558466538786888,
      -0.22418679296970367,
      -0.2468433827161789,
      0.030433502048254013,
      0.13174620270729065,
      0.04534425586462021,
      -0.0639992281794548,
      -0.18659336864948273,
      -0.1509649157524109,
      0.014626865275204182,
      0.07616870105266571,
      0.04652321711182594,
      0.14050866663455963,
      0.07194085419178009,
      0.024537699297070503,
      -0.25581568479537964,
      -0.268894225358963,
      0.0220717191696167,
      0.09500708431005478,
      -0.03494078665971756,
      -0.030582856386899948,
      -0.18255029618740082,
      -0.24121421575546265,
      0.007890842854976654,
      0.1380973756313324,
      0.0990234836935997,
      0.03920556604862213,
      0.08666996657848358,
      -0.18776190280914307,
      -0.32135674357414246,
      -0.1107599064707756,
      -0.06696076691150665,
      -0.11996651440858841,
      -0.2890666723251343,
      -0.1388479322195053,
      -0.09934131801128387,
      0.04717361554503441,
      0.15623117983341217,
      0.11874063313007355,
      -0.023533450439572334,
      0.002424003090709448,
      -0.12135285139083862,
      -0.18170590698719025,
      -0.26510679721832275,
      -0.12421711534261703,
      -0.05749916285276413,
      0.0340547189116478,
      -0.14667189121246338,
      -0.14313861727714539,
      -0.006799346301704645,
      0.05308593809604645,
      0.05418708920478821,
      -0.0045992666855454445,
      -0.012960139662027359,
      -0.013860837556421757,
      -0.025634052231907845,
      -0.019104713574051857,
      0.01381008606404066,
      -0.12016519904136658,
      0.13015669584274292,
      0.1925043910741806,
      0.09786025434732437,
      -0.15367037057876587,
      -0.16674982011318207,
      -0.27171996235847473,
      -0.07989417761564255,
      -0.10201633721590042,
      0.024312637746334076,
      0.06664163619279861,
      0.018244143575429916,
      0.06545835733413696,
      0.06337037682533264,
      -0.14937588572502136,
      0.23970499634742737,
      0.22199097275733948,
      0.15281961858272552,
      -0.021563822403550148,
      -0.0665053203701973,
      -0.16245944797992706,
      -0.11703364551067352,
      -0.03052584081888199,
      0.07957126200199127,
      0.14522695541381836,
      0.09688574075698853,
      0.035134848207235336,
      -0.12203120440244675,
      -0.17165258526802063,
      0.18162162601947784,
      0.11543453484773636,
      0.14164066314697266,
      0.103537417948246,
      -0.0029361790511757135,
      -0.08002900332212448,
      -0.022257886826992035,
      0.022444389760494232,
      0.17416520416736603,
      -0.004306966904550791,
      0.015813272446393967,
      -0.007547098211944103,
      -0.21418073773384094,
      -0.1768646389245987,
      0.0031288000755012035,
      0.17347507178783417,
      0.09870059043169022,
      0.15325376391410828,
      0.019283872097730637,
      -0.04353554919362068,
      -0.02464420534670353,
      -0.011310133151710033,
      0.013321898877620697,
      0.028633998706936836,
      -0.09534581005573273,
      -0.14914274215698242,
      -0.25340747833251953,
      -0.1434999257326126,
      0.046719882637262344,
      0.035501088947057724,
      0.12936460971832275,
      0.017627088353037834,
      0.14910858869552612,
      0.07508940249681473,
      0.06695860624313354,
      -0.009983661584556103,
      0.05355062708258629,
      0.04217641428112984,
      -0.05616772919893265,
      -0.18267802894115448,
      -0.12126825749874115,
      -0.07916063070297241,
      -0.09861037135124207,
      0.12220471352338791,
      0.19496797025203705,
      0.24213987588882446,
      0.26436111330986023,
      0.2775612771511078,
      0.15142394602298737,
      -0.022361284121870995,
      -0.03575742617249489,
      -0.06018824130296707,
      -0.13882072269916534,
      -0.058055978268384933,
      -0.13316039741039276,
      -0.09404683858156204
    ],
    [
      0.06803511083126068,
      0.05975482612848282,
      0.03963226079940796,
      -0.1455787867307663,
      -0.306627094745636,
      -0.3704197108745575,
      -0.3643544614315033,
      -0.3611048460006714,
      -0.2222968488931656,
      -0.1558244675397873,
      -0.12402956932783127,
      0.036644794046878815,
      -0.004192553460597992,
      -0.013340712524950504,
      0.09135957062244415,
      0.00983105693012476,
      0.07568325847387314,
      0.006466171704232693,
      -0.10222522914409637,
      -0.13231363892555237,
      -0.12873171269893646,
      0.14244519174098969,
      0.07733511924743652,
      0.0639963373541832,
      0.13293322920799255,
      0.11525261402130127,
      0.010145578533411026,
      0.04607181251049042,
      0.04464544355869293,
      0.07815533131361008,
      0.09966935962438583,
      0.056284449994564056,
      -0.02567795105278492,
      -0.07146012037992477,
      -0.13020086288452148,
      -0.020618027076125145,
      -0.09158895164728165,
      -0.05041078105568886,
      0.037189777940511703,
      0.12023553997278214,
      0.2583736777305603,
      0.009309551678597927,
      0.04312879592180252,
      0.16176411509513855,
      0.09270051121711731,
      -0.00361336930654943,
      -0.05269515514373779,
      -0.05933830887079239,
      -0.14491651952266693,
      -0.14093783497810364,
      -0.127216637134552,
      -0.10911440849304199,
      -0.0030942170415073633,
      0.053261950612068176,
      0.15301546454429626,
      0.05354258045554161,
      -0.04656759276986122,
      -0.08941112458705902,
      -0.07266529649496078,
      -0.06936200708150864,
      0.061891380697488785,
      -0.08113899827003479,
      -0.19229047000408173,
      -0.22331945598125458,
      0.0156342014670372,
      0.05516023188829422,
      -0.08419914543628693,
      0.02821420691907406,
      -0.21112355589866638,
      -0.17881789803504944,
      -0.046127740293741226,
      -0.19599482417106628,
      -0.045861173421144485,
      -0.03636791184544563,
      0.13824839890003204,
      0.12810896337032318,
      -0.06403219699859619,
      -0.10625089704990387,
      0.11549116671085358,
      0.08131477981805801,
      -0.08362163603305817,
      -0.1432611048221588,
      -0.21108615398406982,
      -0.14705181121826172,
      -0.053047314286231995,
      0.006121181417256594,
      0.0854765996336937,
      0.14521464705467224,
      0.22089894115924835,
      0.2514941990375519,
      -0.028539389371871948,
      0.0574406199157238,
      0.16254651546478271,
      -0.025348719209432602,
      -0.005344422999769449,
      0.026717128232121468,
      -0.10855436325073242,
      -0.0941595509648323,
      -0.054209161549806595,
      -0.09085386991500854,
      0.12175099551677704,
      0.10441097617149353,
      0.22177836298942566,
      0.19545450806617737,
      -0.09567080438137054,
      0.16582991182804108,
      0.24466335773468018,
      0.08913832157850266,
      0.16806191205978394,
      0.054943326860666275,
      -0.15918578207492828,
      -0.11013546586036682,
      -0.061525747179985046,
      -0.07611659914255142,
      0.08774960786104202,
      0.07740221917629242,
      -0.0065381177701056,
      -0.013870855793356895,
      0.07253891974687576,
      0.27401721477508545,
      0.21096940338611603,
      -0.017352893948554993,
      -0.04335182160139084,
      -0.14772137999534607,
      -0.3246387839317322,
      -0.11879849433898926,
      0.046215519309043884,
      -0.22698377072811127,
      -0.15523836016654968,
      -0.04821709170937538,
      -0.20780663192272186,
      -0.17914846539497375,
      0.02478254772722721,
      0.06168917939066887,
      -0.14651483297348022,
      -0.2554415464401245,
      -0.08306145668029785,
      -0.2022242248058319,
      -0.3029874265193939,
      -0.0830872431397438,
      0.026373594999313354,
      -0.1089240089058876,
      -0.18232788145542145,
      -0.18148255348205566,
      -0.21199186146259308,
      -0.18971462547779083,
      -0.06679603457450867,
      -0.04556656628847122,
      -0.09953760355710983,
      -0.045876625925302505,
      -0.05162373185157776,
      -0.1093522384762764,
      -0.11667293310165405,
      -0.024645311757922173,
      0.05695518106222153,
      -0.12053003162145615,
      -0.11002805083990097,
      -0.13924898207187653,
      0.0024293195456266403,
      0.012067584320902824,
      0.04587598145008087,
      0.02203848771750927,
      0.0650884136557579,
      0.13291104137897491,
      0.15861335396766663,
      0.06415297091007233,
      0.0516214482486248,
      0.0683264210820198,
      0.0053611258044838905,
      0.025024449452757835,
      0.013036303222179413,
      -0.019086837768554688,
      0.043887909501791,
      -0.12551254034042358,
      -0.11801253259181976,
      -0.09319912642240524,
      -0.06909888982772827,
      -0.018510786816477776,
      -0.057142630219459534,
      -0.04470979794859886,
      0.05574757605791092,
      0.0411670096218586,
      0.12181907892227173,
      0.06651544570922852,
      0.029361609369516373,
      -0.02528759092092514,
      -0.049092911183834076,
      -0.29161545634269714,
      -0.28138887882232666,
      -0.28732600808143616,
      -0.23750518262386322,
      -0.20678572356700897,
      -0.10685833543539047,
      0.032551828771829605,
      0.08060815185308456,
      0.07101038843393326
    ],
    [
      0.18910656869411469,
      0.12987549602985382,
      0.15500789880752563,
      0.1561991423368454,
      0.06350512057542801,
      -0.05997426062822342,
      -0.08853673934936523,
      -0.012227385304868221,
      0.10372656583786011,
      0.14085587859153748,
      0.0975213497877121,
      0.0775354653596878,
      0.16925844550132751,
      0.14824821054935455,
      0.2052411288022995,
      0.008634204976260662,
      0.0003271275490988046,
      -0.04272589087486267,
      -0.056619804352521896,
      -0.11535816639661789,
      -0.055506352335214615,
      0.05855647101998329,
      0.03146008029580116,
      0.024737799540162086,
      0.0012620489578694105,
      -0.0026740392204374075,
      0.1379348337650299,
      0.1806952804327011,
      0.13605308532714844,
      -0.1158711388707161,
      -0.06801167875528336,
      0.025126107037067413,
      0.01290605217218399,
      -0.04163854569196701,
      0.016558730974793434,
      -0.021860212087631226,
      0.03678224980831146,
      0.13121548295021057,
      0.01671789586544037,
      0.02973983623087406,
      0.013679752126336098,
      0.13704313337802887,
      0.09576627612113953,
      -0.22757084667682648,
      -0.18163827061653137,
      -0.005846401210874319,
      0.03493883088231087,
      0.04107542335987091,
      -0.09907127916812897,
      -0.008195674046874046,
      0.023485828191041946,
      0.10565447062253952,
      0.17969228327274323,
      0.22198180854320526,
      0.3310198485851288,
      0.29901012778282166,
      0.014964315108954906,
      -0.269143670797348,
      -0.06452400237321854,
      0.015268230810761452,
      0.07357112318277359,
      0.13561393320560455,
      -0.005423706024885178,
      -0.17706294357776642,
      -0.19140386581420898,
      -0.0630897581577301,
      -0.06724849343299866,
      0.24731463193893433,
      0.5392735004425049,
      0.6811687350273132,
      0.11553791165351868,
      -0.15190303325653076,
      0.05297065153717995,
      0.0915117859840393,
      0.03204542025923729,
      0.08317012339830399,
      0.0496496744453907,
      -0.04673255607485771,
      -0.12502481043338776,
      -0.032243307679891586,
      -0.21575875580310822,
      -0.13894961774349213,
      0.291424036026001,
      0.5801295042037964,
      0.05206122621893883,
      -0.09402527660131454,
      0.0016775352414697409,
      0.09978297352790833,
      0.12331566214561462,
      0.14671161770820618,
      0.143085777759552,
      -0.08939819782972336,
      -0.12215177714824677,
      -0.15494988858699799,
      -0.23387344181537628,
      -0.20558857917785645,
      -0.18751564621925354,
      0.04718013480305672,
      0.11026027053594589,
      0.013568603433668613,
      -0.14916017651557922,
      -0.1769833117723465,
      -0.018163377419114113,
      0.0925581231713295,
      -0.04230533167719841,
      -0.22316241264343262,
      -0.10169242322444916,
      0.029716748744249344,
      -0.04042191803455353,
      -0.2064167559146881,
      0.010000407695770264,
      0.0805031880736351,
      0.07270832359790802,
      0.09189782291650772,
      0.04048359766602516,
      -0.04408688098192215,
      -0.1334940642118454,
      -0.1697951704263687,
      -0.22128885984420776,
      -0.17828163504600525,
      0.04495866224169731,
      0.026334336027503014,
      0.021236956119537354,
      -0.03833089396357536,
      0.06491957604885101,
      0.061450790613889694,
      0.0723135694861412,
      0.053079865872859955,
      0.12340986728668213,
      0.06287053972482681,
      -0.013008753769099712,
      -0.07388725131750107,
      -0.04758245870471001,
      0.06763045489788055,
      -0.02220609411597252,
      0.011050011031329632,
      0.12392774224281311,
      0.027597865089774132,
      0.03316497430205345,
      0.1142532229423523,
      0.10275082290172577,
      -0.005738710518926382,
      0.11169949173927307,
      0.12951484322547913,
      0.057460393756628036,
      0.04902423918247223,
      0.10876422375440598,
      0.0819208174943924,
      0.034420523792505264,
      0.035434555262327194,
      0.06911645084619522,
      0.13565531373023987,
      0.1533317267894745,
      0.18277385830879211,
      0.1379062831401825,
      -0.03759940713644028,
      -0.11223115026950836,
      0.0275637935847044,
      0.04622667655348778,
      0.042379580438137054,
      -0.01013866439461708,
      -0.04860660806298256,
      0.09959585964679718,
      0.013310755603015423,
      0.04000970721244812,
      0.15457820892333984,
      0.11190038174390793,
      0.0889689102768898,
      0.11173927783966064,
      0.1389092355966568,
      -0.1813633143901825,
      -0.10659188032150269,
      -0.0048082610592246056,
      0.010391241870820522,
      0.06974436342716217,
      0.02983824536204338,
      0.013948550447821617,
      -0.032222531735897064,
      0.0012049115030094981,
      0.12407838553190231,
      0.24554327130317688,
      0.15842485427856445,
      0.21765051782131195,
      0.15157292783260345,
      0.10233607143163681,
      0.0172626543790102,
      0.11266064643859863,
      0.15694107115268707,
      0.16965724527835846,
      0.05093519389629364,
      0.011748396791517735,
      0.050100646913051605,
      0.12214135378599167,
      0.18663495779037476,
      0.11488061398267746,
      0.1664513349533081
    ],
    [
      -0.011777689680457115,
      0.013973167166113853,
      0.05814815312623978,
      0.10992245376110077,
      0.30018389225006104,
      0.32128462195396423,
      0.31975042819976807,
      0.15290360152721405,
      0.1314479559659958,
      0.1822306513786316,
      0.27525076270103455,
      0.23949190974235535,
      0.020130334421992302,
      0.020701315253973007,
      -0.02949562482535839,
      -0.03883906453847885,
      -0.0024308667052537203,
      0.02346227876842022,
      0.10580466687679291,
      0.07001153379678726,
      -0.061779554933309555,
      0.009446193464100361,
      0.1585974395275116,
      0.16232427954673767,
      0.18909618258476257,
      0.21358059346675873,
      0.1661272495985031,
      0.05230224132537842,
      -0.05333605408668518,
      -0.11013781279325485,
      0.01483764499425888,
      0.04005821794271469,
      0.03399825468659401,
      -0.15222474932670593,
      -0.026842540130019188,
      -0.039836909621953964,
      0.07455762475728989,
      0.014265710487961769,
      0.11109308153390884,
      0.14951539039611816,
      0.11191379278898239,
      -0.013700257986783981,
      0.02086692862212658,
      -0.1941477209329605,
      -0.09164699912071228,
      -0.11578719317913055,
      -0.10836713761091232,
      -0.20441773533821106,
      -0.0682075098156929,
      -0.1465216428041458,
      -0.1931469589471817,
      -0.1616101711988449,
      -0.1246505156159401,
      -0.08178728818893433,
      -0.19870515167713165,
      -0.15541626513004303,
      -0.018906865268945694,
      -0.12782081961631775,
      -0.12731900811195374,
      -0.05412491410970688,
      -0.03789379820227623,
      -0.02385898120701313,
      -0.03248187154531479,
      -0.16686072945594788,
      -0.22887369990348816,
      -0.22848807275295258,
      -0.16645489633083344,
      -0.1163153350353241,
      -0.26661810278892517,
      -0.37504398822784424,
      -0.12359147518873215,
      -0.1526939868927002,
      0.0058238874189555645,
      0.024704130366444588,
      -0.03743133693933487,
      0.04048669710755348,
      -0.021318884566426277,
      -0.15458212792873383,
      -0.2638777494430542,
      -0.08654031902551651,
      0.0966310054063797,
      0.09801442921161652,
      0.12833429872989655,
      -0.26312342286109924,
      -0.09843651950359344,
      -0.05334260314702988,
      0.11425214260816574,
      0.09976352006196976,
      0.07920677214860916,
      0.01809738203883171,
      -8.380090002901852e-05,
      -0.0525999590754509,
      -0.04345084726810455,
      -0.036951079964637756,
      0.03718838095664978,
      0.19136419892311096,
      0.15195585787296295,
      -0.15806955099105835,
      -0.15283378958702087,
      -0.11070602387189865,
      0.06611429899930954,
      0.07513165473937988,
      0.1860828846693039,
      0.10602951049804688,
      0.016648219898343086,
      0.024495191872119904,
      -0.014196205884218216,
      -0.0864303931593895,
      0.03088356927037239,
      0.08683106303215027,
      0.024474916979670525,
      -0.22739240527153015,
      -0.1416902244091034,
      -0.2171465903520584,
      -0.031746141612529755,
      0.04929003491997719,
      0.22877056896686554,
      0.09654511511325836,
      0.09960896521806717,
      -0.04242807999253273,
      -0.07706231623888016,
      -0.027942990884184837,
      0.004844429902732372,
      -0.01357339508831501,
      -0.10048570483922958,
      -0.2055165320634842,
      -0.05170943960547447,
      -0.36165332794189453,
      -0.033880192786455154,
      -0.029009012505412102,
      0.22426366806030273,
      0.2030823528766632,
      0.1238076314330101,
      0.06235824152827263,
      0.09960556775331497,
      0.07584908604621887,
      0.0554916076362133,
      -0.022385556250810623,
      0.005195158999413252,
      -0.05536346882581711,
      -0.07235390692949295,
      -0.2746858596801758,
      -0.2310909926891327,
      -0.13431663811206818,
      0.11466534435749054,
      0.18423877656459808,
      0.17668750882148743,
      0.16904529929161072,
      0.18705205619335175,
      0.07742605358362198,
      -0.02952158823609352,
      0.020215937867760658,
      -0.008915189653635025,
      -0.044983528554439545,
      0.026610741391777992,
      -0.16770747303962708,
      -0.26170700788497925,
      -0.1551969349384308,
      -0.08925862610340118,
      0.06570744514465332,
      0.05688696727156639,
      -0.021044896915555,
      -0.005982214584946632,
      -0.029129259288311005,
      -0.07442692667245865,
      -0.03427755460143089,
      -0.08841315656900406,
      0.023556742817163467,
      -0.008447134867310524,
      -0.11351542174816132,
      -0.19576409459114075,
      -0.20860973000526428,
      -0.3084288537502289,
      -0.30220627784729004,
      -0.17091841995716095,
      -0.19234108924865723,
      -0.2865872383117676,
      -0.17666691541671753,
      -0.17022329568862915,
      -0.15722516179084778,
      -0.0076001775451004505,
      -0.0681452825665474,
      -0.044269561767578125,
      -0.09172393381595612,
      -0.11661532521247864,
      -0.11243924498558044,
      -0.2524139881134033,
      -0.2653215825557709,
      -0.3221365809440613,
      -0.24025076627731323,
      -0.10317274183034897,
      -0.17353764176368713,
      -0.015318299643695354,
      -0.03923565894365311,
      -0.04862305521965027,
      -0.059044837951660156
    ],
    [
      0.08408745378255844,
      0.12382306903600693,
      0.054323941469192505,
      0.05026465281844139,
      0.0864277258515358,
      -0.009276152588427067,
      -0.042304303497076035,
      -0.060413699597120285,
      -0.006430895067751408,
      0.11136548966169357,
      0.08768253028392792,
      0.1364959329366684,
      0.08706303685903549,
      0.11813655495643616,
      0.11344088613986969,
      0.13622215390205383,
      0.03772313892841339,
      -0.047769516706466675,
      -0.15271517634391785,
      -0.13947723805904388,
      -0.17742708325386047,
      -0.16742601990699768,
      -0.253850519657135,
      -0.22729162871837616,
      -0.22141481935977936,
      -0.007961580529808998,
      -0.0013215240323916078,
      0.14028798043727875,
      0.10778731107711792,
      0.13313916325569153,
      0.12432544678449631,
      0.17236799001693726,
      0.15536217391490936,
      -0.02511213719844818,
      -0.07954639196395874,
      -0.18727540969848633,
      -0.08487366139888763,
      -0.17147625982761383,
      -0.1934463232755661,
      -0.048039309680461884,
      -0.012712468393146992,
      0.0911368727684021,
      0.13479098677635193,
      0.20484863221645355,
      0.11337360739707947,
      0.03563353419303894,
      0.1457108110189438,
      0.061989087611436844,
      0.06936966627836227,
      0.06740644574165344,
      -0.008451323956251144,
      0.048679277300834656,
      -0.05446383357048035,
      0.00015726085985079408,
      -0.11129498481750488,
      -0.08995001018047333,
      0.3113926649093628,
      0.14529229700565338,
      -0.008451060391962528,
      0.01776624657213688,
      0.040542878210544586,
      0.16618236899375916,
      0.19379030168056488,
      0.22370405495166779,
      0.3023717403411865,
      0.15586528182029724,
      0.10315054655075073,
      -0.036191362887620926,
      -0.11848600953817368,
      0.0063025769777596,
      0.3191460072994232,
      0.13600032031536102,
      -0.017227916046977043,
      0.03256877884268761,
      -0.03057679906487465,
      -0.0682639330625534,
      0.04332461953163147,
      0.21948972344398499,
      0.16929613053798676,
      0.013461818918585777,
      0.03393032029271126,
      -0.0635433942079544,
      -0.26993903517723083,
      -0.029452934861183167,
      0.2857988774776459,
      0.09779579937458038,
      0.05438992753624916,
      0.0664704218506813,
      -0.13336367905139923,
      -0.2409162074327469,
      -0.36021071672439575,
      -0.0687873587012291,
      0.031076442450284958,
      0.0771879106760025,
      -0.017790503799915314,
      -0.023729031905531883,
      -0.08497363328933716,
      0.03592757508158684,
      0.20028506219387054,
      0.125139519572258,
      -0.03544173017144203,
      0.10180992633104324,
      0.023772763088345528,
      -0.27586644887924194,
      -0.29190149903297424,
      0.00036646227817982435,
      0.14739681780338287,
      0.13418051600456238,
      0.1950167417526245,
      0.069460429251194,
      0.07017819583415985,
      0.04750121384859085,
      0.025316346436738968,
      -0.03545345738530159,
      -0.1108769103884697,
      -0.0003057964495383203,
      -0.11034651845693588,
      -0.16299405694007874,
      -0.09884840250015259,
      0.13416145741939545,
      0.09218218922615051,
      0.07514756172895432,
      0.01509847678244114,
      -0.0724041610956192,
      -0.12745735049247742,
      0.027508756145834923,
      0.04411863163113594,
      -0.036850351840257645,
      -0.2597943842411041,
      -0.11339446902275085,
      -0.15744630992412567,
      -0.036214593797922134,
      0.058799292892217636,
      -0.06011870503425598,
      -0.17472028732299805,
      -0.09144081920385361,
      -0.13804972171783447,
      -0.22042107582092285,
      -0.12540018558502197,
      0.11794531345367432,
      -0.021069476380944252,
      -0.019078435376286507,
      -0.17392118275165558,
      -0.10890258848667145,
      -0.20986582338809967,
      -0.14964145421981812,
      0.0548870712518692,
      -0.13577234745025635,
      -0.251573771238327,
      -0.25802865624427795,
      -0.30220091342926025,
      -0.3121613562107086,
      -0.051163870841264725,
      0.1011597067117691,
      0.08755320310592651,
      0.09043814241886139,
      0.12191461026668549,
      0.09634441137313843,
      -0.05070968344807625,
      0.05829068645834923,
      -0.022017022594809532,
      -0.1285693347454071,
      -0.05987589806318283,
      -0.19027601182460785,
      -0.2999180257320404,
      -0.2660243809223175,
      0.029559655115008354,
      0.026513883844017982,
      0.09982664883136749,
      0.1371404230594635,
      0.17444422841072083,
      0.1479608118534088,
      0.11181394010782242,
      0.0586513876914978,
      0.08166983723640442,
      0.17195351421833038,
      0.1025635227560997,
      0.0044964211992919445,
      -0.04694535955786705,
      0.042712803930044174,
      0.010302523151040077,
      0.023583702743053436,
      0.11378384381532669,
      0.12298332899808884,
      0.19581131637096405,
      0.19019345939159393,
      0.18915008008480072,
      0.06538195163011551,
      0.16499516367912292,
      0.2049698382616043,
      0.23083989322185516,
      0.190694198012352,
      0.06989844143390656,
      0.06159128621220589,
      0.08391207456588745,
      0.06156638264656067
    ],
    [
      -0.18126428127288818,
      -0.17973220348358154,
      -0.21970108151435852,
      -0.1894613355398178,
      -0.2675235867500305,
      -0.2561253309249878,
      -0.3267640769481659,
      -0.3682630658149719,
      -0.34895750880241394,
      -0.26074957847595215,
      -0.21318191289901733,
      -0.21009157598018646,
      -0.20027031004428864,
      -0.179325670003891,
      -0.23186691105365753,
      -0.24302232265472412,
      -0.12941083312034607,
      -0.0005075788358226418,
      0.045257553458213806,
      0.06904730200767517,
      0.1424671709537506,
      0.12330835312604904,
      0.017419358715415,
      -0.05724959820508957,
      -0.07491126656532288,
      0.001162991626188159,
      -0.11978069692850113,
      -0.19717425107955933,
      -0.24832484126091003,
      -0.20264455676078796,
      -0.07434561103582382,
      0.014446066692471504,
      -0.07539912313222885,
      -0.04166879877448082,
      0.09766273945569992,
      0.08491453528404236,
      0.18410666286945343,
      0.03616535663604736,
      0.030446097254753113,
      0.09507610648870468,
      0.05191516503691673,
      0.0008148166816681623,
      -0.1774803251028061,
      -0.13237637281417847,
      -0.10637073963880539,
      0.029420603066682816,
      -0.03384702652692795,
      -0.026249367743730545,
      -0.07472003251314163,
      0.032582662999629974,
      -0.027457330375909805,
      0.03947777301073074,
      0.0009521905449219048,
      -0.04490194097161293,
      0.1445266157388687,
      0.017871560528874397,
      -0.14672963321208954,
      -0.03983091562986374,
      0.05670679360628128,
      0.07019462436437607,
      0.14960527420043945,
      0.08491547405719757,
      -0.030526509508490562,
      -0.13546493649482727,
      -0.10822468250989914,
      0.04952903464436531,
      0.0929131805896759,
      0.01223515160381794,
      0.0952746719121933,
      -0.13658791780471802,
      -0.15448802709579468,
      -0.05235185846686363,
      0.03594639152288437,
      0.17977848649024963,
      0.04339513182640076,
      0.20183251798152924,
      0.060272522270679474,
      -0.12544964253902435,
      -0.02449500933289528,
      0.07106219977140427,
      0.10616657882928848,
      0.19398123025894165,
      0.1375826895236969,
      -0.10181963443756104,
      -0.190170019865036,
      -0.028934556990861893,
      -0.055279508233070374,
      0.02241012081503868,
      -0.10551925748586655,
      0.05614687502384186,
      0.06950394064188004,
      0.11275865882635117,
      -0.07845012098550797,
      0.0038928394205868244,
      0.029941990971565247,
      0.1266026496887207,
      0.04013969749212265,
      -0.171925887465477,
      -0.2644674777984619,
      -0.16623875498771667,
      -0.07692751288414001,
      -0.11353045701980591,
      -0.14075805246829987,
      -0.0014208181528374553,
      0.20843911170959473,
      0.07876673340797424,
      -0.059541016817092896,
      -0.0818101242184639,
      -0.15680666267871857,
      -0.20333550870418549,
      -0.06437644362449646,
      -0.2661965489387512,
      -0.20448331534862518,
      -0.2688083350658417,
      -0.16748212277889252,
      0.022090300917625427,
      -0.02695688232779503,
      0.1994447410106659,
      0.11226165294647217,
      0.03174430876970291,
      -0.035575807094573975,
      -0.05289832130074501,
      -0.09783680737018585,
      -0.09904205799102783,
      -0.038996804505586624,
      -0.2067907601594925,
      -0.28918737173080444,
      -0.0815759003162384,
      0.02074015513062477,
      0.04918603226542473,
      0.09850747138261795,
      0.06927309185266495,
      -0.11724482476711273,
      -0.1981963813304901,
      -0.09143257886171341,
      -0.08977390825748444,
      -0.06315279006958008,
      0.06884723901748657,
      0.04706122726202011,
      -0.26371341943740845,
      -0.23414137959480286,
      -0.11839868873357773,
      0.08999284356832504,
      0.07332675904035568,
      0.02748563513159752,
      -0.042348094284534454,
      -0.07569793611764908,
      0.008060542866587639,
      -0.02534809708595276,
      -0.006724746897816658,
      0.0040436661802232265,
      0.01384640857577324,
      -0.11513301730155945,
      -0.2706194818019867,
      -0.21305052936077118,
      -0.15294356644153595,
      0.012725810520350933,
      0.05678892508149147,
      -0.022781644016504288,
      0.045225318521261215,
      0.14161475002765656,
      0.09654641151428223,
      0.13199974596500397,
      0.13378287851810455,
      0.056007999926805496,
      0.005076074041426182,
      -0.19093775749206543,
      -0.1620049774646759,
      -0.16390195488929749,
      -0.24811038374900818,
      -0.08925438672304153,
      -0.09877672791481018,
      -0.007906640879809856,
      0.13675203919410706,
      0.15673495829105377,
      0.010018396191298962,
      0.0213791336864233,
      0.08253572136163712,
      0.03009113483130932,
      -0.09894699603319168,
      -0.234735906124115,
      -0.22382201254367828,
      -0.17140783369541168,
      -0.24230574071407318,
      -0.39723289012908936,
      -0.2681786119937897,
      -0.10027217864990234,
      -0.12166232615709305,
      -0.06464270502328873,
      -0.02018089033663273,
      -0.03511960059404373,
      -0.08008454740047455,
      -0.19999833405017853,
      -0.14988286793231964,
      -0.20851996541023254,
      -0.16198813915252686
    ],
    [
      0.025644157081842422,
      0.05216992273926735,
      0.07368437945842743,
      0.060226794332265854,
      -0.026778273284435272,
      -0.06959526240825653,
      -0.07108188420534134,
      -0.09174425899982452,
      -0.12196660786867142,
      -0.11479468643665314,
      -0.042416300624608994,
      -0.05737621337175369,
      0.061300039291381836,
      0.036479875445365906,
      -0.0603039488196373,
      0.01380489394068718,
      -0.004910349380224943,
      -0.03830668330192566,
      -0.06981807202100754,
      -0.005666482727974653,
      -0.2617940306663513,
      -0.47415095567703247,
      -0.5418616533279419,
      -0.3758450150489807,
      -0.25245875120162964,
      -0.12216676026582718,
      0.007560975383967161,
      -0.05853719264268875,
      -0.03438892215490341,
      -0.08129866421222687,
      -0.20857614278793335,
      -0.07162580639123917,
      0.001355478074401617,
      -0.08190258592367172,
      0.1951957494020462,
      0.12568792700767517,
      0.13287755846977234,
      -0.004256099462509155,
      -0.0314750149846077,
      -0.1349475085735321,
      -0.17961394786834717,
      -0.07831354439258575,
      -0.0833892822265625,
      -0.28933948278427124,
      -0.24394433200359344,
      -0.17410695552825928,
      -0.12832583487033844,
      -0.018545620143413544,
      0.112677201628685,
      0.14615024626255035,
      0.1373099833726883,
      0.08536885678768158,
      -0.09908982366323471,
      -0.11847319453954697,
      -0.2543049454689026,
      -0.08429797738790512,
      -0.15810343623161316,
      -0.1354270577430725,
      -0.06336678564548492,
      0.04872719570994377,
      0.05847887694835663,
      0.013399261981248856,
      0.13225452601909637,
      0.01672811061143875,
      -0.06514699757099152,
      -0.0717104822397232,
      -0.05829431489109993,
      -0.14631211757659912,
      -0.25524386763572693,
      -0.17568163573741913,
      -0.19677519798278809,
      0.009079561568796635,
      0.08329521864652634,
      0.09529004991054535,
      0.13256046175956726,
      0.0733974352478981,
      -0.013845494948327541,
      0.03387951850891113,
      0.06864747405052185,
      0.1426757127046585,
      0.1544194370508194,
      0.09366538375616074,
      -0.06745680421590805,
      -0.12710648775100708,
      -0.09920576959848404,
      0.07595552504062653,
      0.14907406270503998,
      0.07206358760595322,
      0.06895215809345245,
      -0.057381290942430496,
      -0.14555437862873077,
      0.11977875977754593,
      0.21132409572601318,
      0.1717987060546875,
      0.09839066863059998,
      -0.0015503609320148826,
      -0.23411555588245392,
      -0.03172634541988373,
      -0.0682586133480072,
      0.06894624978303909,
      0.02088387869298458,
      0.05774649605154991,
      0.012964117340743542,
      -0.031094051897525787,
      0.02581232786178589,
      0.12146418541669846,
      0.07284575700759888,
      0.07822008430957794,
      -0.04655972495675087,
      -0.2428143471479416,
      -0.386825293302536,
      -0.10631071031093597,
      -0.09316394478082657,
      -0.11275750398635864,
      -0.0213690884411335,
      0.011917050927877426,
      0.045407623052597046,
      -0.09702340513467789,
      -0.03470615670084953,
      0.018746566027402878,
      0.10478712618350983,
      -0.10672460496425629,
      -0.07742796838283539,
      -0.2702361047267914,
      -0.2652232348918915,
      -0.1371888518333435,
      -0.07008805125951767,
      -0.12053424119949341,
      -0.10570967197418213,
      -0.0472889244556427,
      -0.02140720747411251,
      -0.18911956250667572,
      -0.16251909732818604,
      -0.005262895952910185,
      -0.022429313510656357,
      -0.12512250244617462,
      0.005846358370035887,
      -0.23156186938285828,
      -0.0929199680685997,
      0.06978766620159149,
      -0.03974268212914467,
      -0.10525470972061157,
      -0.14457540214061737,
      -0.0600612498819828,
      -0.1354171335697174,
      -0.18055284023284912,
      -0.06452036648988724,
      -0.0618719682097435,
      -0.17440108954906464,
      -0.11538217961788177,
      -0.12227889150381088,
      -0.07839269936084747,
      0.06644746661186218,
      0.05985212326049805,
      -0.016347475349903107,
      0.013815530575811863,
      0.007687707431614399,
      -0.027775848284363747,
      -0.11127561330795288,
      -0.07879218459129333,
      -0.04887709394097328,
      -0.0988774299621582,
      -0.10849346965551376,
      -0.04066090285778046,
      0.04441363736987114,
      0.014184578321874142,
      0.19789284467697144,
      0.07185758650302887,
      -0.03718862310051918,
      0.07698899507522583,
      0.16269870102405548,
      0.10521891713142395,
      0.13983948528766632,
      0.04998729005455971,
      0.030309900641441345,
      -0.07094627618789673,
      0.029534025117754936,
      0.054612986743450165,
      0.19899874925613403,
      0.16037695109844208,
      0.02353997714817524,
      -0.059175536036491394,
      -0.0018991203978657722,
      0.07673873752355576,
      0.16678982973098755,
      0.24439460039138794,
      0.25244224071502686,
      0.1651894897222519,
      0.16240930557250977,
      0.1942831128835678,
      0.3326725959777832,
      0.21790699660778046,
      0.20485766232013702,
      0.06996450573205948,
      0.054731328040361404,
      -0.026273218914866447
    ]
  ],
  "fc_layer.bias": [
    -0.02521473355591297,
    0.09696295857429504,
    0.026815813034772873,
    -0.1486199051141739,
    0.06560869514942169,
    0.101943239569664,
    0.0410124771296978,
    0.10500867664813995,
    -0.23111656308174133,
    -0.01973162218928337
  ]
}