{
    "fc.weight": [
        [
            -0.01707659475505352,
            0.0336243100464344,
            0.0019833408296108246,
            -0.033754780888557434,
            0.0012263767421245575,
            -0.003912273794412613,
            0.01387806236743927,
            -0.004578607156872749,
            -0.024510763585567474,
            0.013469584286212921,
            0.03512067720293999,
            0.025396525859832764,
            0.018912039697170258,
            -0.03951053321361542,
            -0.0449690967798233,
            0.004188656806945801,
            0.02287900447845459,
            0.03185417130589485,
            0.012105174362659454,
            -0.027531251311302185,
            0.03398143872618675,
            -0.03287654370069504,
            0.004887420684099197,
            0.027769241482019424,
            0.006133589893579483,
            -0.03570530563592911,
            0.02838817611336708,
            0.029125835746526718,
            0.02866821363568306,
            -0.00269424170255661,
            -0.020170941948890686,
            0.0343429259955883,
            -0.0061244964599609375,
            -0.025225022807717323,
            -0.043425627052783966,
            -0.04273534566164017,
            -0.05542687326669693,
            0.0012545243371278048,
            -0.08517477661371231,
            0.02754722721874714,
            0.055248409509658813,
            -0.02646568976342678,
            -0.09966633468866348,
            -0.10064177960157394,
            0.07209555059671402,
            -0.10227525234222412,
            -0.11185012757778168,
            -0.059818726032972336,
            -0.09096657484769821,
            -0.04937644302845001,
            -0.027653848752379417,
            -0.030354788526892662,
            -0.031555723398923874,
            0.00848780944943428,
            -0.008686022832989693,
            0.014678925275802612,
            0.01100783422589302,
            -0.03303416445851326,
            -0.0022474341094493866,
            0.02655770257115364,
            -0.0066186110489070415,
            -0.030902698636054993,
            -0.0786544680595398,
            -0.026311146095395088,
            -0.09949280321598053,
            -0.2762214243412018,
            -0.2509426176548004,
            -0.2708987295627594,
            -0.20193441212177277,
            -0.3117659091949463,
            -0.4138913154602051,
            -0.3991651237010956,
            -0.34961801767349243,
            -0.3599182367324829,
            -0.33122825622558594,
            -0.2972944974899292,
            -0.27093514800071716,
            -0.238190695643425,
            -0.12448260933160782,
            -0.1214301809668541,
            -0.07617643475532532,
            -0.000431397114880383,
            0.035464685410261154,
            0.025363773107528687,
            -0.01974036544561386,
            -0.018959522247314453,
            -0.028063282370567322,
            -0.016488442197442055,
            0.005065254867076874,
            -0.1045856922864914,
            -0.18297293782234192,
            -0.18049487471580505,
            -0.07938212901353836,
            -0.18223512172698975,
            -0.27120715379714966,
            -0.017918944358825684,
            -0.08084622025489807,
            -0.11254814267158508,
            -0.07085822522640228,
            -0.11585517972707748,
            -0.08489719778299332,
            -0.19616761803627014,
            -0.2276841104030609,
            -0.2907845377922058,
            -0.29273632168769836,
            -0.3672742247581482,
            -0.2716783583164215,
            -0.09500584751367569,
            -0.12419111281633377,
            -0.1163119375705719,
            -0.010588055476546288,
            -0.011451555415987968,
            0.009658031165599823,
            -0.02291564643383026,
            -0.04345748946070671,
            0.027016256004571915,
            -0.12402330338954926,
            -0.184169739484787,
            -0.294722318649292,
            -0.19691792130470276,
            -0.10252274572849274,
            -0.07357284426689148,
            -0.1097167357802391,
            -0.04151154309511185,
            -0.11168856173753738,
            -0.061414685100317,
            -0.05526723712682724,
            0.05470571294426918,
            -0.043284449726343155,
            -0.030640119686722755,
            -0.08340567350387573,
            -0.05358409881591797,
            -0.12147466093301773,
            -0.08467988669872284,
            -0.08199333399534225,
            -0.17498624324798584,
            -0.3462103307247162,
            -0.18661470711231232,
            -0.10604284703731537,
            0.013231035321950912,
            -0.025345470756292343,
            0.012177221477031708,
            0.023255784064531326,
            -0.007757984101772308,
            -0.1937270313501358,
            -0.39553314447402954,
            -0.14753146469593048,
            -0.13406974077224731,
            -0.003453616751357913,
            -0.08836989849805832,
            -0.03319301828742027,
            -0.047139640897512436,
            -0.008544175885617733,
            0.09188846498727798,
            0.07484390586614609,
            0.1494724154472351,
            0.09738335013389587,
            0.16050207614898682,
            0.08656913042068481,
            0.029965588822960854,
            -0.011583718471229076,
            0.010332467965781689,
            -0.04501943662762642,
            -0.21068023145198822,
            -0.225494846701622,
            -0.37285691499710083,
            -0.259736031293869,
            -0.009515430778265,
            -0.028468988835811615,
            -0.012712398543953896,
            0.011192208155989647,
            -0.15545636415481567,
            -0.2495041787624359,
            -0.1609344631433487,
            -0.08992566168308258,
            -0.1016717180609703,
            -0.08143318444490433,
            -0.1683371365070343,
            -0.02516465075314045,
            -0.03101944737136364,
            0.0361199826002121,
            0.04907068610191345,
            0.10202813148498535,
            0.0607418417930603,
            0.12281886488199234,
            0.16583304107189178,
            0.13881008327007294,
            0.08510898053646088,
            0.07679849863052368,
            0.11203222721815109,
            0.09337366372346878,
            -0.09778813272714615,
            -0.42314276099205017,
            -0.5053429007530212,
            -0.3449416756629944,
            -0.13730047643184662,
            0.025138691067695618,
            -0.10057736933231354,
            -0.1131059005856514,
            -0.18138180673122406,
            -0.2449142336845398,
            -0.11377314478158951,
            -0.08042340725660324,
            -0.039700254797935486,
            -0.17151224613189697,
            -0.070078544318676,
            -0.030952859669923782,
            0.06295650452375412,
            0.031184080988168716,
            0.07991524040699005,
            0.04794686660170555,
            0.09954609721899033,
            0.12399628758430481,
            0.20382045209407806,
            0.14079420268535614,
            0.13011951744556427,
            0.049394525587558746,
            0.04512138292193413,
            0.11735770851373672,
            0.07353485375642776,
            -0.17842760682106018,
            -0.5685389041900635,
            -0.34412682056427,
            -0.022027606144547462,
            0.02552945166826248,
            -0.018079126253724098,
            -0.0734148919582367,
            -0.1164732575416565,
            -0.2234814167022705,
            -0.11373993754386902,
            -0.1227910965681076,
            -0.1626882702112198,
            -0.08914200216531754,
            0.006298629567027092,
            -0.016263563185930252,
            -0.029061153531074524,
            0.0179570522159338,
            0.014949101954698563,
            0.04545402526855469,
            0.14917325973510742,
            0.20780976116657257,
            0.16576802730560303,
            0.2008436620235443,
            0.11851490288972855,
            0.09400203078985214,
            0.06668927520513535,
            0.12906064093112946,
            0.12009245157241821,
            -0.13113604485988617,
            -0.5091704726219177,
            -0.3735046684741974,
            -0.18912263214588165,
            -0.05024385824799538,
            -0.020314188674092293,
            -0.1004999652504921,
            -0.050017863512039185,
            -0.18119081854820251,
            -0.15926292538642883,
            -0.08685781061649323,
            -0.059181321412324905,
            -0.06830208748579025,
            -0.048574551939964294,
            0.008487868122756481,
            -0.007404617965221405,
            -0.021514033898711205,
            0.11470568925142288,
            0.03670808672904968,
            -0.0295180045068264,
            0.09485460817813873,
            0.16511942446231842,
            0.20782442390918732,
            0.17132940888404846,
            0.08726843446493149,
            0.0022304230369627476,
            0.04382811486721039,
            0.18482333421707153,
            0.04777127876877785,
            -0.5967305302619934,
            -0.40605998039245605,
            -0.06335069239139557,
            0.0006348741007968783,
            -0.02076985314488411,
            0.03852332755923271,
            -0.24428538978099823,
            -0.04840797930955887,
            -0.07148924469947815,
            -0.024498797953128815,
            -0.040710609406232834,
            -0.04329969361424446,
            0.02632725052535534,
            -0.025370167568325996,
            0.017948251217603683,
            0.047639910131692886,
            0.05494510754942894,
            -0.00395704573020339,
            -0.140521839261055,
            -0.13477984070777893,
            0.09749382734298706,
            0.1849113404750824,
            0.09027658402919769,
            0.13795673847198486,
            0.053502120077610016,
            0.19944532215595245,
            0.22920547425746918,
            0.1564527302980423,
            -0.4799485504627228,
            -0.3762788474559784,
            -0.1223873719573021,
            -0.08777610212564468,
            -0.03815709426999092,
            -0.09406301379203796,
            -0.09010986238718033,
            -0.1780339479446411,
            -0.09879306703805923,
            -0.001708840485662222,
            0.0655551478266716,
            0.01185277383774519,
            -0.05341440439224243,
            -0.035273417830467224,
            -0.03366014361381531,
            -0.034620560705661774,
            -0.010733929462730885,
            -0.3005313575267792,
            -0.438306599855423,
            -0.3655792772769928,
            -0.18174611032009125,
            -0.011049014516174793,
            0.0744076818227768,
            0.11752744019031525,
            0.17824722826480865,
            0.1485881805419922,
            0.2018742710351944,
            0.1230832040309906,
            -0.25121021270751953,
            -0.30479586124420166,
            -0.09874561429023743,
            -0.04279356822371483,
            -0.04835082218050957,
            -0.08624651283025742,
            -0.07422870397567749,
            -0.19145217537879944,
            -0.07389388978481293,
            0.07262974977493286,
            -0.017343439161777496,
            -0.022407371550798416,
            0.004377161618322134,
            0.029930032789707184,
            0.02637852355837822,
            -0.006380109116435051,
            -0.15067537128925323,
            -0.4430566728115082,
            -0.544390857219696,
            -0.4952763020992279,
            -0.19628357887268066,
            -0.09490825980901718,
            -0.020542437210679054,
            0.02150140330195427,
            0.12088055163621902,
            0.19073916971683502,
            0.2150275558233261,
            0.22918976843357086,
            0.0026260940358042717,
            -0.1756996065378189,
            -0.06513706594705582,
            0.03373437002301216,
            -0.04522719606757164,
            -0.026508299633860588,
            -0.0659753754734993,
            -0.16038067638874054,
            0.010563128627836704,
            0.09307803213596344,
            0.13399292528629303,
            0.03231301158666611,
            0.022092362865805626,
            0.09174688905477524,
            0.051809605211019516,
            -0.07596923410892487,
            -0.3493284285068512,
            -0.49234670400619507,
            -0.5590908527374268,
            -0.45413938164711,
            -0.24978886544704437,
            -0.13263288140296936,
            -0.011575883254408836,
            -0.03068689815700054,
            0.07494581490755081,
            0.1381116509437561,
            0.24128179252147675,
            0.19135069847106934,
            0.08940150588750839,
            -0.20591452717781067,
            -0.11559977382421494,
            0.016317445784807205,
            -0.04804779961705208,
            -0.06957370042800903,
            -0.15505677461624146,
            -0.13083380460739136,
            0.12051218748092651,
            0.0897032767534256,
            0.14942102134227753,
            0.08682675659656525,
            0.12994696199893951,
            0.07446456700563431,
            0.030737485736608505,
            -0.10743144899606705,
            -0.38935431838035583,
            -0.5343382954597473,
            -0.5176819562911987,
            -0.4602389931678772,
            -0.22968071699142456,
            -0.11631587892770767,
            -0.06265118718147278,
            -0.021111590787768364,
            0.11617214977741241,
            0.1370227038860321,
            0.20437388122081757,
            0.28235092759132385,
            -0.014427042566239834,
            -0.1575605720281601,
            0.0008043646812438965,
            -0.02590002864599228,
            -0.004629969131201506,
            -0.077705018222332,
            -0.23810535669326782,
            0.00828720722347498,
            0.13574357330799103,
            0.03645927459001541,
            0.1696801483631134,
            0.1277874857187271,
            0.15374387800693512,
            0.1563817262649536,
            0.019932592287659645,
            -0.2164236158132553,
            -0.4462044835090637,
            -0.5527517199516296,
            -0.49843013286590576,
            -0.37217432260513306,
            -0.19239412248134613,
            -0.0452289916574955,
            -0.03228829801082611,
            0.049909818917512894,
            0.05043872445821762,
            0.12790733575820923,
            0.22476159036159515,
            0.20161879062652588,
            0.017050838097929955,
            -0.20659370720386505,
            -0.06394436210393906,
            -0.014215515926480293,
            -0.03506338223814964,
            -0.10082825273275375,
            -0.23453062772750854,
            -0.045922521501779556,
            0.09386076033115387,
            0.08144314587116241,
            0.12356427311897278,
            0.16218608617782593,
            0.14693310856819153,
            0.1983000785112381,
            0.007490657735615969,
            -0.3031499683856964,
            -0.5261111259460449,
            -0.483123779296875,
            -0.43983396887779236,
            -0.26913684606552124,
            -0.08150334656238556,
            0.01188304927200079,
            0.012806217186152935,
            0.0813474953174591,
            0.0859755352139473,
            0.07245618849992752,
            0.15369756519794464,
            -0.005267438478767872,
            -0.22573260962963104,
            -0.20344945788383484,
            -0.11060018837451935,
            -0.012375840917229652,
            -0.009099431335926056,
            -0.2300526350736618,
            -0.2668921947479248,
            -0.06866554170846939,
            0.1185561940073967,
            0.10070138424634933,
            0.08417113125324249,
            0.08437718451023102,
            0.19632165133953094,
            0.2058931440114975,
            -0.0023574659135192633,
            -0.2300717979669571,
            -0.5256281495094299,
            -0.43406033515930176,
            -0.28801867365837097,
            -0.12792493402957916,
            -0.005349915008991957,
            0.02674112468957901,
            0.05805908888578415,
            0.01463627815246582,
            0.0270912516862154,
            0.10059500485658646,
            0.03548579663038254,
            0.038447100669145584,
            -0.16142511367797852,
            -0.16499608755111694,
            0.031073782593011856,
            -0.03500645235180855,
            -0.04255352541804314,
            -0.044593460857868195,
            -0.3280022144317627,
            -0.08955509960651398,
            0.02519722282886505,
            0.06688863039016724,
            0.1044049859046936,
            0.1328924149274826,
            0.1757601499557495,
            0.22727851569652557,
            0.026629265397787094,
            -0.26154032349586487,
            -0.39449355006217957,
            -0.3482680916786194,
            -0.18704897165298462,
            -0.01917319744825363,
            -0.014576642774045467,
            -0.033955663442611694,
            0.01906466670334339,
            -0.009588749147951603,
            0.026202930137515068,
            0.04812637344002724,
            0.0022250975016504526,
            -0.10301763564348221,
            -0.26029014587402344,
            -0.17355772852897644,
            -0.14047572016716003,
            -0.013091526925563812,
            0.0006752667250111699,
            -0.1315547376871109,
            -0.27840110659599304,
            -0.142495796084404,
            0.04310900717973709,
            0.08100946992635727,
            0.05004116892814636,
            0.13389472663402557,
            0.12863488495349884,
            0.2490731030702591,
            0.1448180377483368,
            0.031618595123291016,
            -0.1383107602596283,
            -0.10119819641113281,
            -0.08037929236888885,
            -0.014977739192545414,
            -0.02130351960659027,
            -0.03165532276034355,
            -0.045648425817489624,
            0.029870325699448586,
            0.013228252530097961,
            0.02949671261012554,
            -0.02457328513264656,
            -0.06442087143659592,
            -0.12596727907657623,
            -0.17627866566181183,
            -0.10774356871843338,
            0.01816961169242859,
            0.06276217103004456,
            -0.15800437331199646,
            -0.24733810126781464,
            -0.04323710501194,
            0.04320882633328438,
            0.07242284715175629,
            0.021263599395751953,
            0.09439343214035034,
            0.09933661669492722,
            0.236317440867424,
            0.19209155440330505,
            0.13820703327655792,
            0.06704326719045639,
            -0.016614120453596115,
            -0.03948064520955086,
            -0.035461097955703735,
            -0.047661080956459045,
            -0.06273950636386871,
            -0.09346935153007507,
            -0.07862932235002518,
            0.0302403774112463,
            -0.03345485031604767,
            -0.10844787955284119,
            -0.20152761042118073,
            -0.24728870391845703,
            0.00612986832857132,
            -0.02114935964345932,
            0.026228900998830795,
            -0.004555647727102041,
            -0.16054320335388184,
            -0.20114338397979736,
            -0.1318809688091278,
            0.05835120379924774,
            -0.0065821027383208275,
            0.06370142102241516,
            -0.004515788052231073,
            0.0960695743560791,
            0.12248098850250244,
            0.21002589166164398,
            0.15255305171012878,
            0.07436900585889816,
            0.02731204964220524,
            0.03130137920379639,
            -0.03566829860210419,
            -0.1196436658501625,
            -0.05953598767518997,
            -0.15862780809402466,
            -0.08208439499139786,
            -0.03626846522092819,
            -0.09036972373723984,
            -0.1487141102552414,
            -0.2358439415693283,
            -0.21973276138305664,
            0.013926579616963863,
            0.021291464567184448,
            -0.003764476627111435,
            -0.014889534562826157,
            -0.09741651266813278,
            -0.1900836080312729,
            -0.25077009201049805,
            -0.0637744665145874,
            0.05268613249063492,
            -0.005451021250337362,
            0.07235775887966156,
            0.12916973233222961,
            0.11508183926343918,
            0.15964365005493164,
            0.11190567165613174,
            0.1836908608675003,
            0.06833071261644363,
            0.044115904718637466,
            0.02796410582959652,
            -0.07661899924278259,
            -0.1081591323018074,
            -0.01207608263939619,
            -0.08647485822439194,
            -0.08132842928171158,
            -0.0004988164291717112,
            -0.03168943151831627,
            -0.2159423977136612,
            -0.16383135318756104,
            0.02873406372964382,
            -0.0012779757380485535,
            -0.024368491023778915,
            0.031656306236982346,
            -0.0006535545107908547,
            -0.1200333684682846,
            -0.36531490087509155,
            -0.15539118647575378,
            -0.05774306133389473,
            -0.004736675880849361,
            0.022265147417783737,
            0.03680428862571716,
            0.1643976867198944,
            0.22202494740486145,
            0.2506416141986847,
            0.19864051043987274,
            0.18330052495002747,
            0.09395937621593475,
            0.0492132231593132,
            0.03429817408323288,
            -0.10956377536058426,
            -0.23308034241199493,
            -0.21371658146381378,
            -0.1325637847185135,
            -0.17773835361003876,
            -0.09830832481384277,
            -0.14057278633117676,
            -0.16605359315872192,
            0.014456573873758316,
            -0.03521238639950752,
            -0.022220488637685776,
            0.013765770941972733,
            -0.012596613727509975,
            -0.07683372497558594,
            -0.09278367459774017,
            -0.1093626320362091,
            -0.13127531111240387,
            -0.2427390068769455,
            -0.13363485038280487,
            -0.06858654320240021,
            0.023162076249718666,
            -0.011471837759017944,
            0.0866624191403389,
            0.05297718197107315,
            0.03628405183553696,
            -0.06473477929830551,
            -0.09344639629125595,
            -0.14690521359443665,
            -0.26781222224235535,
            -0.3617819845676422,
            -0.3638973534107208,
            -0.32814571261405945,
            -0.25450679659843445,
            -0.20912599563598633,
            -0.0689014121890068,
            -0.06008027493953705,
            0.0069435834884643555,
            0.006630726158618927,
            0.013834763318300247,
            -0.011976860463619232,
            0.02613607421517372,
            -0.0026293157134205103,
            -0.10159975290298462,
            -0.23643910884857178,
            -0.39195516705513,
            -0.3548419177532196,
            -0.4083397388458252,
            -0.4935673773288727,
            -0.5359675288200378,
            -0.38053128123283386,
            -0.45915910601615906,
            -0.373237669467926,
            -0.5347006916999817,
            -0.46992191672325134,
            -0.49215996265411377,
            -0.4760851562023163,
            -0.4586649537086487,
            -0.40977486968040466,
            -0.3511960208415985,
            -0.29078489542007446,
            -0.24342668056488037,
            -0.1907176375389099,
            -0.12107107043266296,
            0.00668879970908165,
            0.006412524729967117,
            0.004648979753255844,
            0.012560445815324783,
            0.000523589551448822,
            0.03275343403220177,
            -0.033291079103946686,
            -0.04778017848730087,
            -0.13036613166332245,
            -0.2310941517353058,
            -0.26630985736846924,
            -0.24769866466522217,
            -0.34909704327583313,
            -0.26907971501350403,
            -0.31006452441215515,
            -0.30381256341934204,
            -0.3709917366504669,
            -0.41504767537117004,
            -0.312305212020874,
            -0.32562288641929626,
            -0.30025574564933777,
            -0.2554642856121063,
            -0.17856058478355408,
            -0.1905626654624939,
            -0.137183278799057,
            -0.12131527811288834,
            -0.01460149697959423,
            -0.03137069195508957,
            -0.028172574937343597,
            -0.02023620903491974,
            0.02983514592051506,
            0.011952295899391174,
            0.005148407071828842,
            -0.02906011790037155,
            0.03564012423157692,
            0.017943445593118668,
            -0.040341299027204514,
            -0.0024255879689007998,
            -0.07361964881420135,
            -0.03963344544172287,
            -0.11615364998579025,
            -0.08705144375562668,
            -0.06362705677747726,
            -0.11452420800924301,
            -0.12148633599281311,
            -0.17518240213394165,
            -0.1371287852525711,
            -0.1214422732591629,
            -0.10639672726392746,
            -0.07671652734279633,
            -0.05972444638609886,
            -0.07856977730989456,
            -0.04888959974050522,
            -0.09403269737958908,
            -0.011264877393841743,
            0.035669486969709396,
            0.012082725763320923,
            0.03164402022957802,
            -0.011803967878222466
        ],
        [
            -0.013683931902050972,
            -0.015417803078889847,
            -0.003968141973018646,
            -0.021854575723409653,
            -0.003115762025117874,
            0.007371433079242706,
            0.025781724601984024,
            0.031040359288454056,
            -0.011693431064486504,
            -0.03130002319812775,
            0.010800976306200027,
            -0.023125028237700462,
            0.020852122455835342,
            -0.02982405014336109,
            -0.013428820297122002,
            0.007602594792842865,
            0.011341389268636703,
            0.024746112525463104,
            -0.009683333337306976,
            0.014071382582187653,
            0.020940981805324554,
            -0.032188840210437775,
            0.022413011640310287,
            -0.005538672208786011,
            0.015298314392566681,
            0.011859375983476639,
            0.0020493604242801666,
            0.03524542227387428,
            0.0010478422045707703,
            0.028776202350854874,
            -0.034275513142347336,
            -0.02946784719824791,
            -0.025396429002285004,
            -0.025044698268175125,
            -0.026957325637340546,
            0.002722006058320403,
            -0.11975207179784775,
            0.006763352546840906,
            -0.012916087172925472,
            -0.10958036035299301,
            -0.03798936679959297,
            -0.059768568724393845,
            0.052621811628341675,
            0.07600222527980804,
            -0.1621440351009369,
            -0.06445452570915222,
            -0.05195627734065056,
            -0.023177960887551308,
            -0.01931408978998661,
            -0.021537762135267258,
            -0.032909151166677475,
            -0.061780307441949844,
            0.005280997604131699,
            0.0138145312666893,
            0.034577626734972,
            -0.015558868646621704,
            0.002836763858795166,
            -0.009087882936000824,
            0.018044855445623398,
            -0.007614267989993095,
            -0.005949423182755709,
            0.034189630299806595,
            -0.04488754644989967,
            -0.12013502418994904,
            -0.12237144261598587,
            -0.1561724841594696,
            -0.18960818648338318,
            -0.1644017994403839,
            -0.07609982043504715,
            0.06766176223754883,
            0.06272190809249878,
            0.14827829599380493,
            -0.020027389749884605,
            0.009289448149502277,
            -0.24620603024959564,
            -0.07936254888772964,
            -0.1986328810453415,
            -0.11916037648916245,
            -0.11429533362388611,
            -0.055901456624269485,
            -0.06225408613681793,
            -0.014767381362617016,
            0.026256602257490158,
            0.02121587097644806,
            -0.03330434113740921,
            0.004112936556339264,
            -0.04436020180583,
            -0.020778201520442963,
            0.01740160584449768,
            -0.04549327865242958,
            -0.045359253883361816,
            -0.19939805567264557,
            -0.27924591302871704,
            -0.17392505705356598,
            -0.2325921356678009,
            -0.3419572412967682,
            -0.24444708228111267,
            -0.09502601623535156,
            -0.15635162591934204,
            -0.06507299840450287,
            -0.0485924668610096,
            -0.2361753284931183,
            -0.29803401231765747,
            -0.23839673399925232,
            -0.3135427236557007,
            -0.212053120136261,
            -0.2771017253398895,
            -0.25433406233787537,
            -0.25593337416648865,
            -0.07717005908489227,
            0.0200500525534153,
            -0.021894941106438637,
            -0.011534640565514565,
            -0.022402381524443626,
            0.09437862038612366,
            0.031396184116601944,
            -0.17295388877391815,
            0.01650531031191349,
            -0.043840717524290085,
            -0.15894605219364166,
            -0.09785737842321396,
            -0.17266713082790375,
            -0.10557982325553894,
            -0.08226171135902405,
            -0.060879167169332504,
            0.17867045104503632,
            0.024077199399471283,
            0.033373601734638214,
            -0.006418670527637005,
            -0.035559818148612976,
            -0.03267533704638481,
            0.05935845524072647,
            0.08664553612470627,
            0.03236137330532074,
            0.0026347304228693247,
            -0.021818330511450768,
            -0.24337612092494965,
            -0.20609471201896667,
            -0.10281825065612793,
            0.01981407031416893,
            0.027112927287817,
            -0.000561986118555069,
            0.010150615125894547,
            0.0015116524882614613,
            0.033097442239522934,
            0.09880093485116959,
            0.05938223376870155,
            -0.07445856183767319,
            -0.2062573879957199,
            -0.2436288446187973,
            -0.11313256621360779,
            -0.17773769795894623,
            0.0054086726158857346,
            -0.015789613127708435,
            0.00566670810803771,
            -0.022296033799648285,
            -0.09917451441287994,
            -0.14694084227085114,
            -0.05806266888976097,
            0.020617473870515823,
            0.08434505015611649,
            0.1335870325565338,
            0.1425892561674118,
            0.0465041846036911,
            -0.08191723376512527,
            -0.3671679198741913,
            -0.17322324216365814,
            -0.028849266469478607,
            -0.02590685337781906,
            -0.011339392513036728,
            -0.10206900537014008,
            0.012784698978066444,
            -0.19303664565086365,
            -0.05667572095990181,
            -0.0885024145245552,
            -0.17046138644218445,
            -0.24200069904327393,
            -0.2825181186199188,
            -0.16474802792072296,
            -0.10835710912942886,
            -0.15201154351234436,
            -0.08731915801763535,
            -0.14939701557159424,
            -0.21027708053588867,
            -0.19168521463871002,
            -0.20353709161281586,
            -0.07838112860918045,
            -0.043551165610551834,
            0.053963564336299896,
            0.05416339263319969,
            0.012835212051868439,
            -0.03173724189400673,
            -0.1910928636789322,
            -0.47031643986701965,
            -0.23553664982318878,
            -0.10099206864833832,
            -0.003663301467895508,
            -0.04243699461221695,
            -0.12709560990333557,
            -0.1254807710647583,
            -0.016035350039601326,
            -0.23240433633327484,
            -0.2746739089488983,
            -0.18721504509449005,
            -0.3220370411872864,
            -0.3108224868774414,
            -0.15482723712921143,
            -0.17805351316928864,
            -0.13282494246959686,
            -0.10728111118078232,
            -0.14649134874343872,
            -0.20212490856647491,
            -0.19398388266563416,
            -0.20184646546840668,
            -0.08145663142204285,
            -0.028997274115681648,
            0.02300558239221573,
            0.005229974631220102,
            -0.06989969313144684,
            -0.10227338969707489,
            -0.47376805543899536,
            -0.5221518874168396,
            -0.17881810665130615,
            -0.04096951335668564,
            -0.013132709078490734,
            -0.03977014496922493,
            -0.0876695066690445,
            -0.09789194911718369,
            -0.08781134337186813,
            -0.28065186738967896,
            -0.240449458360672,
            -0.22890998423099518,
            -0.24890030920505524,
            -0.2988657057285309,
            -0.2447376698255539,
            -0.1490245908498764,
            -0.08723501861095428,
            -0.03239865228533745,
            0.04572193697094917,
            0.04450683295726776,
            -0.049568455666303635,
            -0.04662814363837242,
            -0.07174384593963623,
            -0.07272026687860489,
            -0.14736421406269073,
            -0.14277973771095276,
            -0.22553445398807526,
            -0.3538667857646942,
            -0.5758457779884338,
            -0.44048815965652466,
            -0.18156801164150238,
            -0.052902303636074066,
            -0.012131397612392902,
            -0.0023788362741470337,
            -0.0029140859842300415,
            -0.09399262815713882,
            -0.11932718753814697,
            -0.24077101051807404,
            -0.24692991375923157,
            -0.13891975581645966,
            -0.18730022013187408,
            -0.2683921456336975,
            -0.1630859673023224,
            -0.08406312763690948,
            -0.061338696628808975,
            0.08020956814289093,
            0.2339240163564682,
            0.2669335603713989,
            0.14114226400852203,
            0.0182914100587368,
            -0.02522950991988182,
            -0.17017169296741486,
            -0.23763041198253632,
            -0.21586360037326813,
            -0.3611518144607544,
            -0.49046948552131653,
            -0.4106561839580536,
            -0.5098093748092651,
            -0.2379978448152542,
            -0.09617871791124344,
            -0.030677184462547302,
            0.0183587484061718,
            -0.03394438698887825,
            -0.20202530920505524,
            -0.09369423240423203,
            -0.28995639085769653,
            -0.2492980659008026,
            -0.1996571272611618,
            -0.050386134535074234,
            -0.22899293899536133,
            -0.12378907203674316,
            -0.07461658865213394,
            -0.0838916078209877,
            0.13099265098571777,
            0.3465580642223358,
            0.4028209149837494,
            0.19542989134788513,
            0.05370671674609184,
            -0.10745283961296082,
            -0.14092668890953064,
            -0.2535347640514374,
            -0.31074512004852295,
            -0.4049355387687683,
            -0.4346119463443756,
            -0.47855091094970703,
            -0.45116353034973145,
            -0.20811517536640167,
            -0.05146653205156326,
            -0.034025199711322784,
            -0.02314605936408043,
            -0.05071282386779785,
            -0.1767459511756897,
            -0.07006849348545074,
            -0.2846556007862091,
            -0.23981726169586182,
            -0.19622765481472015,
            -0.1278868168592453,
            -0.24065057933330536,
            -0.18799257278442383,
            -0.20507457852363586,
            -0.17327190935611725,
            0.17823398113250732,
            0.42709267139434814,
            0.41223010420799255,
            0.18816423416137695,
            -0.048625338822603226,
            -0.0707395002245903,
            -0.13608001172542572,
            -0.22300395369529724,
            -0.1961609125137329,
            -0.2608243525028229,
            -0.2246156930923462,
            -0.40639135241508484,
            -0.14562875032424927,
            -0.14070157706737518,
            -0.03316766023635864,
            -0.034953225404024124,
            -0.027000458911061287,
            -0.06433352828025818,
            -0.022727934643626213,
            0.02328849770128727,
            -0.2453167885541916,
            -0.053632866591215134,
            -0.09311307221651077,
            -0.15302513539791107,
            -0.12182188034057617,
            -0.22725720703601837,
            -0.3133852481842041,
            -0.26200374960899353,
            0.21677634119987488,
            0.47379761934280396,
            0.38510051369667053,
            0.14023174345493317,
            -0.12167835980653763,
            -0.04590243101119995,
            -0.2415080964565277,
            -0.21248814463615417,
            -0.10967594385147095,
            -0.1454906314611435,
            -0.11788344383239746,
            -0.2051732838153839,
            -0.20968781411647797,
            -0.2618918716907501,
            -0.01775060035288334,
            -0.027674809098243713,
            -0.032951872795820236,
            -0.015168571844696999,
            -0.039592064917087555,
            0.08325774222612381,
            -0.16479012370109558,
            -0.07409483194351196,
            -0.07872118055820465,
            -0.0625586211681366,
            -0.25922542810440063,
            -0.4035032391548157,
            -0.440536767244339,
            -0.1874195635318756,
            0.21276116371154785,
            0.4066455662250519,
            0.3230836093425751,
            0.00639084680005908,
            -0.09868684411048889,
            -0.21334107220172882,
            -0.19745230674743652,
            -0.18603898584842682,
            -0.1305539309978485,
            -0.22824151813983917,
            -0.2233259230852127,
            -0.305419921875,
            -0.27424344420433044,
            -0.16665199398994446,
            -0.08215486258268356,
            0.01758916676044464,
            -0.05513496324419975,
            -0.007077466230839491,
            0.0868171826004982,
            -0.12422570586204529,
            -0.16558557748794556,
            -0.12237454205751419,
            -0.08972714841365814,
            -0.09261943399906158,
            -0.1844916194677353,
            -0.42075324058532715,
            -0.3802025616168976,
            -0.10888589173555374,
            0.30005699396133423,
            0.39770936965942383,
            0.3074098825454712,
            -0.01348152756690979,
            -0.18313279747962952,
            -0.3039884865283966,
            -0.27358511090278625,
            -0.2626948356628418,
            -0.21490678191184998,
            -0.154512420296669,
            -0.1810523122549057,
            -0.08429928123950958,
            -0.25756436586380005,
            -0.07651964575052261,
            -0.03310279920697212,
            -0.034192249178886414,
            -0.04458495229482651,
            -0.05660952627658844,
            -0.052824053913354874,
            -0.06797274202108383,
            -0.2288808822631836,
            -0.19771143794059753,
            -0.13003258407115936,
            -0.09032301604747772,
            -0.2626936733722687,
            -0.3319613039493561,
            -0.22861039638519287,
            0.0651526227593422,
            0.3431848883628845,
            0.3820503056049347,
            0.22806298732757568,
            -0.1453564316034317,
            -0.3410908579826355,
            -0.3505805730819702,
            -0.3901163339614868,
            -0.2668750286102295,
            -0.24851547181606293,
            -0.18549372255802155,
            -0.23634584248065948,
            -0.2900342345237732,
            -0.24750258028507233,
            -0.14454694092273712,
            -0.1339053064584732,
            -0.002685040235519409,
            -0.024676639586687088,
            -0.022394105792045593,
            -0.10883188247680664,
            -0.19804400205612183,
            -0.1716984212398529,
            -0.2520422637462616,
            -0.20914779603481293,
            -0.200686976313591,
            -0.14602693915367126,
            -0.17810571193695068,
            -0.1361655741930008,
            0.005112051963806152,
            0.27299243211746216,
            0.35609036684036255,
            0.05480189993977547,
            -0.2488642930984497,
            -0.43990135192871094,
            -0.3667956292629242,
            -0.3502625823020935,
            -0.2683902084827423,
            -0.21328172087669373,
            -0.27527913451194763,
            -0.3277772068977356,
            -0.17248129844665527,
            -0.3190271854400635,
            -0.03309040889143944,
            -0.08773908764123917,
            -0.016348592936992645,
            -0.02445620484650135,
            -0.06577551364898682,
            -0.16681955754756927,
            -0.24282070994377136,
            -0.37650439143180847,
            -0.40836530923843384,
            -0.3217993378639221,
            -0.24953725934028625,
            -0.09691005200147629,
            -0.0929555669426918,
            -0.055793557316064835,
            0.07326548546552658,
            0.30344632267951965,
            0.2956724762916565,
            -0.03121102787554264,
            -0.2715693712234497,
            -0.37123405933380127,
            -0.28421109914779663,
            -0.19621644914150238,
            -0.183124840259552,
            -0.11907421797513962,
            -0.14235495030879974,
            -0.16277524828910828,
            -0.23113054037094116,
            -0.2504437267780304,
            -0.06651627272367477,
            -0.03229762986302376,
            0.017473936080932617,
            -0.029810117557644844,
            -0.049666889011859894,
            -0.14867570996284485,
            -0.2954530715942383,
            -0.3867488205432892,
            -0.434542179107666,
            -0.34969601035118103,
            -0.11792538315057755,
            -0.06825397163629532,
            -0.10300470143556595,
            0.007909356616437435,
            0.14380034804344177,
            0.17986421287059784,
            0.21763573586940765,
            -0.05899355560541153,
            -0.2414446324110031,
            -0.17556537687778473,
            -0.11542636901140213,
            -0.11166171729564667,
            -0.045261722058057785,
            -0.008525247685611248,
            -0.15425923466682434,
            -0.13595765829086304,
            -0.1505676507949829,
            -0.12107498943805695,
            0.005555248353630304,
            0.0063627008348703384,
            -0.028596052899956703,
            -0.038718536496162415,
            -0.03918975219130516,
            -0.204536572098732,
            -0.31687822937965393,
            -0.49584633111953735,
            -0.24345211684703827,
            -0.190948486328125,
            -0.12774299085140228,
            0.011122645810246468,
            -0.06080160290002823,
            0.028713209554553032,
            0.06986965239048004,
            0.15004369616508484,
            0.07606203854084015,
            -0.03888998553156853,
            -0.013985274359583855,
            -0.02950558252632618,
            0.0030293401796370745,
            0.027306001633405685,
            0.005728539545089006,
            -0.04122872278094292,
            -0.12132531404495239,
            -0.21685436367988586,
            -0.01858755387365818,
            -0.04464779421687126,
            0.0085175521671772,
            -0.015778040513396263,
            0.014040347188711166,
            -0.028251660987734795,
            -0.10309631377458572,
            -0.20438626408576965,
            -0.1513012945652008,
            -0.30520766973495483,
            -0.04299670085310936,
            -0.02410542033612728,
            -0.0023345521185547113,
            0.01941356249153614,
            0.07864250987768173,
            0.055660173296928406,
            0.033242952078580856,
            0.016445443034172058,
            0.049747467041015625,
            -0.05174712464213371,
            0.05834382772445679,
            0.09263148903846741,
            0.08227644115686417,
            0.04738639295101166,
            -0.03492626175284386,
            -0.05194477736949921,
            -0.13545356690883636,
            -0.04310373589396477,
            -0.04980606213212013,
            -0.04616784304380417,
            0.02763574756681919,
            0.006283842027187347,
            -0.030646052211523056,
            0.014953216537833214,
            -0.1493620127439499,
            0.015698881819844246,
            0.0653940886259079,
            0.12112736701965332,
            0.05728637054562569,
            0.05797729641199112,
            0.04715130105614662,
            0.058780621737241745,
            0.04690132662653923,
            -0.08429618179798126,
            -0.12984581291675568,
            -0.11840249598026276,
            -0.06899600476026535,
            0.028543099761009216,
            0.035044822841882706,
            0.0814819410443306,
            0.11282338947057724,
            0.0542418397963047,
            0.030145037919282913,
            -0.028008390218019485,
            -0.19160102307796478,
            -0.1937442272901535,
            0.036208365112543106,
            0.07481228560209274,
            0.00170548923779279,
            -0.031077641993761063,
            -0.014883918687701225,
            0.020817894488573074,
            -0.18356823921203613,
            -0.044826705008745193,
            0.11149045079946518,
            0.37721702456474304,
            0.2539035677909851,
            0.12102681398391724,
            0.06688472628593445,
            -0.00526755815371871,
            -0.058713991194963455,
            -0.17721150815486908,
            -0.3262568712234497,
            -0.28728094696998596,
            -0.0221579447388649,
            0.015293672680854797,
            0.0799059346318245,
            0.21505816280841827,
            0.14606444537639618,
            0.027286900207400322,
            0.040659159421920776,
            -0.103370301425457,
            -0.23576386272907257,
            -0.15367314219474792,
            0.03142997995018959,
            0.03504657745361328,
            0.09216409176588058,
            0.018567584455013275,
            -0.013174785301089287,
            -0.010448342189192772,
            -0.03576741740107536,
            -0.15308137238025665,
            0.014779654331505299,
            0.15394286811351776,
            0.22077317535877228,
            0.13145482540130615,
            -0.022773724049329758,
            -0.02085019461810589,
            -0.137184277176857,
            -0.14494763314723969,
            -0.1251930594444275,
            -0.1519925594329834,
            -0.09681405127048492,
            0.053591106086969376,
            0.11552035808563232,
            0.19212216138839722,
            0.006972138304263353,
            0.015725167468190193,
            -0.0657595619559288,
            -0.21968770027160645,
            -0.107574962079525,
            -0.2952374815940857,
            -0.12002739310264587,
            -0.002666813787072897,
            0.05636785551905632,
            0.0013726651668548584,
            0.013536997139453888,
            -0.021175846457481384,
            -0.03611750900745392,
            -0.20183762907981873,
            -0.2310425490140915,
            -0.04769090563058853,
            0.0015879148850217462,
            -0.18331436812877655,
            -0.16013944149017334,
            -0.1778535544872284,
            -0.24957101047039032,
            -0.2963300943374634,
            -0.23828727006912231,
            -0.3080922067165375,
            -0.20338720083236694,
            -0.18014490604400635,
            -0.2537459135055542,
            -0.03905569016933441,
            -0.010642153210937977,
            0.03482838720083237,
            -0.12613074481487274,
            -0.07416247576475143,
            -0.11420939117670059,
            -0.12721781432628632,
            -0.09890303760766983,
            -0.08958856761455536,
            0.0003211572766304016,
            0.012114003300666809,
            -0.015629351139068604,
            0.024574749171733856,
            0.008801449090242386,
            -0.07239678502082825,
            -0.24709701538085938,
            -0.3933524191379547,
            -0.38259774446487427,
            -0.6041845083236694,
            -0.378986120223999,
            -0.3715837001800537,
            -0.5719658732414246,
            -0.5865583419799805,
            -0.4152598977088928,
            -0.47864943742752075,
            -0.3789386749267578,
            -0.4889912009239197,
            -0.5683549046516418,
            -0.49344250559806824,
            -0.3473866879940033,
            -0.24699124693870544,
            -0.2096322625875473,
            -0.0913647711277008,
            -0.06298176199197769,
            -0.0863533616065979,
            -0.028344182297587395,
            -0.01891026832163334,
            0.009509731084108353,
            0.0060034580528736115,
            0.03355703130364418,
            -0.005762606859207153,
            -0.03187812864780426,
            -0.012048261240124702,
            -0.09317081421613693,
            -0.19375105202198029,
            -0.19284775853157043,
            -0.2579389214515686,
            -0.23657724261283875,
            -0.25102367997169495,
            -0.2704727053642273,
            -0.27234333753585815,
            -0.3676130473613739,
            -0.39694419503211975,
            -0.40382659435272217,
            -0.1436121016740799,
            -0.2802368402481079,
            -0.26547539234161377,
            -0.22357648611068726,
            -0.1642809957265854,
            -0.06103850156068802,
            -0.08386863768100739,
            -0.038025181740522385,
            -0.026998700574040413,
            0.03142836317420006,
            0.024697456508874893,
            0.03225434198975563,
            -0.012499094009399414,
            -0.01763385534286499,
            -0.004715472459793091,
            0.032573070377111435,
            -0.008406851440668106,
            0.006384171545505524,
            0.011053970083594322,
            -0.002738890703767538,
            -0.03372800722718239,
            -0.005019289907068014,
            -0.0363205261528492,
            -0.14418447017669678,
            -0.07494297623634338,
            -0.07670632749795914,
            -0.050255417823791504,
            -0.07848069071769714,
            -0.0655088871717453,
            -0.05326526612043381,
            -0.038690533488988876,
            -0.14718666672706604,
            -0.03342333436012268,
            -0.02431345358490944,
            -0.010055124759674072,
            -0.021451296284794807,
            0.014035586267709732,
            -0.03367013856768608,
            0.020332984626293182,
            0.02526472508907318,
            -0.013620316982269287
        ],
        [
            0.0029255710542201996,
            0.001119222491979599,
            0.007609304040670395,
            0.01227535679936409,
            0.01519591361284256,
            0.02347617968916893,
            -0.010029451921582222,
            -0.019882790744304657,
            0.018166691064834595,
            0.03230934962630272,
            -0.01181797869503498,
            -0.028013963252305984,
            -0.0019656121730804443,
            -0.021983791142702103,
            0.08009462058544159,
            0.0038380101323127747,
            -0.024090319871902466,
            0.031274933367967606,
            -0.00668715126812458,
            0.031713541597127914,
            0.024071097373962402,
            -0.01957966759800911,
            0.03285027667880058,
            -0.02992512285709381,
            -0.007295433431863785,
            0.01633637398481369,
            -0.01581423729658127,
            -0.007183752954006195,
            -0.0030251704156398773,
            -0.032189689576625824,
            -0.0011426620185375214,
            0.025543861091136932,
            -0.0035449452698230743,
            -0.009212754666805267,
            -0.06162303313612938,
            -0.04544174671173096,
            -0.011819644831120968,
            -0.17604705691337585,
            -0.1398085206747055,
            -0.169167160987854,
            -0.2707599699497223,
            -0.2743235230445862,
            0.03841822221875191,
            0.06095954403281212,
            0.16620983183383942,
            -0.03153987228870392,
            -0.2540351152420044,
            -0.18765391409397125,
            -0.1584799438714981,
            -0.03856382146477699,
            -0.04446730017662048,
            -0.04777020961046219,
            -0.011474864557385445,
            -0.01802995428442955,
            -0.012597616761922836,
            -0.009141871705651283,
            -0.021189238876104355,
            0.03428047522902489,
            -0.0019679367542266846,
            -0.011809911578893661,
            -0.07966728508472443,
            0.02120262384414673,
            -0.04630494862794876,
            -0.11285015195608139,
            -0.030919397249817848,
            0.05785314366221428,
            -0.06427719444036484,
            0.1062755286693573,
            0.014507577754557133,
            0.05844207853078842,
            0.034571126103401184,
            0.02946491166949272,
            0.07449593394994736,
            -0.020770715549588203,
            -0.13336318731307983,
            -0.2307986319065094,
            -0.16118745505809784,
            -0.12991952896118164,
            -0.24260106682777405,
            -0.041708823293447495,
            0.05804084241390228,
            0.07753865420818329,
            0.02109989896416664,
            -0.019385896623134613,
            0.015712935477495193,
            0.0325067900121212,
            -0.046792205423116684,
            -0.0020598694682121277,
            -0.0268743596971035,
            0.004652063362300396,
            -0.013716517947614193,
            -0.0008460937533527613,
            0.04669468477368355,
            0.2009957730770111,
            0.20624685287475586,
            0.22581270337104797,
            0.2200019359588623,
            0.23795312643051147,
            0.18941543996334076,
            0.07295043766498566,
            0.11416377127170563,
            0.026422331109642982,
            -0.0565892718732357,
            -0.16258302330970764,
            -0.2066391110420227,
            -0.20868423581123352,
            -0.26231855154037476,
            -0.33759605884552,
            -0.07665251195430756,
            0.09671784192323685,
            0.0016499049961566925,
            0.011436358094215393,
            0.0037217773497104645,
            -0.002316337078809738,
            -0.09970969706773758,
            -0.0200667642056942,
            -0.15201108157634735,
            -0.005382379982620478,
            0.15556736290454865,
            0.11170002818107605,
            0.08519180119037628,
            0.24006865918636322,
            0.2522220015525818,
            0.14734484255313873,
            0.2583980858325958,
            0.1831420361995697,
            0.18713510036468506,
            0.16209925711154938,
            0.09665409475564957,
            0.09048353880643845,
            0.011241697706282139,
            -0.07139424979686737,
            -0.06684326380491257,
            -0.32277911901474,
            -0.2896513342857361,
            -0.4941209554672241,
            -0.33436134457588196,
            -0.00790511816740036,
            -0.056617844849824905,
            0.01995858922600746,
            0.015811435878276825,
            0.013625677675008774,
            -0.012856611981987953,
            0.005297787021845579,
            0.023848118260502815,
            -0.011602631770074368,
            0.04089280590415001,
            0.11937279999256134,
            0.13794293999671936,
            0.11517497897148132,
            0.13711176812648773,
            0.20296832919120789,
            0.16794948279857635,
            0.18689410388469696,
            0.20831172168254852,
            0.1351652294397354,
            0.2100246399641037,
            0.18660052120685577,
            0.1263762265443802,
            0.004078702535480261,
            -0.03487599641084671,
            -0.058099981397390366,
            -0.0432564951479435,
            -0.27142637968063354,
            -0.30600717663764954,
            -0.1694309115409851,
            -0.11780348420143127,
            -0.033922720700502396,
            -0.019587313756346703,
            -0.023895353078842163,
            -0.0850134789943695,
            -0.019597573205828667,
            0.045252442359924316,
            0.1414007991552353,
            0.1166849136352539,
            0.09934739023447037,
            0.05826140195131302,
            0.14932860434055328,
            0.08274233341217041,
            0.03458599001169205,
            0.06568620353937149,
            0.11220352351665497,
            0.14563938975334167,
            0.07094307243824005,
            0.09657064825296402,
            0.05163870379328728,
            0.06223045662045479,
            -0.02275044471025467,
            -0.04886195808649063,
            -0.07432210445404053,
            -0.1259460300207138,
            -0.33884474635124207,
            -0.41047587990760803,
            -0.4374673366546631,
            -0.19516994059085846,
            -0.109224833548069,
            0.018946301192045212,
            -0.07286007702350616,
            0.14743919670581818,
            -0.01766296848654747,
            0.16853003203868866,
            0.060821302235126495,
            0.15415939688682556,
            0.03383472189307213,
            0.10958924889564514,
            0.029460730031132698,
            0.06818211823701859,
            0.06707748770713806,
            0.021346013993024826,
            0.04755702242255211,
            0.05258391425013542,
            -0.026472877711057663,
            0.04319771006703377,
            -0.07883042097091675,
            -0.020925749093294144,
            -0.021199766546487808,
            -0.027692195028066635,
            -0.01376107707619667,
            0.022394243627786636,
            -0.3449326455593109,
            -0.3524816930294037,
            -0.2879181206226349,
            -0.19933123886585236,
            4.718944637716049e-06,
            -0.031278833746910095,
            -0.08606940507888794,
            0.010777713730931282,
            0.06587400287389755,
            0.12406623363494873,
            0.06916748732328415,
            0.056347813457250595,
            0.052898894995450974,
            0.061650343239307404,
            0.04153118655085564,
            0.17583505809307098,
            0.09468139708042145,
            0.039303969591856,
            0.06737374514341354,
            0.1072494238615036,
            0.079205721616745,
            -0.008198389783501625,
            -0.0003925044438801706,
            -0.06463594734668732,
            0.08344043791294098,
            0.01337414514273405,
            -0.05093890801072121,
            -0.058237358927726746,
            -0.1739467978477478,
            -0.549249529838562,
            -0.5400757789611816,
            -0.27569401264190674,
            -0.09734999388456345,
            -0.029545264318585396,
            -0.0873894914984703,
            -0.07628365606069565,
            0.03839019685983658,
            0.14795175194740295,
            0.12979961931705475,
            0.04732135310769081,
            -0.017884891480207443,
            -0.010895516723394394,
            0.03256271779537201,
            0.04598923772573471,
            0.031323906034231186,
            0.01218132022768259,
            0.005510132759809494,
            0.06787280738353729,
            0.04654289409518242,
            0.09555549919605255,
            0.07210930436849594,
            0.05409112572669983,
            0.0359671488404274,
            -0.02464492805302143,
            -0.08101474493741989,
            -0.13244818150997162,
            -0.1406218707561493,
            -0.552671492099762,
            -0.5550670027732849,
            -0.28250086307525635,
            -0.10947588831186295,
            -0.031154295429587364,
            -0.04862362891435623,
            -0.0392574742436409,
            0.04163162037730217,
            -0.006591787561774254,
            0.07624038308858871,
            0.07447504252195358,
            -0.1641986221075058,
            -0.17617538571357727,
            -0.127365842461586,
            -0.13041742146015167,
            -0.16904370486736298,
            -0.1729297935962677,
            -0.2651101350784302,
            -0.15608328580856323,
            -0.1052698940038681,
            -0.049649015069007874,
            0.03963281214237213,
            -0.003495432436466217,
            -0.012814528308808804,
            -0.02111917734146118,
            -0.027655543759465218,
            -0.04867980629205704,
            -0.1659141331911087,
            -0.20843742787837982,
            -0.219181090593338,
            -0.016700847074389458,
            -0.13257738947868347,
            -0.07114080339670181,
            -0.03961450979113579,
            -0.0666033998131752,
            -0.09344931691884995,
            -0.10793837159872055,
            -0.07078690826892853,
            -0.24593184888362885,
            -0.285556823015213,
            -0.3217047452926636,
            -0.3432108759880066,
            -0.42241811752319336,
            -0.41147634387016296,
            -0.5133892297744751,
            -0.5041436553001404,
            -0.39870724081993103,
            -0.2734135687351227,
            -0.1709715873003006,
            -0.12298573553562164,
            -0.07839963585138321,
            0.040898893028497696,
            -0.011415948159992695,
            -0.06864454597234726,
            -0.04158733785152435,
            -0.11598899960517883,
            -0.1881527155637741,
            0.00492262514308095,
            -0.21389977633953094,
            -0.11186195909976959,
            -0.016416914761066437,
            -0.0413624532520771,
            -0.06544997543096542,
            -0.1798723042011261,
            -0.2157628983259201,
            -0.3432419002056122,
            -0.5403795838356018,
            -0.5413057804107666,
            -0.4424606263637543,
            -0.417329341173172,
            -0.37319087982177734,
            -0.4407225549221039,
            -0.4285212457180023,
            -0.42907679080963135,
            -0.3679533898830414,
            -0.28819966316223145,
            -0.1865478754043579,
            -0.20121797919273376,
            -0.11151843518018723,
            -0.005997785832732916,
            -0.02026813104748726,
            -0.08061722666025162,
            -0.14785490930080414,
            -0.21227999031543732,
            0.01404647622257471,
            0.20987097918987274,
            0.24922381341457367,
            -0.12221848219633102,
            0.004331905394792557,
            -0.017729979008436203,
            -0.05760474503040314,
            -0.18452613055706024,
            -0.4520399272441864,
            -0.6070360541343689,
            -0.623491644859314,
            -0.5864523649215698,
            -0.34120625257492065,
            -0.33737918734550476,
            -0.27052927017211914,
            -0.14220835268497467,
            -0.116811104118824,
            -0.14133359491825104,
            -0.13742782175540924,
            -0.21746894717216492,
            -0.18912091851234436,
            -0.16031098365783691,
            -0.11284034699201584,
            -0.05823352560400963,
            -0.09219013154506683,
            -0.1377342790365219,
            -0.16082166135311127,
            -0.14660945534706116,
            0.1105719804763794,
            0.3538227081298828,
            0.3284253478050232,
            0.17726871371269226,
            -0.03383665531873703,
            0.015293873846530914,
            0.009794900193810463,
            -0.16337376832962036,
            -0.36522117257118225,
            -0.39091402292251587,
            -0.31402507424354553,
            -0.17889337241649628,
            -0.1346273273229599,
            -0.07530733197927475,
            -0.11100096255540848,
            0.0005387116107158363,
            0.018215149641036987,
            0.04652651026844978,
            -0.034090761095285416,
            -0.0742294192314148,
            -0.10032901167869568,
            -0.12899614870548248,
            -0.07505972683429718,
            -0.07033607363700867,
            -0.0020050215534865856,
            -0.11641810089349747,
            -0.16462251543998718,
            -0.07706636190414429,
            0.10217384994029999,
            0.33290326595306396,
            0.29604363441467285,
            -0.016736185178160667,
            0.023478999733924866,
            -0.12470703572034836,
            -0.12765048444271088,
            0.024419670924544334,
            0.01611023023724556,
            -0.05840572342276573,
            0.030074167996644974,
            -0.04654611274600029,
            -0.01379612646996975,
            -0.060957904905080795,
            0.05516840144991875,
            0.055947110056877136,
            0.09256861358880997,
            0.1281248778104782,
            0.02484729327261448,
            0.03177684172987938,
            0.013530408032238483,
            -0.046180468052625656,
            -0.11693014204502106,
            -0.008121544495224953,
            -0.15885436534881592,
            -0.11301770061254501,
            -0.14680969715118408,
            -0.16586598753929138,
            0.23688486218452454,
            0.3537963032722473,
            0.320860892534256,
            0.11468334496021271,
            -0.01363622397184372,
            -0.03379696607589722,
            -0.09174615144729614,
            0.24130521714687347,
            0.17593513429164886,
            0.20750288665294647,
            0.14649344980716705,
            0.07747387140989304,
            -0.06427202373743057,
            0.07835686206817627,
            0.10183977335691452,
            0.10870322585105896,
            0.22954018414020538,
            0.1763647347688675,
            0.11343719065189362,
            0.05074026808142662,
            0.019595511257648468,
            0.08350614458322525,
            0.0017105030128732324,
            -0.04667741060256958,
            -0.03563371300697327,
            0.06105426326394081,
            0.09856279194355011,
            0.04596388712525368,
            0.275229811668396,
            0.5107026100158691,
            0.36283791065216064,
            0.17667414247989655,
            0.022843744605779648,
            -0.002038415055721998,
            0.06384111195802689,
            0.22525770962238312,
            0.19407404959201813,
            0.2174411118030548,
            0.1784716099500656,
            0.09434277564287186,
            0.032511282712221146,
            0.08016426116228104,
            0.12909406423568726,
            0.18823851644992828,
            0.23116502165794373,
            0.20439663529396057,
            0.006308121606707573,
            0.08112470805644989,
            -0.0014519499382004142,
            0.043311744928359985,
            0.0371977761387825,
            0.0021756156347692013,
            0.04146082326769829,
            0.03017536923289299,
            0.1069571003317833,
            0.14154483377933502,
            0.28288301825523376,
            0.5110069513320923,
            0.37874138355255127,
            0.013720665127038956,
            -0.026631347835063934,
            -0.06111538037657738,
            -0.07603520154953003,
            0.025919632986187935,
            0.17085464298725128,
            0.22454535961151123,
            0.16924534738063812,
            0.1468343883752823,
            0.0643920823931694,
            0.07835066318511963,
            0.17146413028240204,
            0.1373346894979477,
            0.23087464272975922,
            0.19592127203941345,
            0.08673340082168579,
            0.0347922146320343,
            0.13359543681144714,
            0.10990714281797409,
            0.03770165890455246,
            0.08294080942869186,
            0.0561051219701767,
            0.05156588926911354,
            0.12500981986522675,
            0.264919638633728,
            0.4454818069934845,
            0.4260304570198059,
            0.189417764544487,
            0.17204996943473816,
            0.0023259222507476807,
            -0.029441501945257187,
            -0.07879144698381424,
            -0.0868477150797844,
            0.12994597852230072,
            0.11538883298635483,
            0.13743145763874054,
            0.2021005004644394,
            0.16134536266326904,
            0.12285120785236359,
            0.13963311910629272,
            0.1875305324792862,
            0.11253930628299713,
            0.19279785454273224,
            0.11615332961082458,
            0.087747722864151,
            0.04434287175536156,
            0.11061403155326843,
            0.023034244775772095,
            0.04722011461853981,
            0.08109110593795776,
            0.08019978553056717,
            0.19864368438720703,
            0.16708190739154816,
            0.1589452624320984,
            0.3578203320503235,
            0.2923409342765808,
            0.076682448387146,
            -0.004522664472460747,
            -0.07378415018320084,
            -0.03593297675251961,
            0.014545920304954052,
            0.12357772141695023,
            0.12910929322242737,
            0.09014634788036346,
            0.2052917629480362,
            0.1465943455696106,
            0.18065132200717926,
            0.15979395806789398,
            0.150261789560318,
            0.11109869182109833,
            0.012063445523381233,
            0.021961912512779236,
            0.013801315799355507,
            0.04604361206293106,
            0.005193963181227446,
            0.11320143193006516,
            0.07747913897037506,
            0.14872078597545624,
            0.17314627766609192,
            0.1219908744096756,
            0.1521615833044052,
            0.29548537731170654,
            0.17796951532363892,
            0.1445043534040451,
            -0.01749533973634243,
            0.030041296035051346,
            0.011450055055320263,
            0.05390774831175804,
            0.11851859837770462,
            0.06028594821691513,
            0.06265167891979218,
            0.09191747009754181,
            0.11988784372806549,
            0.12202100455760956,
            0.16344793140888214,
            0.136623814702034,
            0.13009071350097656,
            0.07068105787038803,
            -0.004591013770550489,
            -0.02107173576951027,
            -0.0447314977645874,
            -0.005195546895265579,
            0.12702728807926178,
            0.14414472877979279,
            0.20318098366260529,
            0.1256270706653595,
            0.16968074440956116,
            0.1698959767818451,
            0.3030025064945221,
            0.19010205566883087,
            0.22452987730503082,
            0.05412328243255615,
            -0.023980379104614258,
            0.02549092471599579,
            -0.028809258714318275,
            0.023602206259965897,
            0.09143990278244019,
            0.08736822009086609,
            0.04896512255072594,
            0.14822480082511902,
            0.13097167015075684,
            0.1468733251094818,
            0.15166088938713074,
            0.10727455466985703,
            0.057532742619514465,
            -0.0030412040650844574,
            -0.089647077023983,
            -0.1071951761841774,
            -0.07747553288936615,
            -0.02645462192595005,
            0.020149562507867813,
            0.14338025450706482,
            0.16113775968551636,
            0.1874859780073166,
            0.09808575361967087,
            0.19256943464279175,
            0.08604162186384201,
            0.14947225153446198,
            0.05614529550075531,
            0.0061733778566122055,
            0.0077459365129470825,
            -0.018437892198562622,
            -0.017207061871886253,
            -0.0708199217915535,
            -0.07647942006587982,
            -0.05374373123049736,
            -0.0603974424302578,
            -0.039528511464595795,
            -0.025842728093266487,
            0.06192769110202789,
            0.017572812736034393,
            0.002159734256565571,
            0.024648651480674744,
            -0.016503790393471718,
            -0.07008011639118195,
            -0.12838958203792572,
            -0.11157326400279999,
            -0.06849025189876556,
            -0.03831624984741211,
            0.10497526079416275,
            0.11041527986526489,
            0.13502073287963867,
            0.11430414766073227,
            0.16477499902248383,
            0.12729930877685547,
            0.12173420190811157,
            0.08808232843875885,
            -0.04528002440929413,
            -0.03377528861165047,
            0.03181476518511772,
            -0.007203809916973114,
            -0.06087704375386238,
            -0.25411802530288696,
            -0.21807464957237244,
            -0.36167216300964355,
            -0.2678487002849579,
            -0.28456375002861023,
            -0.24769753217697144,
            -0.2117784321308136,
            -0.2364645153284073,
            -0.2273346185684204,
            -0.10525517910718918,
            -0.05587833374738693,
            -0.05133635550737381,
            -0.12275788933038712,
            -0.11750750243663788,
            -0.019558537751436234,
            0.006679679732769728,
            -0.11194905638694763,
            -0.03267373517155647,
            0.046114418655633926,
            0.025715095922350883,
            -0.10961396247148514,
            0.13877780735492706,
            0.20051421225070953,
            -0.027349719777703285,
            -0.03366582840681076,
            -0.026556603610515594,
            -0.03223727270960808,
            -0.0117853544652462,
            -0.1258140504360199,
            -0.28859254717826843,
            -0.4201216697692871,
            -0.31575924158096313,
            -0.38446858525276184,
            -0.5050275325775146,
            -0.5067304372787476,
            -0.45254242420196533,
            -0.39979732036590576,
            -0.37292367219924927,
            -0.2868236005306244,
            -0.1676395982503891,
            -0.16356128454208374,
            -0.1504073441028595,
            -0.12443608045578003,
            -0.2566925585269928,
            -0.3398316204547882,
            -0.26957979798316956,
            -0.3020961284637451,
            -0.24192391335964203,
            -0.24367916584014893,
            -0.1484939455986023,
            0.019224587827920914,
            0.004844967275857925,
            0.034567635506391525,
            0.03480472043156624,
            -0.030356373637914658,
            -0.01996666193008423,
            0.03366011753678322,
            -0.09335697442293167,
            -0.12680189311504364,
            -0.14706389605998993,
            -0.23113511502742767,
            -0.21093572676181793,
            -0.17237675189971924,
            -0.16650135815143585,
            -0.2746107578277588,
            -0.24598313868045807,
            -0.28553488850593567,
            -0.2544635534286499,
            -0.30280813574790955,
            -0.33468469977378845,
            -0.33849212527275085,
            -0.3338058590888977,
            -0.25380536913871765,
            -0.21931414306163788,
            -0.2544601857662201,
            -0.12148786336183548,
            -0.06360333412885666,
            0.006674811244010925,
            -0.004879342392086983,
            -0.018691178411245346,
            0.008259028196334839,
            0.016731340438127518,
            0.008236683905124664,
            0.008794784545898438,
            -0.0022257044911384583,
            -0.008441338315606117,
            -0.03804512321949005,
            -0.023513490334153175,
            -0.0224557314068079,
            -0.0016624553827568889,
            -0.02525547333061695,
            -0.08119139820337296,
            -0.05818658322095871,
            -0.06035997346043587,
            -0.04926672950387001,
            -0.04542937129735947,
            -0.06027767062187195,
            -0.09632030874490738,
            -0.05801428481936455,
            -0.028577709570527077,
            -0.0009797950042411685,
            -0.05934353545308113,
            -0.07893908768892288,
            -0.09753301739692688,
            0.034840743988752365,
            -0.0070993173867464066,
            -0.012051638215780258,
            0.0021969936788082123,
            0.001038920134305954
        ],
        [
            0.018982555717229843,
            0.033545929938554764,
            -0.030652213841676712,
            0.0018358230590820312,
            -0.006415175274014473,
            0.024526994675397873,
            -0.0022959746420383453,
            0.019256196916103363,
            -0.022709563374519348,
            -0.03243684768676758,
            0.02381931245326996,
            0.018366266041994095,
            0.02942531183362007,
            -0.024858050048351288,
            -0.04288609325885773,
            -0.01824614405632019,
            0.013974711298942566,
            0.02493494749069214,
            0.015718676149845123,
            0.011766940355300903,
            0.029251884669065475,
            0.031197328120470047,
            -0.010130183771252632,
            0.019619427621364594,
            0.0008329041302204132,
            -0.02513906918466091,
            -0.017012035474181175,
            0.008747097104787827,
            -0.02265160158276558,
            0.0243840254843235,
            0.00911778211593628,
            0.007950950413942337,
            0.02382614091038704,
            0.03556836023926735,
            -0.049295421689748764,
            -0.0020797899924218655,
            -0.044746484607458115,
            -0.0688910111784935,
            -0.05540072172880173,
            -0.09388094395399094,
            -0.06661584228277206,
            -0.05038030073046684,
            -0.05267297476530075,
            -0.12391435354948044,
            -0.10273329168558121,
            -0.010306338779628277,
            0.008390550501644611,
            -0.002658076584339142,
            -0.006661675870418549,
            -0.05898620933294296,
            -0.027333954349160194,
            -0.04277300089597702,
            -0.012042449787259102,
            0.0177726112306118,
            -0.030302751809358597,
            -0.01151847094297409,
            0.0007337406277656555,
            -0.020163889974355698,
            0.017923321574926376,
            0.030026186257600784,
            -0.013187536038458347,
            -0.033736612647771835,
            -0.09065943956375122,
            -0.13455744087696075,
            -0.18890507519245148,
            -0.22913824021816254,
            -0.2911737263202667,
            -0.057661958038806915,
            -0.0947071835398674,
            -0.00786024983972311,
            -0.08483980596065521,
            -0.19336457550525665,
            -0.037964899092912674,
            -0.08126872032880783,
            -0.13280507922172546,
            -0.2960706353187561,
            -0.12973852455615997,
            -0.13812300562858582,
            -0.149818554520607,
            -0.011809120886027813,
            -0.000845004862640053,
            -0.03064918890595436,
            0.020841699093580246,
            -0.01294064149260521,
            -0.022697756066918373,
            0.015839867293834686,
            -0.019394272938370705,
            -0.03002987802028656,
            -0.008310139179229736,
            0.15213552117347717,
            0.06629642099142075,
            0.11425940692424774,
            0.16790710389614105,
            -0.07199294865131378,
            0.06253015249967575,
            0.20081692934036255,
            0.2557997405529022,
            0.1473890244960785,
            0.24027252197265625,
            0.1476195603609085,
            0.11219626665115356,
            0.12945981323719025,
            0.13019174337387085,
            0.07114958018064499,
            0.106328085064888,
            -0.23985937237739563,
            -0.3700409531593323,
            -0.23041899502277374,
            -0.1963421106338501,
            -0.02777494676411152,
            -0.010584844276309013,
            -0.012784676626324654,
            0.012898653745651245,
            -0.013782696798443794,
            -0.07111649960279465,
            0.03441823646426201,
            0.0448513962328434,
            0.2310865968465805,
            0.1869935393333435,
            0.18447603285312653,
            0.17004577815532684,
            0.13969869911670685,
            0.18365055322647095,
            0.21199418604373932,
            0.21147523820400238,
            0.17512966692447662,
            0.10686745494604111,
            0.12484196573495865,
            0.1265331655740738,
            0.00651438906788826,
            0.07360238581895828,
            0.007187281735241413,
            -0.10176734626293182,
            -0.2488315999507904,
            -0.16584555804729462,
            -0.40916740894317627,
            -0.2945947051048279,
            -0.05010627955198288,
            -0.010405074805021286,
            0.03523677960038185,
            0.03149597719311714,
            -0.009914642199873924,
            0.019550587981939316,
            0.10559267550706863,
            0.16827426850795746,
            0.2748916447162628,
            0.20400384068489075,
            0.20568911731243134,
            0.09187351912260056,
            0.15894389152526855,
            0.10962989181280136,
            0.08439803868532181,
            0.11690991371870041,
            0.10501951724290848,
            0.038461606949567795,
            0.1351010948419571,
            0.08933600783348083,
            0.03112039715051651,
            -0.034110747277736664,
            -0.012104096822440624,
            -0.09859414398670197,
            -0.2131362110376358,
            -0.22559882700443268,
            -0.3135097026824951,
            -0.45542725920677185,
            -0.2617877125740051,
            -0.08238011598587036,
            -0.03118705004453659,
            -0.015744496136903763,
            -0.015168752521276474,
            0.026084212586283684,
            0.1760067343711853,
            0.17912988364696503,
            0.14329662919044495,
            0.21060772240161896,
            0.05969439819455147,
            0.14565272629261017,
            0.14083418250083923,
            0.13161520659923553,
            0.06419190019369125,
            0.057571303099393845,
            0.1494583636522293,
            0.1212044507265091,
            0.07792679220438004,
            0.10603856295347214,
            0.02868894301354885,
            0.041944365948438644,
            -0.01180579699575901,
            -0.05187994986772537,
            -0.10838361084461212,
            -0.18274801969528198,
            -0.2508918046951294,
            -0.2889258563518524,
            -0.3502090275287628,
            -0.16988986730575562,
            -0.048747070133686066,
            0.023555263876914978,
            0.13759206235408783,
            -0.19068098068237305,
            0.12255007028579712,
            0.18869972229003906,
            0.21494948863983154,
            0.1706380546092987,
            0.058249332010746,
            0.0760238766670227,
            0.04711708426475525,
            0.059895146638154984,
            0.03516092151403427,
            0.07609792798757553,
            0.08917365968227386,
            0.15825778245925903,
            0.12765242159366608,
            0.03428875654935837,
            0.1004834920167923,
            0.01857098378241062,
            0.07916709780693054,
            -0.01417677290737629,
            -0.039445679634809494,
            -0.14707069098949432,
            -0.2871026396751404,
            -0.43143361806869507,
            -0.37740665674209595,
            -0.1369159072637558,
            -0.03132891654968262,
            -0.06162982061505318,
            -0.05159272998571396,
            -0.10611499845981598,
            0.06878791749477386,
            0.2394578903913498,
            0.1575520634651184,
            0.10359548777341843,
            0.07319965958595276,
            -0.0027618189342319965,
            -0.02189646288752556,
            0.005479093175381422,
            -0.0017822360387071967,
            -0.008841725997626781,
            0.048864297568798065,
            0.1212688460946083,
            0.11816219985485077,
            0.10240355134010315,
            0.11505881696939468,
            0.07670755684375763,
            0.08144702762365341,
            0.10637686401605606,
            0.03201745077967644,
            -0.011764876544475555,
            -0.3865484297275543,
            -0.6717913150787354,
            -0.47950151562690735,
            -0.11930377781391144,
            -0.07890637964010239,
            -0.02996540069580078,
            -0.04563479870557785,
            -0.00657778512686491,
            0.11453267931938171,
            0.25042200088500977,
            0.09410784393548965,
            0.0392068549990654,
            0.046538591384887695,
            -0.09691519290208817,
            -0.09616530686616898,
            -0.17324036359786987,
            -0.24508844316005707,
            -0.23595072329044342,
            -0.07430022209882736,
            0.11987468600273132,
            0.22759199142456055,
            0.08400017023086548,
            0.11328685283660889,
            0.093221016228199,
            0.1462535709142685,
            0.1331089735031128,
            0.1356542855501175,
            0.11368095129728317,
            -0.20632348954677582,
            -0.7718043327331543,
            -0.5067752599716187,
            -0.17581820487976074,
            -0.036050114780664444,
            -0.08818347752094269,
            -0.1401565968990326,
            -0.15215153992176056,
            0.2357364445924759,
            0.09749801456928253,
            0.013996700756251812,
            -0.02663392946124077,
            -0.09645985811948776,
            -0.2685101330280304,
            -0.3334253430366516,
            -0.39378607273101807,
            -0.3998757302761078,
            -0.3301735520362854,
            -0.04587884247303009,
            0.11690115183591843,
            0.16528388857841492,
            0.19802066683769226,
            0.15101784467697144,
            0.13307946920394897,
            0.10659022629261017,
            0.16860686242580414,
            0.10827343165874481,
            -0.03276820108294487,
            -0.1674424111843109,
            -0.5311614274978638,
            -0.15955573320388794,
            -0.1244550496339798,
            -0.04375487565994263,
            -0.06789044290781021,
            -0.16609454154968262,
            0.00845733005553484,
            0.17355836927890778,
            0.0667932853102684,
            -0.139504536986351,
            -0.23873791098594666,
            -0.32974135875701904,
            -0.37740767002105713,
            -0.3145230710506439,
            -0.27130836248397827,
            -0.19523218274116516,
            -0.10515154153108597,
            0.039994705468416214,
            0.13788583874702454,
            0.11353523284196854,
            0.043335024267435074,
            0.12302744388580322,
            0.07309193164110184,
            0.12087643891572952,
            0.038484375923871994,
            -0.1576835662126541,
            -0.16421055793762207,
            -0.28812336921691895,
            -0.4536682367324829,
            -0.03405049815773964,
            -0.24065737426280975,
            -0.06285076588392258,
            -0.03510487079620361,
            -0.14402662217617035,
            -0.22791926562786102,
            -0.010636575520038605,
            -0.1426527500152588,
            -0.2747465670108795,
            -0.3529117703437805,
            -0.33330580592155457,
            -0.2760656476020813,
            -0.17739611864089966,
            -0.09336325526237488,
            -0.11151570081710815,
            0.04321907460689545,
            0.08013973385095596,
            0.12338731437921524,
            0.0770198404788971,
            0.08993909507989883,
            0.06608609110116959,
            0.010079523548483849,
            -0.013451509177684784,
            -0.13701096177101135,
            -0.3191611170768738,
            -0.3896901607513428,
            -0.3388478755950928,
            -0.29879552125930786,
            0.06018902361392975,
            -0.028442921116948128,
            -0.04395618289709091,
            0.005773637443780899,
            -0.06034638732671738,
            -0.16318602859973907,
            -0.04555055499076843,
            -0.11582721024751663,
            -0.281256765127182,
            -0.2989315986633301,
            -0.2820810079574585,
            -0.22287385165691376,
            -0.14576689898967743,
            -0.15061333775520325,
            -0.05376434326171875,
            0.009171586483716965,
            0.16724275052547455,
            0.11675277352333069,
            0.01946576125919819,
            0.07673585414886475,
            0.057256318628787994,
            0.006451866123825312,
            -0.1073070541024208,
            -0.3034217059612274,
            -0.2526795566082001,
            -0.3490760922431946,
            -0.3006178140640259,
            -0.21092446148395538,
            -0.17634481191635132,
            -0.048181165009737015,
            -0.07072319835424423,
            -0.03227252885699272,
            -0.05664201080799103,
            -0.09961358457803726,
            0.04576082155108452,
            -0.148493230342865,
            -0.28030726313591003,
            -0.27383795380592346,
            -0.33523866534233093,
            -0.15504387021064758,
            -0.15371811389923096,
            -0.12098720669746399,
            -0.11376398801803589,
            0.08567877858877182,
            0.04922245070338249,
            0.0507625974714756,
            0.008475059643387794,
            -0.07003647834062576,
            -0.01987529918551445,
            0.017335524782538414,
            -0.051019616425037384,
            -0.09907388687133789,
            -0.061179082840681076,
            -0.24070951342582703,
            -0.142465278506279,
            -0.21565155684947968,
            -0.23486925661563873,
            -0.14573055505752563,
            -0.026730522513389587,
            0.026216529309749603,
            0.05477236211299896,
            0.06631378084421158,
            -0.016267413273453712,
            0.02447398565709591,
            -0.0865645632147789,
            -0.21233470737934113,
            -0.2642695903778076,
            -0.2938513457775116,
            -0.20476014912128448,
            -0.13794995844364166,
            -0.06636213511228561,
            0.07320957630872726,
            0.039971671998500824,
            -0.00030944845639169216,
            0.004292744677513838,
            -0.05856121703982353,
            -0.01666560024023056,
            -0.043498292565345764,
            0.042189598083496094,
            0.09183861315250397,
            0.040070753544569016,
            0.04362739250063896,
            0.09799852222204208,
            -0.06375778466463089,
            -0.2853478491306305,
            -0.15270118415355682,
            -0.09234903752803802,
            0.03096700832247734,
            0.021344084292650223,
            0.20848429203033447,
            0.10402963310480118,
            0.10253718495368958,
            -0.023539680987596512,
            -0.18158775568008423,
            -0.21655288338661194,
            -0.31791049242019653,
            -0.17783090472221375,
            -0.23918329179286957,
            -0.1532108336687088,
            -0.020995337516069412,
            0.0383203886449337,
            -0.07427193969488144,
            -0.09002356976270676,
            -0.07626614719629288,
            0.0022897403687238693,
            0.10381757467985153,
            0.16067925095558167,
            0.09643332660198212,
            0.09145370125770569,
            0.0999922901391983,
            0.191226527094841,
            0.07318507134914398,
            -0.3605143427848816,
            -0.19905272126197815,
            -0.14587336778640747,
            0.006980322301387787,
            0.043391477316617966,
            0.12566322088241577,
            0.2767866551876068,
            0.2703801691532135,
            0.07295189797878265,
            -0.09243223071098328,
            -0.10061173141002655,
            -0.223399817943573,
            -0.3777555823326111,
            -0.39690443873405457,
            -0.3453870117664337,
            -0.23600056767463684,
            -0.2657393217086792,
            -0.2579450309276581,
            -0.12794087827205658,
            -0.04150518774986267,
            0.09173665940761566,
            0.058413248509168625,
            0.1744125783443451,
            0.06336414068937302,
            0.16842256486415863,
            0.15646333992481232,
            0.24362999200820923,
            -0.1928684115409851,
            -0.4335985481739044,
            -0.1414424031972885,
            -0.029060501605272293,
            -0.030201904475688934,
            0.0585089735686779,
            0.12497842311859131,
            0.3910142481327057,
            0.25132521986961365,
            0.11665573716163635,
            0.10482269525527954,
            -0.12200146913528442,
            -0.21377478539943695,
            -0.3054260313510895,
            -0.389538049697876,
            -0.36642634868621826,
            -0.33605241775512695,
            -0.33501681685447693,
            -0.24334953725337982,
            -0.029159657657146454,
            0.08498364686965942,
            0.16910338401794434,
            0.1447921246290207,
            0.1872655302286148,
            0.09628553688526154,
            0.15949946641921997,
            0.1953565776348114,
            0.06067109480500221,
            -0.25319647789001465,
            -0.32111820578575134,
            -0.10890895128250122,
            -0.08941810578107834,
            -0.020406335592269897,
            -0.007496195379644632,
            0.03254042938351631,
            0.3462466895580292,
            0.17189674079418182,
            0.2566342055797577,
            0.09660989046096802,
            0.03725423663854599,
            0.011723845265805721,
            -0.09797019511461258,
            -0.21716630458831787,
            -0.2716422379016876,
            -0.23990339040756226,
            -0.21796022355556488,
            -0.10092773288488388,
            0.02943076565861702,
            0.13025017082691193,
            0.2020070105791092,
            0.1717277318239212,
            0.12670552730560303,
            0.07408324629068375,
            0.16156309843063354,
            0.046070318669080734,
            -0.005982445552945137,
            -0.16474035382270813,
            -0.3594295382499695,
            -0.11277419328689575,
            -0.05378354340791702,
            0.011044539511203766,
            0.02161027304828167,
            0.06226755678653717,
            0.2738398611545563,
            0.24598823487758636,
            0.19762969017028809,
            0.20813357830047607,
            0.12578463554382324,
            0.08220673352479935,
            0.06262097507715225,
            -0.061431001871824265,
            -0.1424066722393036,
            -0.1715681254863739,
            -0.1043335348367691,
            -0.023372484371066093,
            0.040312912315130234,
            0.07303427159786224,
            0.1373865157365799,
            0.112223781645298,
            0.11093764752149582,
            0.16322335600852966,
            0.0577453188598156,
            -0.09590932726860046,
            -0.11975467205047607,
            -0.14714014530181885,
            -0.23532451689243317,
            -0.12791867554187775,
            -0.031226325780153275,
            0.004728011786937714,
            0.03644151613116264,
            0.0840073674917221,
            0.17709985375404358,
            0.17240411043167114,
            0.16727261245250702,
            0.11469502747058868,
            0.14552167057991028,
            0.10661789774894714,
            -0.03423212841153145,
            -0.0024539465084671974,
            -0.07935559749603271,
            -0.11208038032054901,
            -0.04265981540083885,
            -0.02587761916220188,
            0.0026305008213967085,
            0.09232936054468155,
            0.07349222153425217,
            0.1286555379629135,
            0.12385541945695877,
            -0.014499719254672527,
            -0.02995901368558407,
            -0.11895477771759033,
            -0.23111240565776825,
            -0.3042778968811035,
            -0.25115007162094116,
            -0.11560720205307007,
            -0.01384376734495163,
            0.020831625908613205,
            0.005658645182847977,
