{
    "conv_layer.0.weight": [
        [
            [
                [
                    0.043848078697919846,
                    0.12887732684612274,
                    0.47977519035339355,
                    0.4217521846294403,
                    0.4616081416606903
                ],
                [
                    -0.39913004636764526,
                    -0.5037886500358582,
                    -0.6217166185379028,
                    -0.4836442470550537,
                    -0.10702573508024216
                ],
                [
                    0.13961490988731384,
                    -0.47842028737068176,
                    -0.5415470600128174,
                    -0.37387847900390625,
                    -0.29224494099617004
                ],
                [
                    0.17884506285190582,
                    0.19572144746780396,
                    0.11089569330215454,
                    -0.11021239310503006,
                    -0.21413694322109222
                ],
                [
                    0.317388117313385,
                    0.4697836637496948,
                    0.3495023846626282,
                    0.38023141026496887,
                    0.14046820998191833
                ]
            ]
        ],
        [
            [
                [
                    -0.3903331756591797,
                    -0.1028469055891037,
                    0.2843398153781891,
                    0.4585847556591034,
                    0.11526775360107422
                ],
                [
                    -0.42158305644989014,
                    -0.2382805198431015,
                    -0.028230449184775352,
                    0.29501670598983765,
                    0.2897067070007324
                ],
                [
                    -0.5272447466850281,
                    -0.030694441869854927,
                    0.001369990175589919,
                    0.33507388830184937,
                    -0.04255589470267296
                ],
                [
                    -0.34791091084480286,
                    -0.04676748067140579,
                    0.2001505196094513,
                    0.1622101217508316,
                    0.06553568691015244
                ],
                [
                    0.2946154773235321,
                    0.18489964306354523,
                    0.21139004826545715,
                    0.2590510845184326,
                    0.1611493080854416
                ]
            ]
        ]
    ],
    "conv_layer.0.bias": [
        0.02301640249788761,
        0.025976141914725304
    ],
    "fc_layer.weight": [
        [
            0.06905728578567505,
            0.012418746016919613,
            0.06681419163942337,
            -0.002434266498312354,
            0.03127231448888779,
            0.03496775031089783,
            0.027977850288152695,
            0.039931416511535645,
            -0.055433809757232666,
            -0.04073996841907501,
            0.015567884780466557,
            0.03093094751238823,
            0.08435047417879105,
            0.000905955268535763,
            0.009269113652408123,
            -0.0276996660977602,
            -0.01692769303917885,
            0.009430044330656528,
            -0.03175247088074684,
            -0.04991614446043968,
            0.09535116702318192,
            0.005747814197093248,
            0.03385411202907562,
            0.04550490528345108,
            0.08537604659795761,
            0.0023736883886158466,
            -0.007229307666420937,
            -0.057052042335271835,
            0.0007917791372165084,
            0.042371585965156555,
            -0.0227541271597147,
            -0.023861050605773926,
            -0.03724845498800278,
            -0.005178344901651144,
            0.02452085167169571,
            0.04598955437541008,
            0.055972736328840256,
            0.09159908443689346,
            0.04278983920812607,
            0.039294466376304626,
            0.11784174293279648,
            0.05157828703522682,
            0.07158128172159195,
            0.05834998935461044,
            -0.061052706092596054,
            -0.0699143335223198,
            -0.10284245014190674,
            -0.08431015908718109,
            -0.09335513412952423,
            0.021898755803704262,
            0.2006489485502243,
            0.11680757254362106,
            0.07021114230155945,
            0.01565919630229473,
            -0.006254143081605434,
            -0.008268876932561398,
            0.011044328100979328,
            0.02812579646706581,
            -0.014015665277838707,
            -0.041396476328372955,
            -0.11014477163553238,
            -0.1280132681131363,
            -0.05400744453072548,
            -0.04998081550002098,
            -0.04068306088447571,
            0.05241041257977486,
            0.05034618824720383,
            0.03115307353436947,
            0.019762201234698296,
            -0.09319910407066345,
            0.03732311725616455,
            0.015694748610258102,
            -0.08784874528646469,
            0.013622398488223553,
            -0.03408627584576607,
            -0.13563047349452972,
            -0.07092920690774918,
            -0.19107896089553833,
            -0.2631351351737976,
            -0.1520768702030182,
            -0.0677189752459526,
            0.011680305004119873,
            0.01473631989210844,
            0.0059125530533492565,
            0.04481913894414902,
            0.059663075953722,
            -0.1041683480143547,
            -0.05955053120851517,
            -0.14178545773029327,
            -0.08694032579660416,
            -0.12478887289762497,
            -0.10371961444616318,
            -0.21974235773086548,
            -0.143141970038414,
            -0.11712343990802765,
            -0.12272855639457703,
            0.011604050174355507,
            0.030822617933154106,
            -0.004400182515382767,
            -0.06823541224002838,
            -0.20106548070907593,
            -0.3000265955924988,
            -0.14508400857448578,
            -0.06749611347913742,
            -0.14588241279125214,
            -0.12262941896915436,
            -0.052945081144571304,
            -0.10546015948057175,
            -0.018152762204408646,
            -0.0710587128996849,
            -0.0985923781991005,
            -0.09081089496612549,
            0.02119271270930767,
            -0.022423652932047844,
            -0.17496588826179504,
            -0.23453226685523987,
            -0.11652593314647675,
            -0.060254793614149094,
            0.039492201060056686,
            -0.0960833802819252,
            -0.132122203707695,
            -0.023543208837509155,
            -0.08115638792514801,
            -0.05960545688867569,
            -0.15871107578277588,
            -0.008376739919185638,
            0.01801377721130848,
            0.044846802949905396,
            -0.1329791098833084,
            -0.16742686927318573,
            -0.1301366239786148,
            -0.07959333807229996,
            0.0010007540695369244,
            -0.03029019944369793,
            -0.056538261473178864,
            -0.047089770436286926,
            -0.06731965392827988,
            -0.09435386210680008,
            -0.05627528205513954,
            0.03215992823243141,
            -0.0002550107892602682,
            -0.05503328517079353,
            -0.06878653168678284,
            0.017710095271468163,
            -0.014517784118652344,
            0.0036992691457271576,
            -0.0033021364361047745,
            0.09409184008836746,
            0.09224513918161392,
            -0.003351341001689434,
            -0.04970007389783859,
            -0.044831279665231705,
            0.01694459468126297,
            -0.02994857169687748,
            0.026688143610954285,
            0.08509370684623718,
            0.01457982324063778,
            -0.07906943559646606,
            0.018567662686109543,
            0.1467696726322174,
            0.11391180008649826,
            0.06922831386327744,
            -0.07910513132810593,
            -0.07946238666772842,
            -0.09455177932977676,
            -0.08652856200933456,
            -0.01242135651409626,
            0.016577083617448807,
            0.030249901115894318,
            -0.085295669734478,
            0.04475642368197441,
            0.1277628093957901,
            0.08762487024068832,
            0.03065307065844536,
            0.101188063621521,
            0.0755104199051857,
            0.02535960264503956,
            -0.027145816013216972,
            0.0001316555863013491,
            0.01680798828601837,
            -0.03964408114552498,
            0.018737908452749252,
            0.08604466170072556,
            0.061128221452236176,
            -0.014977982267737389,
            0.005112899467349052,
            -0.014536142349243164,
            0.05375319719314575,
            0.03132406249642372,
            0.03109155036509037,
            0.09499295800924301,
            0.06200592964887619,
            -0.012357250787317753,
            0.04153120517730713,
            0.010871482081711292,
            0.03836057707667351,
            -0.04664738103747368,
            -0.04479086026549339,
            -0.20536288619041443,
            -0.14449365437030792,
            -0.12492790818214417,
            -0.06910588592290878,
            -0.1233443096280098,
            -0.14069019258022308,
            -0.07875321805477142,
            -0.19408348202705383,
            -0.12150714546442032,
            -0.16308514773845673,
            -0.10059655457735062,
            0.11137977242469788,
            0.03237651288509369,
            -0.18445588648319244,
            -0.13932839035987854,
            -0.09456174820661545,
            -0.05940573662519455,
            -0.09061700105667114,
            -0.052205804735422134,
            -0.07637760788202286,
            -0.012889962643384933,
            -0.049659643322229385,
            0.04054529219865799,
            -0.024336857721209526,
            -0.11763932555913925,
            0.02789273113012314,
            -0.07465246319770813,
            -0.13427674770355225,
            -0.11391361057758331,
            -0.10304491221904755,
            -0.0011607410851866007,
            0.011784243397414684,
            0.047317974269390106,
            0.014210931956768036,
            0.031170610338449478,
            -0.06184159591794014,
            -0.0023148476611822844,
            -0.01950090378522873,
            -0.12870003283023834,
            0.12087496370077133,
            -0.07956152409315109,
            -0.21976836025714874,
            -0.07980498671531677,
            -0.04189159721136093,
            -0.015155459754168987,
            -0.031308386474847794,
            0.050504185259342194,
            0.016365647315979004,
            0.022614330053329468,
            -0.07720973342657089,
            -0.11635793745517731,
            -0.2118746042251587,
            -0.41081497073173523,
            0.0719522163271904,
            -0.08228029310703278,
            -0.14700046181678772,
            -0.05618356913328171,
            -0.023370686918497086,
            -0.04046036675572395,
            -0.03387567400932312,
            -0.0028589966241270304,
            0.012687770649790764,
            -0.00030188277014531195,
            -0.06679659336805344,
            -0.06861939281225204,
            -0.049432575702667236,
            -0.18977417051792145,
            0.051014937460422516,
            0.009069370105862617,
            -0.10047458857297897,
            0.02548273652791977,
            -0.028483953326940536,
            -0.038050904870033264,
            -0.07320133596658707,
            -0.08667436987161636,
            -0.14956915378570557,
            -0.023167282342910767,
            -0.0032998621463775635,
            0.006697266362607479,
            -0.004872868303209543,
            -0.12226923555135727,
            0.12100324034690857,
            -0.012758184224367142,
            -0.027662916108965874,
            0.11231954395771027,
            0.026233261451125145,
            -0.005011548288166523,
            -0.020328819751739502,
            -0.21085825562477112,
            -0.20397025346755981,
            0.053156476467847824,
            0.10130088031291962,
            0.07692346721887589,
            0.20293393731117249,
            0.008434039540588856,
            0.08707188069820404,
            0.0083375358954072,
            0.03624272719025612,
            0.14081382751464844,
            0.07814003527164459,
            0.09472796320915222,
            -0.028231171891093254,
            -0.22601497173309326,
            -0.17664165794849396,
            0.05028831586241722,
            0.14302563667297363,
            0.1062219962477684,
            0.2319415956735611,
            -0.00534493662416935,
            0.10084518790245056,
            0.032246679067611694,
            0.09179343283176422,
            0.12028271704912186,
            0.07426942884922028,
            0.09900739043951035,
            0.006114328280091286,
            -0.16509956121444702,
            -0.03057585097849369,
            0.10873544216156006,
            0.08522624522447586,
            0.1682344377040863,
            0.14306248724460602,
            -0.10384779423475266,
            0.09928536415100098,
            -0.06920954585075378,
            0.06329040229320526,
            0.04527018964290619,
            0.09416595101356506,
            0.08983586728572845,
            0.08266223967075348,
            -0.0663871094584465,
            0.03509317710995674,
            0.06644538044929504,
            0.004310209769755602,
            0.12580111622810364,
            0.10265544056892395,
            -0.02974117174744606,
            0.12729983031749725,
            -0.1729394495487213,
            -0.013823281042277813,
            0.0704343244433403,
            0.04206259548664093,
            0.04792396351695061,
            0.056248217821121216,
            -0.1209086999297142,
            -0.030073126778006554,
            -0.04049857333302498,
            -0.040792737156152725,
            0.03817559406161308,
            -0.02051723562180996,
            -0.08188779652118683,
            0.1375240534543991,
            -0.08858758211135864,
            -0.07672364264726639,
            -0.012781934812664986,
            -0.016591638326644897,
            0.009988663718104362,
            0.02668711543083191,
            -0.058900751173496246,
            -0.12956245243549347,
            -0.18672145903110504,
            -0.2492053061723709,
            -0.2616451382637024,
            -0.29647088050842285,
            -0.0987783744931221,
            0.05832720175385475,
            -0.0619112066924572,
            -0.24016666412353516,
            0.004726327024400234,
            0.03535524755716324,
            0.0434667244553566,
            0.0787956714630127,
            0.013109555467963219,
            -0.19482393562793732,
            -0.37769728899002075,
            -0.40842896699905396,
            -0.2925545275211334,
            -0.21667508780956268,
            -0.048217833042144775,
            0.09847508370876312,
            -0.023824337869882584,
            -0.19326142966747284,
            -0.2783006727695465,
            -0.3167431652545929,
            -0.2934912443161011,
            -0.2089213728904724,
            -0.08986791223287582,
            -0.1496424525976181,
            -0.18162986636161804,
            -0.19920575618743896,
            -0.14685533940792084,
            -0.06553978472948074,
            0.015987396240234375,
            0.10032545030117035
        ],
        [
            0.16043034195899963,
            0.13945651054382324,
            0.13216818869113922,
            0.1355963945388794,
            0.12278883904218674,
            0.03699767217040062,
            0.01580917276442051,
            0.042408913373947144,
            0.08503391593694687,
            -0.01192028634250164,
            -0.018218448385596275,
            0.04509203881025314,
            0.07735032588243484,
            0.09312556684017181,
            0.11646538227796555,
            0.07483851909637451,
            0.12703421711921692,
            0.03454654663801193,
            0.08792630583047867,
            0.00575654162093997,
            -0.028994014486670494,
            -0.040063321590423584,
            -0.11382661014795303,
            -0.14680549502372742,
            -0.10568352788686752,
            -0.03304320201277733,
            -0.06279662996530533,
            0.03905877098441124,
            0.06652439385652542,
            0.06362473964691162,
            0.08665429800748825,
            0.07253710925579071,
            -0.022395022213459015,
            -0.007744020316749811,
            -0.11998339742422104,
            -0.171366348862648,
            -0.20527276396751404,
            -0.2402520328760147,
            -0.12726962566375732,
            -0.06016511097550392,
            -0.012756230309605598,
            -0.05274122208356857,
            0.09231521189212799,
            0.1199478730559349,
            0.07371683418750763,
            0.1158628761768341,
            0.10759012401103973,
            -0.12082554399967194,
            -0.178311288356781,
            -0.1669233739376068,
            -0.24850696325302124,
            -0.31014320254325867,
            -0.2232542634010315,
            -0.1920856535434723,
            -0.01612294279038906,
            -0.013256613165140152,
            0.07723258435726166,
            0.1151362955570221,
            0.049098920077085495,
            0.0627945140004158,
            0.11572358012199402,
            -0.06508120149374008,
            -0.18651992082595825,
            -0.11318863183259964,
            -0.005244760308414698,
            -0.1653296798467636,
            -0.16783615946769714,
            -0.1072017252445221,
            0.05897005274891853,
            0.027031809091567993,
            0.12771648168563843,
            0.004477472975850105,
            0.09334172308444977,
            0.192319855093956,
            0.07064692676067352,
            -0.09875073283910751,
            -0.26324594020843506,
            -0.14372806251049042,
            -0.05357913300395012,
            -0.25626280903816223,
            -0.18528001010417938,
            0.009153931401669979,
            -0.028012601658701897,
            0.01013975776731968,
            0.11660490930080414,
            0.004011334385722876,
            0.031848881393671036,
            0.09375280141830444,
            0.17469963431358337,
            -0.07103056460618973,
            -0.35762014985084534,
            -0.25635287165641785,
            -0.16547827422618866,
            -0.22258785367012024,
            -0.260558545589447,
            -0.06803444027900696,
            0.05673299729824066,
            0.08017156273126602,
            0.10564319789409637,
            0.015766087919473648,
            -0.012011401355266571,
            -0.03753803297877312,
            0.02053961157798767,
            -0.196689635515213,
            -0.48248371481895447,
            -0.389142245054245,
            -0.1908557265996933,
            -0.09834306687116623,
            -0.039058100432157516,
            -0.0049345302395522594,
            0.09032761305570602,
            0.1507803350687027,
            0.12548238039016724,
            0.041841357946395874,
            0.06846068799495697,
            0.013645404949784279,
            -0.10045212507247925,
            -0.2088049203157425,
            -0.3681592345237732,
            -0.27850374579429626,
            -0.07966163754463196,
            -0.003963788039982319,
            0.15669585764408112,
            0.10546116530895233,
            0.12979070842266083,
            0.1948612481355667,
            0.15162386000156403,
            0.1942785680294037,
            0.16421793401241302,
            0.10448402166366577,
            0.005352724809199572,
            0.030243266373872757,
            -0.07941993325948715,
            -0.10359543561935425,
            -0.05086629092693329,
            0.08182377368211746,
            0.13200393319129944,
            0.15310929715633392,
            0.10272665321826935,
            0.10084570944309235,
            0.08277550339698792,
            0.0030072128865867853,
            0.07478348165750504,
            0.018958106637001038,
            -0.07628250867128372,
            -0.1568186730146408,
            -0.18738417327404022,
            -0.033785611391067505,
            -0.019809097051620483,
            0.0049729193560779095,
            0.15523125231266022,
            0.11708096414804459,
            -0.0029460755176842213,
            0.1462855488061905,
            0.09328749030828476,
            0.06320925801992416,
            0.06314681470394135,
            0.03340134024620056,
            -0.09227926284074783,
            -0.12531188130378723,
            0.03020012378692627,
            0.043129999190568924,
            0.08164840936660767,
            0.1537960022687912,
            0.09383179992437363,
            0.12389560788869858,
            0.1118258461356163,
            0.08049598336219788,
            0.07397583872079849,
            0.13775679469108582,
            0.14598348736763,
            0.09450812637805939,
            -0.018491318449378014,
            -0.050220295786857605,
            -0.003199723782017827,
            0.03219502419233322,
            0.11489099264144897,
            0.12158454954624176,
            0.11021265387535095,
            0.08691461384296417,
            0.055915698409080505,
            0.1478811651468277,
            0.13235290348529816,
            0.15831224620342255,
            0.12816549837589264,
            0.04288604483008385,
            0.022161336615681648,
            -0.0023647842463105917,
            0.026315780356526375,
            0.0416506789624691,
            0.009740893729031086,
            0.13260933756828308,
            0.13822652399539948,
            0.08844904601573944,
            0.1922469288110733,
            0.10793209075927734,
            -0.0355636365711689,
            -0.03549126163125038,
            -0.10023312270641327,
            -0.2348630428314209,
            -0.21062655746936798,
            -0.1714998185634613,
            -0.044990792870521545,
            -0.024148428812623024,
            -0.22445625066757202,
            -0.2526463270187378,
            -0.27591636776924133,
            -0.28247275948524475,
            -0.26123592257499695,
            0.15498487651348114,
            -0.0008916817605495453,
            0.09186773747205734,
            0.05338788777589798,
            -0.05291149392724037,
            -0.07082399725914001,
            -0.1226513534784317,
            0.05717741325497627,
            -0.022430263459682465,
            -0.07623569667339325,
            -0.12263819575309753,
            -0.09058614075183868,
            -0.11053451150655746,
            -0.24756565690040588,
            0.14908342063426971,
            -0.11956316977739334,
            0.005668248515576124,
            -0.03669127821922302,
            -0.14894959330558777,
            -0.05561745539307594,
            -0.05019393190741539,
            0.015269672498106956,
            -0.025898266583681107,
            -0.044753119349479675,
            -0.040370408445596695,
            0.039241280406713486,
            -0.05291488766670227,
            -0.271700382232666,
            0.18956904113292694,
            -0.12223276495933533,
            0.045048121362924576,
            -0.016385385766625404,
            -0.1555626541376114,
            -0.01946370117366314,
            0.04091361537575722,
            0.1013021320104599,
            0.04957883059978485,
            0.10406281054019928,
            0.18729440867900848,
            0.11429805308580399,
            0.08149534463882446,
            -0.25241363048553467,
            0.14844553172588348,
            -0.12937568128108978,
            -0.04573194682598114,
            -0.061055369675159454,
            -0.08055644482374191,
            -0.009371273219585419,
            0.008583391085267067,
            0.030943669378757477,
            0.0884438082575798,
            0.06832429021596909,
            0.03331597521901131,
            0.04061243683099747,
            0.05700314790010452,
            -0.005217704456299543,
            0.25893956422805786,
            -0.1251910924911499,
            -0.08108822256326675,
            -0.03516709804534912,
            -0.12218893319368362,
            0.008210273459553719,
            -0.024631669744849205,
            0.07366172224283218,
            0.05210745707154274,
            -0.004923438187688589,
            -0.12287051975727081,
            -0.04152023047208786,
            -0.09357012808322906,
            -0.06914027035236359,
            0.15653733909130096,
            -0.10271406918764114,
            -0.00955924391746521,
            -0.1556347906589508,
            -0.08256202191114426,
            -0.04810722917318344,
            -0.03665446490049362,
            0.08119133859872818,
            0.1262553185224533,
            -0.03973756730556488,
            -0.08163405954837799,
            0.034125205129384995,
            -0.12571389973163605,
            -0.10640577226877213,
            0.14421670138835907,
            0.009856026619672775,
            -0.0543818324804306,
            -0.25500044226646423,
            -0.14783279597759247,
            -0.10751743614673615,
            -0.026627732440829277,
            0.1404205560684204,
            0.05309559032320976,
            -0.013819794170558453,
            -0.052919767796993256,
            -0.05737195909023285,
            -0.1051328107714653,
            0.0073938495479524136,
            0.20561039447784424,
            0.009037492796778679,
            -0.2670874297618866,
            -0.28445446491241455,
            -0.06878803670406342,
            -0.0021991936955600977,
            -0.0029400645289570093,
            0.17109788954257965,
            0.04613690450787544,
            -0.03014780953526497,
            -0.013202826492488384,
            0.03417770564556122,
            -0.06021639332175255,
            0.0012249646242707968,
            0.23206214606761932,
            -0.10202252119779587,
            -0.14506655931472778,
            -0.07480727881193161,
            -0.013037918135523796,
            -0.024177806451916695,
            0.028218096122145653,
            0.1088140457868576,
            0.016639696434140205,
            -0.04074281081557274,
            -0.11472322791814804,
            -0.05377967655658722,
            -0.042519308626651764,
            0.0552307665348053,
            0.22689221799373627,
            -0.1215069442987442,
            -0.03351902216672897,
            -0.05485884100198746,
            -0.005186257418245077,
            0.023254215717315674,
            -0.05790621042251587,
            0.018168160691857338,
            0.058154113590717316,
            -0.05440192669630051,
            -0.12490623444318771,
            -0.3586103916168213,
            -0.14643236994743347,
            0.04748597741127014,
            0.19571346044540405,
            -0.14466257393360138,
            0.0723041445016861,
            0.035071928054094315,
            -0.019440947100520134,
            -0.004753657151013613,
            -0.0355636291205883,
            0.006084253545850515,
            0.017462605610489845,
            0.054356060922145844,
            0.09284274280071259,
            -0.01167268306016922,
            0.0021047466434538364,
            0.11005505174398422,
            0.21343404054641724,
            -0.14921283721923828,
            0.0317423976957798,
            0.06115982308983803,
            -0.07640915364027023,
            -0.00835561566054821,
            -0.034640565514564514,
            0.04632285609841347,
            -0.0023715633433312178,
            0.12081287801265717,
            0.13796737790107727,
            -0.0833168476819992,
            -0.23424287140369415,
            -0.019085437059402466,
            0.20073190331459045,
            -0.004311102442443371,
            -0.15024247765541077,
            -0.20362019538879395,
            -0.07807018607854843,
            -0.033847372978925705,
            -0.07306315749883652,
            -0.1393910050392151,
            -0.21510504186153412,
            -0.11468537896871567,
            -0.024517372250556946,
            -0.11729452759027481,
            -0.16419020295143127,
            0.038255028426647186,
            0.21020641922950745
        ],
        [
            0.0368802472949028,
            0.058668095618486404,
            0.016546448692679405,
            0.024874337017536163,
            0.05951908603310585,
            0.09674461930990219,
            0.0911785215139389,
            0.029120059683918953,
            0.008387336507439613,
            0.02973632887005806,
            -0.0569307841360569,
            -0.05110665783286095,
            -0.0013613669434562325,
            0.0435359925031662,
            0.04392096400260925,
            -0.05957076698541641,
            -0.0736502856016159,
            0.010240638628602028,
            -0.006205712910741568,
            0.029995420947670937,
            0.011076555587351322,
            0.047872453927993774,
            0.0525195486843586,
            0.07291624695062637,
            0.0786680355668068,
            -0.024432232603430748,
            -0.009295511059463024,
            0.011507085524499416,
            -0.019023925065994263,
            -0.00612510135397315,
            0.05894354730844498,
            -0.021701358258724213,
            -0.06420721113681793,
            0.006083555519580841,
            0.0712549090385437,
            0.15313369035720825,
            0.08448223769664764,
            0.05380783602595329,
            0.03956787660717964,
            -0.024762023240327835,
            -0.00642844894900918,
            -0.06111833453178406,
            0.049185410141944885,
            -0.08292554318904877,
            -0.004665249492973089,
            0.020916687324643135,
            0.06153222918510437,
            0.07963200658559799,
            -0.008240841329097748,
            0.07351776212453842,
            0.07897791266441345,
            -0.0068588568829,
            -0.05742226541042328,
            -0.1131443902850151,
            -0.09734531491994858,
            -0.02526371367275715,
            0.04850863292813301,
            -0.02048240788280964,
            0.14019805192947388,
            0.16247504949569702,
            0.05627245083451271,
            -0.02915145643055439,
            -0.02011684514582157,
            -0.02878645248711109,
            -0.011252623051404953,
            -0.105047307908535,
            -0.12459962069988251,
            -0.2094467431306839,
            -0.11077622324228287,
            0.011042327620089054,
            0.08063112944364548,
            0.1420341581106186,
            0.19185271859169006,
            0.14179696142673492,
            0.09338049590587616,
            0.09164265543222427,
            0.08721157908439636,
            -0.05281800031661987,
            -0.09954417496919632,
            -0.17808140814304352,
            -0.19436341524124146,
            -0.14893880486488342,
            0.03668961673974991,
            0.18024210631847382,
            0.03315310552716255,
            0.14819790422916412,
            0.2506667375564575,
            0.18462736904621124,
            0.16133786737918854,
            0.12231635302305222,
            0.061759017407894135,
            0.022124886512756348,
            -0.08808942884206772,
            -0.185915008187294,
            -0.16727736592292786,
            -0.06986977905035019,
            0.05756891518831253,
            0.14701372385025024,
            0.05181058123707771,
            0.1399237960577011,
            0.07274066656827927,
            0.07939495891332626,
            -0.029481230303645134,
            -0.061763256788253784,
            -0.05199521407485008,
            -0.025968169793486595,
            -0.05698789656162262,
            -0.11391443759202957,
            -0.02241102047264576,
            0.1425355225801468,
            0.06826632469892502,
            0.08004429191350937,
            0.009406856261193752,
            -0.08560379594564438,
            -0.1471981555223465,
            -0.08863849937915802,
            -0.17481105029582977,
            -0.18753337860107422,
            -0.11836200952529907,
            -0.027083778753876686,
            -0.029103515669703484,
            0.04257747158408165,
            0.13119828701019287,
            0.1759677231311798,
            0.11846091598272324,
            0.012436860240995884,
            0.07882677763700485,
            -0.08323127776384354,
            -0.18673698604106903,
            -0.16887904703617096,
            -0.16155456006526947,
            -0.11960113793611526,
            -0.08740797638893127,
            0.05566760152578354,
            0.05121060833334923,
            0.19223466515541077,
            0.23940503597259521,
            0.18413899838924408,
            0.17966867983341217,
            0.08232038468122482,
            0.11231839656829834,
            0.03218293935060501,
            0.019918017089366913,
            -0.12341032922267914,
            -0.07129581272602081,
            -0.02786063402891159,
            -0.0050901626236736774,
            0.05612056702375412,
            0.09764166176319122,
            0.22095364332199097,
            0.24147067964076996,
            0.21427229046821594,
            0.08879303932189941,
            0.038092952221632004,
            0.08150674402713776,
            0.06699267774820328,
            -0.05938806012272835,
            0.018986091017723083,
            -0.01838872954249382,
            0.027262983843684196,
            -0.0518232025206089,
            0.01594644971191883,
            0.1341782957315445,
            0.19500888884067535,
            0.29855239391326904,
            0.2630806565284729,
            0.13453488051891327,
            0.05229644477367401,
            0.006553689483553171,
            0.016157375648617744,
            0.01971319131553173,
            0.03989828750491142,
            -0.025892844423651695,
            0.02227097377181053,
            -0.06342034786939621,
            0.029069194570183754,
            0.06885145604610443,
            0.10128212720155716,
            0.13799816370010376,
            0.07142995297908783,
            -0.0007488803821615875,
            0.034552764147520065,
            0.01417186763137579,
            -0.07609018683433533,
            -0.09898042678833008,
            -0.1147473081946373,
            -0.03804159536957741,
            -0.060627009719610214,
            0.013962546363472939,
            -0.028515292331576347,
            0.00829680822789669,
            0.01092557329684496,
            0.014994091354310513,
            0.04994338005781174,
            0.03699033707380295,
            0.017529504373669624,
            0.02637645974755287,
            -0.167824849486351,
            -0.08150140196084976,
            0.05361560732126236,
            0.09890957921743393,
            0.11004134267568588,
            0.06786002218723297,
            0.036801163107156754,
            0.032842859625816345,
            -0.07345974445343018,
            -0.10574045777320862,
            -0.16951116919517517,
            0.08924512565135956,
            -0.02183711528778076,
            -0.033450376242399216,
            -0.0591181181371212,
            0.0205455981194973,
            0.0669204592704773,
            0.12894581258296967,
            0.0399014949798584,
            0.02511925995349884,
            0.016949746757745743,
            0.023427946493029594,
            0.04122525081038475,
            -0.035709235817193985,
            -0.00024591386318206787,
            0.023401528596878052,
            0.040683530271053314,
            -0.12105629593133926,
            0.06835456192493439,
            0.02133682370185852,
            0.09298724681138992,
            0.06616399437189102,
            0.03032238408923149,
            0.06123807281255722,
            -0.008647797629237175,
            -0.07686498761177063,
            -0.1734049767255783,
            -0.12885010242462158,
            -0.2390090674161911,
            -0.3082585036754608,
            0.03495388850569725,
            -0.04851984232664108,
            0.06504161655902863,
            -0.04794875532388687,
            -0.03539876639842987,
            0.035570885986089706,
            0.01722230203449726,
            -0.03490376099944115,
            -0.045772407203912735,
            -0.08595587313175201,
            -0.20994669198989868,
            -0.07640383392572403,
            -0.266631543636322,
            -0.11680357158184052,
            -0.003234845818951726,
            -0.03380301594734192,
            -0.04418310523033142,
            -0.014176770113408566,
            -0.14041779935359955,
            -0.021569743752479553,
            -0.06957793235778809,
            -0.05511223524808884,
            -0.0654585063457489,
            -0.05115662142634392,
            -0.031769540160894394,
            0.0037375986576080322,
            -0.028531212359666824,
            -0.08846323937177658,
            0.040725354105234146,
            0.01563025265932083,
            -0.05646921694278717,
            -0.157594233751297,
            -0.2369367480278015,
            -0.1483013778924942,
            -0.15201891958713531,
            -0.1213982030749321,
            -0.03929766267538071,
            0.029767842963337898,
            0.1028941422700882,
            0.0635533407330513,
            0.13629955053329468,
            0.2646509110927582,
            0.14988556504249573,
            -0.2815912067890167,
            -0.23116187751293182,
            -0.1934783011674881,
            -0.17142543196678162,
            -0.1655123233795166,
            -0.18893681466579437,
            -0.04628632217645645,
            0.0051803505048155785,
            0.07897507399320602,
            0.19325655698776245,
            0.08583792299032211,
            0.1366744190454483,
            0.3415929675102234,
            0.13347798585891724,
            0.017283890396356583,
            -0.0723772644996643,
            -0.09589841961860657,
            -0.13677871227264404,
            -0.03909602016210556,
            -0.016241982579231262,
            0.002857455750927329,
            -0.005573051515966654,
            0.09093226492404938,
            0.11477727442979813,
            0.11691685765981674,
            0.07693246752023697,
            0.2412557601928711,
            0.09875968843698502,
            0.10944774001836777,
            0.08433014899492264,
            0.07907383888959885,
            0.12263219803571701,
            0.049087073653936386,
            0.10288316011428833,
            0.06195123493671417,
            0.02145356871187687,
            0.022119225934147835,
            0.049275606870651245,
            0.009257368743419647,
            -0.06977622956037521,
            0.11437582969665527,
            0.10623642057180405,
            0.11199440062046051,
            0.16853757202625275,
            0.1153721958398819,
            0.10697010904550552,
            0.07819994539022446,
            0.03924649581313133,
            0.007682398427277803,
            -0.016051504760980606,
            0.0005359019851312041,
            -0.09922250360250473,
            -0.09470254182815552,
            -0.20388931035995483,
            0.01427601370960474,
            0.012960096821188927,
            0.19910740852355957,
            0.109331876039505,
            0.06533203274011612,
            0.14838097989559174,
            0.030868351459503174,
            0.04293598234653473,
            -0.055515483021736145,
            -0.06426207721233368,
            -0.02832634374499321,
            -0.17281149327754974,
            -0.19553278386592865,
            -0.15406601130962372,
            -0.03736689314246178,
            0.003838771255686879,
            0.11159630119800568,
            0.06055063009262085,
            0.011916987597942352,
            0.018423253670334816,
            0.004929833114147186,
            -0.011774910613894463,
            -0.10895968228578568,
            -0.042254675179719925,
            -0.07101854681968689,
            -0.12181201577186584,
            -0.11215769499540329,
            -0.00592697411775589,
            -0.08081988990306854,
            0.05500579625368118,
            0.07014333456754684,
            -0.11003829538822174,
            -0.06931203603744507,
            -0.03774212300777435,
            -0.1257452368736267,
            -0.09239237755537033,
            -0.18283486366271973,
            -0.19383510947227478,
            -0.08172719925642014,
            -0.05701405182480812,
            0.024137048050761223,
            -0.08912625908851624,
            -0.053654685616493225,
            0.04799281433224678,
            -0.20336447656154633,
            -0.30572378635406494,
            -0.282820463180542,
            -0.34440451860427856,
            -0.19985097646713257,
            -0.09445320069789886,
            -0.0475526787340641,
            -0.13153555989265442,
            -0.22240981459617615,
            -0.26577460765838623,
            -0.15831658244132996,
            -0.180951327085495,
            0.03881710022687912,
            0.02369440533220768
        ],
        [
            -0.06663801521062851,
            -0.10372650623321533,
            -0.13589397072792053,
            -0.108075812458992,
            -0.07333599030971527,
            -0.10491996258497238,
            -0.013558837585151196,
            -0.03862358629703522,
            -0.06839236617088318,
            0.005750361829996109,
            -0.04709663242101669,
            -0.07744906842708588,
            -0.1638924777507782,
            -0.13037726283073425,
            -0.10114260762929916,
            -0.026541784405708313,
            0.03674035891890526,
            -0.015869993716478348,
            -0.0034364305902272463,
            -0.050868093967437744,
            0.06657680124044418,
            0.021541640162467957,
            0.039549570530653,
            -0.009544412605464458,
            -0.039478663355112076,
            -0.0019450474064797163,
            0.026761988177895546,
            -0.11476956307888031,
            -0.03641857951879501,
            -0.017657779157161713,
            -0.04109096899628639,
            -0.0009732239414006472,
            0.034596264362335205,
            0.14529947936534882,
            0.14616352319717407,
            0.16176384687423706,
            0.05605021491646767,
            0.0009307244908995926,
            -0.005483680870383978,
            -0.03983496129512787,
            -0.006993172690272331,
            -0.05350867658853531,
            -0.03461892157793045,
            -0.0007106570992618799,
            0.048708491027355194,
            0.07396262139081955,
            0.17696447670459747,
            0.17426343262195587,
            0.10620922595262527,
            0.09581327438354492,
            0.03640913590788841,
            -0.028826341032981873,
            0.006559479050338268,
            -0.028279835358262062,
            -0.13349078595638275,
            -0.11583506315946579,
            -0.04885328933596611,
            0.0208498053252697,
            0.21286925673484802,
            0.14473089575767517,
            0.13265210390090942,
            0.09576926380395889,
            -0.026520969346165657,
            0.03821483999490738,
            -0.014456150121986866,
            0.012129015289247036,
            -0.11294282227754593,
            -0.09470893442630768,
            -0.12043674290180206,
            -0.16572391986846924,
            -0.08972737938165665,
            0.038196779787540436,
            0.12762895226478577,
            0.03872226923704147,
            0.07969457656145096,
            0.05540328100323677,
            -0.07205653935670853,
            -0.01533692330121994,
            0.030615873634815216,
            0.0230911523103714,
            -0.053264956921339035,
            -0.1393471509218216,
            -0.2377660721540451,
            -0.19943824410438538,
            -0.08957665413618088,
            0.003886810503900051,
            0.17941522598266602,
            0.13024365901947021,
            0.004320506472140551,
            -0.10642929375171661,
            -0.01813025400042534,
            0.07037613540887833,
            0.0006244556279852986,
            0.010612587444484234,
            0.05958017334342003,
            0.009001792408525944,
            -0.05586608499288559,
            -0.05796867609024048,
            -0.05790482088923454,
            0.04188888520002365,
            0.12545329332351685,
            0.0730963721871376,
            0.0009115232387557626,
            -0.03973409906029701,
            0.0468246266245842,
            0.0984053984284401,
            0.17626896500587463,
            0.10761518776416779,
            0.06687207520008087,
            0.026955444365739822,
            0.023665467277169228,
            -0.035331953316926956,
            -0.12128644436597824,
            -0.07633824646472931,
            0.05420063063502312,
            0.18706560134887695,
            0.1715952754020691,
            0.09219147264957428,
            0.0972263514995575,
            0.1841566264629364,
            0.20086555182933807,
            0.06208077818155289,
            -0.07962626218795776,
            -0.08012799173593521,
            -0.14647753536701202,
            -0.12309040129184723,
            -0.11626716703176498,
            -0.10725010186433792,
            0.14783316850662231,
            0.1635323464870453,
            0.13613450527191162,
            0.12167499959468842,
            0.12165400385856628,
            0.09285936504602432,
            0.06658148765563965,
            -0.08103707432746887,
            -0.12901470065116882,
            -0.12817874550819397,
            -0.07730914652347565,
            -0.05746625363826752,
            -0.021106010302901268,
            0.05990362539887428,
            0.08228541910648346,
            0.11556430160999298,
            0.09547671675682068,
            0.06938384473323822,
            -0.04297308996319771,
            -0.052198465913534164,
            -0.10579336434602737,
            -0.12601825594902039,
            -0.08758126944303513,
            -0.25618764758110046,
            -0.07103743404150009,
            -0.15024110674858093,
            -0.06442558020353317,
            0.005293023306876421,
            0.07969407737255096,
            0.10882847756147385,
            0.0658881664276123,
            0.05593405291438103,
            -0.009841663762927055,
            -0.11065860837697983,
            -0.12925991415977478,
            -0.26076871156692505,
            -0.19381336867809296,
            -0.12653788924217224,
            -0.09383340179920197,
            -0.10123862326145172,
            -0.09926328808069229,
            -0.06491287052631378,
            0.029724832624197006,
            0.03842862695455551,
            0.14058642089366913,
            0.10380352288484573,
            0.029049038887023926,
            -0.031827278435230255,
            -0.05154085159301758,
            -0.06802207231521606,
            -0.099639892578125,
            -0.08200657367706299,
            -0.058150943368673325,
            -0.04927980899810791,
            -0.09459365904331207,
            -0.04575730115175247,
            0.015236922539770603,
            0.04650203883647919,
            0.026130279526114464,
            0.006956576369702816,
            0.043776221573352814,
            0.05745508149266243,
            0.011489062570035458,
            -0.07756340503692627,
            -0.14447805285453796,
            -0.10961093753576279,
            -0.12861523032188416,
            -0.08444616198539734,
            -0.04152453690767288,
            0.09922127425670624,
            0.07037939876317978,
            0.08717119693756104,
            -0.029973186552524567,
            0.06004159525036812,
            0.03711610287427902,
            0.04063817113637924,
            0.05918079987168312,
            0.16266629099845886,
            0.10434319823980331,
            -0.02631559409201145,
            -0.3302997648715973,
            -0.14037932455539703,
            -0.005372535437345505,
            0.16562558710575104,
            0.05175289139151573,
            0.06051187217235565,
            0.016723308712244034,
            0.018996229395270348,
            0.021813921630382538,
            0.04322214052081108,
            -0.05566585436463356,
            0.006596077233552933,
            -0.057498518377542496,
            -0.07612385600805283,
            -0.10509835928678513,
            -0.164449542760849,
            -0.002491075312718749,
            0.1252114176750183,
            0.11623860150575638,
            0.09134658426046371,
            0.15119920670986176,
            0.10864714533090591,
            0.07069680094718933,
            0.05600953474640846,
            -0.04685455560684204,
            -0.053875457495450974,
            -0.18589244782924652,
            -0.2510959804058075,
            -0.34462982416152954,
            -0.17579135298728943,
            0.035213273018598557,
            0.12676094472408295,
            0.027623368427157402,
            0.049374110996723175,
            0.031416572630405426,
            0.036767568439245224,
            0.03202825412154198,
            0.0449969619512558,
            0.034324899315834045,
            0.019551048055291176,
            -0.00552511028945446,
            -0.24773027002811432,
            -0.3887101709842682,
            -0.21021166443824768,
            0.06842759996652603,
            0.016050780192017555,
            -0.03473276272416115,
            -0.01792633906006813,
            -0.08990205079317093,
            -0.043597206473350525,
            0.046005621552467346,
            0.07013281434774399,
            0.05193911865353584,
            0.1613132357597351,
            0.13297580182552338,
            0.06202876940369606,
            -0.4130254089832306,
            -0.17055101692676544,
            -0.04924307018518448,
            -0.08702047169208527,
            -0.0920468419790268,
            -0.1188078373670578,
            -0.10973841696977615,
            -0.049836691468954086,
            0.046027544885873795,
            0.06585578620433807,
            0.0875885859131813,
            0.1028965637087822,
            0.03444438800215721,
            -0.059998709708452225,
            -0.21232834458351135,
            -0.1352507621049881,
            -0.12964822351932526,
            -0.2249053567647934,
            -0.20815283060073853,
            -0.1897948533296585,
            -0.051324035972356796,
            -0.018888184800744057,
            0.090001679956913,
            -0.016409680247306824,
            -0.05172504112124443,
            -0.09152566641569138,
            -0.28038352727890015,
            -0.3148930072784424,
            -0.11668244004249573,
            -0.17119640111923218,
            -0.01740691438317299,
            -0.16729311645030975,
            -0.18895739316940308,
            -0.15361811220645905,
            -0.11706026643514633,
            -0.0485929474234581,
            -0.042626433074474335,
            -0.04556284472346306,
            -0.1064755842089653,
            -0.1742280274629593,
            -0.20847198367118835,
            -0.18828454613685608,
            -0.395873486995697,
            -0.16883817315101624,
            0.02488330751657486,
            0.04316318780183792,
            -0.13582530617713928,
            -0.13055123388767242,
            -0.17546193301677704,
            -0.08619443327188492,
            -0.0775761753320694,
            -0.12189411371946335,
            0.001548818894661963,
            0.0157077107578516,
            -0.026343820616602898,
            -0.04417784884572029,
            -0.321541428565979,
            -0.12044377624988556,
            0.04670203849673271,
            0.025229912251234055,
            -0.07211233675479889,
            -0.15677975118160248,
            -0.14397075772285461,
            -0.16030162572860718,
            -0.1181127205491066,
            0.001767675974406302,
            0.017645273357629776,
            0.023390136659145355,
            0.05478950962424278,
            0.06742208451032639,
            -0.05996425822377205,
            -0.16302037239074707,
            -0.05211504176259041,
            0.010081211104989052,
            0.039786651730537415,
            -0.03240373730659485,
            -0.15967217087745667,
            -0.10206904262304306,
            -0.005248118657618761,
            0.025757605209946632,
            0.09099332243204117,
            0.07816176116466522,
            0.07208877056837082,
            0.03200830891728401,
            -0.05425779148936272,
            -0.1732245236635208,
            -0.015149960294365883,
            0.030967485159635544,
            0.038758229464292526,
            0.05076129734516144,
            0.006471468135714531,
            -0.02555241249501705,
            -0.02741604670882225,
            0.010380453430116177,
            0.04145922139286995,
            0.12845471501350403,
            -0.012985547073185444,
            -0.08280956745147705,
            -0.047415174543857574,
            -0.17123965919017792,
            0.06975950300693512,
            0.13909073173999786,
            0.09083599597215652,
            0.0486641488969326,
            0.08578144013881683,
            -0.026789458468556404,
            -0.11689174920320511,
            -0.21201945841312408,
            -0.06902169436216354,
            -0.08508005738258362,
            -0.09682073444128036,
            -0.00783744640648365,
            0.08727807551622391,
            -0.1020355299115181,
            0.027329562231898308,
            0.162734717130661,
            0.24776121973991394,
            0.21430645883083344,
            0.18131108582019806,
            0.10531967878341675,
            -0.012525219470262527,
            -0.06931307911872864,
            -0.14945131540298462,
            -0.17583057284355164,
            -0.11799151450395584,
            -0.06034468486905098,
            -0.0655345469713211,
            -0.14396247267723083
        ],
        [
            -0.026200970634818077,
            -0.008130406029522419,
            -0.002952802227810025,
            0.03149745985865593,
            -0.046605974435806274,
            -0.05163188651204109,
            -0.03320198506116867,
            -0.009972111321985722,
            -0.021747026592493057,
            0.04599098488688469,
            -0.0013665776932612062,
            0.0215695109218359,
            0.045029375702142715,
            0.014060307294130325,
            0.04594751074910164,
            -0.04018746316432953,
            -0.004489010665565729,
            -0.030619392171502113,
            0.06800905615091324,
            0.0023444017861038446,
            -0.0024448027834296227,
            -0.01805995963513851,
            -0.010579902678728104,
            -0.13404744863510132,
            -0.10026831924915314,
            0.015917163342237473,
            -0.0072050984017550945,
            -0.04209206998348236,
            0.01558475662022829,
            0.043376147747039795,
            0.04105092212557793,
            0.03200075030326843,
            0.04436207935214043,
            0.05805646628141403,
            -0.0907474085688591,
            -0.259202241897583,
            -0.26311880350112915,
            -0.2813185155391693,
            -0.21848462522029877,
            -0.11296171694993973,
            -0.01951885037124157,
            0.01096012257039547,
            0.003013421082869172,
            0.03165071830153465,
            0.05412013456225395,
            -0.010348593816161156,
            -0.025859341025352478,
            -0.08195938169956207,
            -0.2221645563840866,
            -0.3423974812030792,
            -0.3351462483406067,
            -0.23501190543174744,
            -0.154863178730011,
            -0.16836228966712952,
            -0.0941162258386612,
            0.05438794195652008,
            -0.007170413620769978,
            -0.03926998749375343,
            -0.003780415514484048,
            -0.03996406868100166,
            0.008892911486327648,
            -0.08743973076343536,
            -0.16330291330814362,
            -0.44875457882881165,
            -0.37372341752052307,
            -0.19504252076148987,
            -0.16493013501167297,
            -0.12386659532785416,
            -0.18235372006893158,
            -0.1375129669904709,
            0.044865142554044724,
            -0.029794713482260704,
            -0.07225584983825684,
            -0.1413821429014206,
            -0.10994570702314377,
            -0.018733127042651176,
            0.02125987969338894,
            -0.13011230528354645,
            -0.1690819263458252,
            -0.07128146290779114,
            0.04597730189561844,
            0.12796473503112793,
            -0.014549528248608112,
            -0.06136317923665047,
            0.016995728015899658,
            -0.07444040477275848,
            -0.12624074518680573,
            -0.20533351600170135,
            -0.12525898218154907,
            0.011493919417262077,
            0.08155931532382965,
            0.006232265383005142,
            -0.08022121340036392,
            0.06870716065168381,
            0.07746900618076324,
            0.08724087476730347,
            0.05248153209686279,
            -0.06491120904684067,
            -0.010552446357905865,
            -0.12872382998466492,
            -0.14302392303943634,
            -0.12532493472099304,
            0.0014594291569665074,
            0.08321700245141983,
            0.1229322999715805,
            0.046974752098321915,
            -0.06795162707567215,
            0.05548961088061333,
            0.11975950002670288,
            0.098091259598732,
            0.11544599384069443,
            0.020291388034820557,
            0.031587518751621246,
            0.13662436604499817,
            0.15995264053344727,
            0.04477141052484512,
            0.01962335593998432,
            0.1777675300836563,
            0.17343614995479584,
            0.07331100851297379,
            -0.16169703006744385,
            -0.0014972930075600743,
            0.06536205857992172,
            0.014754833653569221,
            0.010598418302834034,
            0.012722957879304886,
            0.007024282123893499,
            0.09928344190120697,
            0.056533895432949066,
            0.06827595084905624,
            -0.07759341597557068,
            -0.05349486693739891,
            0.017666403204202652,
            -0.05755829066038132,
            -0.05716041475534439,
            0.003915903624147177,
            -0.07633867114782333,
            -0.020435813814401627,
            -0.03493579104542732,
            -0.0882272943854332,
            0.020919976755976677,
            0.05701391026377678,
            0.016365667805075645,
            -0.025386793538928032,
            -0.1065327599644661,
            -0.17126570641994476,
            -0.13492003083229065,
            -0.1501939445734024,
            -0.08518384397029877,
            -0.01153331995010376,
            0.06441745907068253,
            0.06996088474988937,
            0.06476707756519318,
            0.007837120443582535,
            0.04510953277349472,
            -0.006725820247083902,
            -0.023986773565411568,
            -0.08942806720733643,
            -0.2563392221927643,
            -0.30803921818733215,
            -0.23304228484630585,
            -0.16326066851615906,
            0.04145881161093712,
            0.043176837265491486,
            0.0958133265376091,
            0.021429693326354027,
            0.002460022456943989,
            -0.031124917790293694,
            0.050141025334596634,
            -0.02825283817946911,
            -0.05278656631708145,
            -0.07216569781303406,
            -0.2231861799955368,
            -0.24904002249240875,
            -0.16056813299655914,
            -0.1153590977191925,
            -0.02664068527519703,
            0.08034203946590424,
            0.027757175266742706,
            0.04246625304222107,
            0.052989304065704346,
            0.06583710759878159,
            0.029034631326794624,
            0.0712968036532402,
            0.03980425000190735,
            0.02361869439482689,
            0.06374628841876984,
            -0.0031192332971841097,
            0.013750727288424969,
            -0.016649730503559113,
            -0.018390892073512077,
            0.08988035470247269,
            0.10262297838926315,
            0.0011492777848616242,
            -0.012368504889309406,
            0.011801321059465408,
            -0.03317856416106224,
            -0.07812631130218506,
            -0.2275061458349228,
            -0.17305034399032593,
            -0.18275679647922516,
            -0.24592523276805878,
            -0.0604495108127594,
            -0.14605917036533356,
            -0.1764911711215973,
            -0.019735176116228104,
            -0.07183551788330078,
            0.02873493917286396,
            -0.09212613850831985,
            0.006685556843876839,
            -0.007935699075460434,
            -0.1280720829963684,
            -0.10334687680006027,
            -0.16720137000083923,
            -0.06571055203676224,
            -0.07567977905273438,
            -0.049892861396074295,
            -0.18796084821224213,
            -0.24173736572265625,
            -0.2051934003829956,
            -0.09158375859260559,
            -0.03596181422472,
            0.013224996626377106,
            0.06864871084690094,
            -0.010223404504358768,
            -0.046006228774785995,
            0.012376653961837292,
            -0.009918143041431904,
            -0.05513831228017807,
            -0.18093502521514893,
            -0.13044382631778717,
            -0.20001254975795746,
            -0.1708868145942688,
            -0.12411417067050934,
            -0.06268297880887985,
            0.007142615504562855,
            0.03953869268298149,
            0.01769457757472992,
            -0.04854815453290939,
            -0.03363558650016785,
            -0.0200349073857069,
            -0.020992353558540344,
            -0.043281685560941696,
            -0.034561026841402054,
            0.008492685854434967,
            0.04664633795619011,
            0.15987852215766907,
            0.16280877590179443,
            0.12182576209306717,
            0.11283206194639206,
            0.097245953977108,
            0.05632542446255684,
            -0.018625665456056595,
            -0.01200519222766161,
            -0.04858168214559555,
            -0.0010214028880000114,
            0.10560192912817001,
            0.11018771678209305,
            0.10894116759300232,
            0.16698376834392548,
            0.23021546006202698,
            0.1687903106212616,
            0.1596105843782425,
            0.08038070052862167,
            0.07029329985380173,
            0.0320567712187767,
            -0.061384279280900955,
            0.02354067750275135,
            0.028103917837142944,
            0.11784914880990982,
            0.11906273663043976,
            0.20484204590320587,
            0.13047221302986145,
            0.09193849563598633,
            0.19170048832893372,
            0.10061702132225037,
            0.12142588198184967,
            0.059132155030965805,
            -0.006975165102630854,
            -0.013634967617690563,
            -0.06228374317288399,
            0.03640687093138695,
            0.08306092023849487,
            0.15947727859020233,
            0.18166275322437286,
            0.1991574466228485,
            0.06840634346008301,
            0.07666008919477463,
            0.1528095006942749,
            0.08655475080013275,
            0.0908508375287056,
            -0.12816385924816132,
            -0.10543131083250046,
            0.05206560716032982,
            -0.07678433507680893,
            0.054520729929208755,
            0.054369956254959106,
            0.07355475425720215,
            0.08691314607858658,
            0.09470096975564957,
            0.0028348835185170174,
            0.06000818312168121,
            0.08032013475894928,
            0.038517702370882034,
            0.03025314211845398,
            -0.14314958453178406,
            -0.05648588761687279,
            0.07152606546878815,
            0.003138447180390358,
            0.035643354058265686,
            -0.010598218999803066,
            0.055390480905771255,
            -0.010383592918515205,
            -0.030566338449716568,
            -0.044564805924892426,
            0.04468727484345436,
            -0.011336603201925755,
            -0.07083326578140259,
            -0.029959948733448982,
            -0.09497393667697906,
            -0.019014284014701843,
            0.07782530784606934,
            0.04370585083961487,
            -0.15613700449466705,
            -0.140395388007164,
            -0.09855931997299194,
            -0.19681908190250397,
            -0.022449348121881485,
            -0.003268966916948557,
            0.0017003793036565185,
            -0.051081154495477676,
            -0.1061546579003334,
            -0.1132679134607315,
            -0.11670006811618805,
            -0.17834186553955078,
            0.018996115773916245,
            -0.07520991563796997,
            -0.2432665228843689,
            -0.26985812187194824,
            -0.1484391987323761,
            -0.11418859660625458,
            -0.04999065399169922,
            0.022166164591908455,
            0.039192892611026764,
            -0.02929198555648327,
            -0.030199458822607994,
            -0.030160002410411835,
            -0.0989009290933609,
            -0.1468888819217682,
            0.06840040534734726,
            -0.06895989179611206,
            -0.28625401854515076,
            -0.24132797122001648,
            -0.11213582009077072,
            -0.01008624117821455,
            -0.08600025624036789,
            -0.01917114481329918,
            0.07997479289770126,
            0.07083456218242645,
            0.15414202213287354,
            0.09427578747272491,
            -0.0314815379679203,
            -0.08724996447563171,
            0.022435475140810013,
            -0.04793458431959152,
            -0.2242124229669571,
            -0.10315240174531937,
            -0.04712534323334694,
            -0.07146701216697693,
            -0.0437178872525692,
            -0.10408379882574081,
            -0.027316417545080185,
            0.02207281067967415,
            0.05361658334732056,
            0.1277400702238083,
            0.028878580778837204,
            -0.008285608142614365,
            0.07836668193340302,
            -0.03090433031320572,
            -0.04827328771352768,
            -0.06519043445587158,
            -0.06892120838165283,
            -0.031017018482089043,
            -0.09541907906532288,
            -0.12177012860774994,
            -0.06584484875202179,
            -0.139388769865036,
            -0.10333546251058578,
            0.0013521998189389706,
            -0.010409107431769371,
            0.01481672003865242,
            0.006282631307840347
        ],
        [
            -0.006276384927332401,
            -0.007203086279332638,
            -0.0610537976026535,
            -0.017198113724589348,
            -0.007482542656362057,
            -0.005773062352091074,
            -0.0010721172438934445,
            0.022019037976861,
            0.058206893503665924,
            0.09435661137104034,
            0.09832609444856644,
            -0.01793191209435463,
            -0.05498968064785004,
            0.01849602907896042,
            -0.015208598226308823,
            -0.0278435330837965,
            0.007675951346755028,
            0.025327613577246666,
            -0.025007449090480804,
            0.04609641805291176,
            -0.04459122195839882,
            -0.05138048902153969,
            0.06270846724510193,
            0.06278789788484573,
            0.013923784717917442,
            0.04732391983270645,
            0.003665593219920993,
            0.0762319266796112,
            0.009998645633459091,
            -0.036018695682287216,
            -0.012867958284914494,
            -0.026063116267323494,
            0.01487293653190136,
            0.018600787967443466,
            -0.08687964081764221,
            -0.06456951051950455,
            -0.013216221705079079,
            0.08032482862472534,
            0.06541549414396286,
            0.0794852003455162,
            -0.0002791947918012738,
            0.10442570596933365,
            -0.008136332966387272,
            -0.10195084661245346,
            -0.1502632200717926,
            -0.20814445614814758,
            -0.15125493705272675,
            -0.03789535537362099,
            -0.0543360561132431,
            0.002245953306555748,
            0.010494566522538662,
            0.0785645991563797,
            0.15720823407173157,
            0.1990373581647873,
            0.1514856368303299,
            0.19190813601016998,
            -0.002932377392426133,
            -0.063496433198452,
            -0.22345246374607086,
            -0.24347111582756042,
            -0.12846845388412476,
            -0.044263340532779694,
            0.07392477989196777,
            0.16746127605438232,
            0.1276671290397644,
            0.2020040899515152,
            0.1758739948272705,
            0.11960255354642868,
            0.16030152142047882,
            0.3243228495121002,
            -0.02736741490662098,
            -0.0851028561592102,
            -0.25706374645233154,
            -0.1579282432794571,
            -0.12613780796527863,
            -0.03795330971479416,
            0.10458670556545258,
            0.1765187829732895,
            0.15799817442893982,
            0.19389377534389496,
            0.1463557332754135,
            0.15129414200782776,
            0.0862431451678276,
            0.059024590998888016,
            -0.0628984197974205,
            0.05083484202623367,
            0.015101048164069653,
            -0.022738490253686905,
            -0.14414885640144348,
            -0.01304900273680687,
            0.009735120460391045,
            0.1549042910337448,
            0.1747255027294159,
            0.08732669800519943,
            0.05413901060819626,
            0.09150414913892746,
            0.05472161993384361,
            0.09472528845071793,
            -0.028189511969685555,
            0.034472424536943436,
            0.22612671554088593,
            0.14596204459667206,
            0.07981481403112411,
            -0.058570124208927155,
            0.07598419487476349,
            0.1257811039686203,
            0.1258935183286667,
            0.06641323119401932,
            -0.0020252778194844723,
            -0.07249892503023148,
            0.013785231858491898,
            0.0196037869900465,
            0.0223696231842041,
            0.1003560721874237,
            0.24723824858665466,
            0.19024865329265594,
            0.14544542133808136,
            0.12130144983530045,
            0.06781309843063354,
            0.08564748615026474,
            0.04076354205608368,
            -0.05515136569738388,
            -0.0866861492395401,
            -0.05437874421477318,
            -0.020120779052376747,
            0.022894565016031265,
            -0.051044680178165436,
            -0.014676764607429504,
            0.02739354595541954,
            0.23513919115066528,
            0.1637508124113083,
            0.13169175386428833,
            0.0661715641617775,
            0.026866890490055084,
            -0.06977055966854095,
            -0.008584092371165752,
            -0.07279473543167114,
            -0.0840962678194046,
            0.03217560052871704,
            0.07397236675024033,
            -0.03620203584432602,
            -0.02318454720079899,
            0.11347419768571854,
            0.15788547694683075,
            0.0926218330860138,
            0.09288372844457626,
            0.03985569253563881,
            -0.04043937474489212,
            -0.061559464782476425,
            -0.09353593736886978,
            -0.07174781709909439,
            -0.11249222606420517,
            -0.09879991412162781,
            -0.03312439098954201,
            -0.03559853509068489,
            -0.06487054377794266,
            0.028876937925815582,
            0.1442287564277649,
            0.11451543122529984,
            0.09349596500396729,
            -0.0030487636104226112,
            -0.04769917577505112,
            -0.02878403849899769,
            -0.12539348006248474,
            -0.11747704446315765,
            -0.11742345988750458,
            -0.05302735045552254,
            -0.028771471232175827,
            -0.053639255464076996,
            -0.061459384858608246,
            -0.00157317821867764,
            -0.001747567905113101,
            0.03565003350377083,
            0.019429028034210205,
            0.10316012799739838,
            -0.0033017329405993223,
            -0.03596542403101921,
            -0.06847046315670013,
            -0.08540971577167511,
            0.01451489794999361,
            0.06802169978618622,
            -0.03879105672240257,
            -0.010474362410604954,
            -0.05396653711795807,
            -0.00044891666038893163,
            0.034434687346220016,
            0.014684786088764668,
            0.037455830723047256,
            0.038419902324676514,
            0.10062509775161743,
            0.06067259982228279,
            -0.0412321463227272,
            -0.028566164895892143,
            0.005322678945958614,
            0.03460885211825371,
            0.007091437466442585,
            0.019186772406101227,
            -0.07270828634500504,
            -0.17742814123630524,
            -0.08514358103275299,
            -0.08948846906423569,
            -0.13594697415828705,
            -0.09190636873245239,
            -0.015568779781460762,
            0.04687856510281563,
            0.1495818942785263,
            0.08331079035997391,
            0.0331532247364521,
            -0.03557252511382103,
            -0.03259145841002464,
            0.016827739775180817,
            -0.15950043499469757,
            -0.14983059465885162,
            -0.06386706233024597,
            -0.05139102414250374,
            -0.029563510790467262,
            -0.03091822750866413,
            0.0599304735660553,
            0.18055576086044312,
            0.14724251627922058,
            -0.036775924265384674,
            0.05547954514622688,
            0.11317110806703568,
            -0.020117036998271942,
            -0.06548068672418594,
            -0.16290298104286194,
            -0.03521512448787689,
            -0.004530031234025955,
            0.018235020339488983,
            -0.005772952456027269,
            -0.008399929851293564,
            0.09024905413389206,
            0.16944672167301178,
            0.2608969807624817,
            0.23896923661231995,
            0.23091307282447815,
            0.15660205483436584,
            0.125965416431427,
            -0.02434570901095867,
            -0.15774895250797272,
            0.07001549750566483,
            0.08951841294765472,
            0.08293763548135757,
            0.07339278608560562,
            -0.017281413078308105,
            -0.10574149340391159,
            -0.02841593138873577,
            0.01231169793754816,
            0.13517189025878906,
            0.2171507626771927,
            0.34105223417282104,
            0.1922469437122345,
            -0.07038518786430359,
            -0.07925699651241302,
            0.043416302651166916,
            0.07118704169988632,
            0.020165910944342613,
            0.017814552411437035,
            -0.05074764043092728,
            -0.2500740885734558,
            -0.24998898804187775,
            -0.37228238582611084,
            -0.36499714851379395,
            -0.0635850727558136,
            0.3176511228084564,
            -0.021163886412978172,
            -0.05525541305541992,
            -0.018357524648308754,
            0.013456756249070168,
            0.09724850952625275,
            0.019259164109826088,
            -0.017011864110827446,
            -0.061315473169088364,
            -0.1688653528690338,
            -0.2668081820011139,
            -0.40382644534111023,
            -0.5948934555053711,
            -0.46251240372657776,
            -0.09944192320108414,
            -0.1330503225326538,
            -0.08337382227182388,
            0.047335293143987656,
            -0.05716957896947861,
            0.012397906742990017,
            -0.04388386756181717,
            0.030979689210653305,
            -0.08482357859611511,
            -0.18438145518302917,
            -0.17443417012691498,
            -0.30035674571990967,
            -0.3584175109863281,
            -0.43624141812324524,
            -0.19802993535995483,
            -0.09081418067216873,
            -0.1967398226261139,
            -0.08668795228004456,
            -0.04331488162279129,
            -0.12587645649909973,
            -0.040653031319379807,
            -0.06360609084367752,
            -0.06583672016859055,
            -0.16740663349628448,
            -0.13752636313438416,
            -0.15239061415195465,
            -0.2062876969575882,
            -0.21563296020030975,
            -0.26575449109077454,
            -0.06396713852882385,
            -0.07377418130636215,
            -0.14996430277824402,
            -0.07144670188426971,
            -0.12215860188007355,
            -0.08208255469799042,
            -0.033679861575365067,
            -0.07155899703502655,
            -0.09727013856172562,
            -0.05303448811173439,
            0.003513521747663617,
            -0.0447649210691452,
            -0.04702872037887573,
            -0.09193627536296844,
            -0.07740128040313721,
            -0.10411146283149719,
            -0.14349953830242157,
            -0.06541421264410019,
            -0.14311276376247406,
            -0.11676321178674698,
            -0.0838947519659996,
            -0.049671683460474014,
            0.0664193332195282,
            0.024462983012199402,
            0.028897911310195923,
            0.048911578953266144,
            0.07793565094470978,
            0.01973431371152401,
            0.022228945046663284,
            -0.01826024428009987,
            -0.05157964304089546,
            -0.025008566677570343,
            -0.09019050747156143,
            -0.07109411060810089,
            0.017286811023950577,
            0.036356907337903976,
            0.03984229639172554,
            0.10961766541004181,
            0.0808459147810936,
            0.11780763417482376,
            0.08910856395959854,
            0.1465892791748047,
            -0.0645645335316658,
            -0.18712863326072693,
            -0.1072397530078888,
            -0.02483377605676651,
            0.02941393479704857,
            -0.03082747757434845,
            -0.06254544109106064,
            0.012166101485490799,
            0.07352105528116226,
            0.027444560080766678,
            0.022361183539032936,
            0.10107486695051193,
            0.1267162710428238,
            0.13936938345432281,
            -0.016725461930036545,
            -0.20689651370048523,
            0.07389857620000839,
            -0.12919433414936066,
            0.002841170411556959,
            0.07877413183450699,
            0.03658835589885712,
            -0.05872950330376625,
            -0.11362535506486893,
            -0.05710916221141815,
            -0.1610051840543747,
            0.06685524433851242,
            0.11865188181400299,
            0.055820316076278687,
            -0.04566777125000954,
            0.11928186565637589,
            -0.08718230575323105,
            -0.13544027507305145,
            -0.011853931471705437,
            0.004748284816741943,
            0.12321364134550095,
            0.024269970133900642,
            0.020780351012945175,
            -0.022963954135775566,
            -0.10999869555234909,
            -0.02086181379854679,
            0.059698253870010376,
            -0.09712489694356918,
            -0.026354458183050156
        ],
        [
            -0.019705945625901222,
            0.037185683846473694,
            0.06863413006067276,
            0.09100697189569473,
            0.03853027522563934,
            0.12429575622081757,
            0.07812716066837311,
            0.0008995794923976064,
            0.007765691727399826,
            0.025140084326267242,
            0.09235893934965134,
            0.05032709613442421,
            0.060007303953170776,
            0.06467542052268982,
            -0.010947472415864468,
            0.0736532211303711,
            0.0864889994263649,
            0.036582101136446,
            0.022992193698883057,
            -0.037394240498542786,
            -0.18564538657665253,
            -0.0622858889400959,
            -0.06445971131324768,
            0.011322095058858395,
            0.039308998733758926,
            0.05061044543981552,
            0.08233561366796494,
            0.12764304876327515,
            0.06707799434661865,
            0.06285146623849869,
            -0.05281848460435867,
            -0.14064235985279083,
            -0.14080910384655,
            -0.1834375411272049,
            -0.32634541392326355,
            -0.21378272771835327,
            -0.2048017978668213,
            -0.15620198845863342,
            -0.03702213242650032,
            0.001413286430761218,
            0.049030713737010956,
            0.18313264846801758,
            0.07147546112537384,
            0.008267235942184925,
            -0.06588777154684067,
            -0.19457700848579407,
            -0.2789643406867981,
            -0.330514132976532,
            -0.3518284559249878,
            -0.3237890601158142,
            -0.29472827911376953,
            -0.1224336326122284,
            0.033335112035274506,
            0.022630106657743454,
            -0.02308160997927189,
            -0.08247748762369156,
            -0.026266228407621384,
            0.023837745189666748,
            -0.11246421933174133,
            -0.20831450819969177,
            -0.2606581151485443,
            -0.28088125586509705,
            -0.18975183367729187,
            -0.0869835615158081,
            -0.09053882211446762,
            0.09064296633005142,
            0.17358945310115814,
            0.21703045070171356,
            0.14329610764980316,
            -0.06259259581565857,
            0.05009632930159569,
            -0.043239776045084,
            -0.18536867201328278,
            -0.24517276883125305,
            -0.2078676074743271,
            -0.23781247437000275,
            -0.18786638975143433,
            0.017873547971248627,
            0.19472439587116241,
            0.16515174508094788,
            0.17063196003437042,
            0.16838482022285461,
            0.1555318683385849,
            0.07390003651380539,
            0.05537357181310654,
            -0.0666959211230278,
            -0.21160732209682465,
            -0.22223252058029175,
            -0.2823339104652405,
            -0.26346179842948914,
            -0.09399875998497009,
            0.06496412307024002,
            0.22433942556381226,
            0.16326527297496796,
            0.12519416213035583,
            0.023872362449765205,
            0.0064332140609622,
            -0.03313729166984558,
            -0.02838798053562641,
            -0.006936704274266958,
            -0.2490018904209137,
            -0.16455423831939697,
            -0.21988165378570557,
            -0.30038556456565857,
            -0.09478051215410233,
            0.1510530561208725,
            0.16794566810131073,
            0.10197198390960693,
            -0.0032878804486244917,
            -0.1119217723608017,
            -0.04252075403928757,
            -0.0038542267866432667,
            0.004427220672369003,
            0.0010151625610888004,
            -0.05410487949848175,
            -0.26413363218307495,
            -0.23747457563877106,
            -0.2124214768409729,
            -0.02053324691951275,
            0.042401716113090515,
            0.05755923315882683,
            0.05094308406114578,
            -0.046309392899274826,
            -0.12443526089191437,
            -0.05963505432009697,
            0.023320918902754784,
            -0.02406211569905281,
            0.07125730067491531,
            0.030218426138162613,
            -0.17636309564113617,
            -0.1703295260667801,
            -0.11261597275733948,
            0.02322313003242016,
            0.054230742156505585,
            0.0293093491345644,
            0.04633219167590141,
            0.004787345416843891,
            0.020440880209207535,
            -0.038649316877126694,
            -0.03134056553244591,
            0.0653185173869133,
            0.011120359413325787,
            0.054082177579402924,
            -0.04735461622476578,
            -0.004693873226642609,
            0.006959124468266964,
            0.11057784408330917,
            0.10866976529359818,
            0.1302591860294342,
            0.14788122475147247,
            0.11049599200487137,
            0.006572847720235586,
            -0.07097715884447098,
            0.003423030488193035,
            -0.012494700029492378,
            -0.0018165884539484978,
            0.04961717128753662,
            0.08628863096237183,
            0.048627059906721115,
            0.10292696207761765,
            0.18866172432899475,
            0.2301575243473053,
            0.1292632520198822,
            -0.01865983195602894,
            -0.08056474477052689,
            0.018179327249526978,
            0.011350337415933609,
            0.06011292338371277,
            0.05686965212225914,
            0.007654339540749788,
            -0.15290993452072144,
            -0.11509209126234055,
            0.06036458909511566,
            0.05617021769285202,
            0.0939917266368866,
            0.06794701516628265,
            -0.07043228298425674,
            -0.09915818274021149,
            -0.09624205529689789,
            -0.15053430199623108,
            -0.017332501709461212,
            0.024408752098679543,
            0.038249146193265915,
            -0.0017452066531404853,
            -0.016129247844219208,
            0.015465229749679565,
            -0.1131504699587822,
            -0.06876681745052338,
            -0.024078888818621635,
            0.0013287975452840328,
            0.05998295173048973,
            0.006440401077270508,
            0.028223944827914238,
            -0.006991544272750616,
            0.02342252992093563,
            0.02595766820013523,
            -0.039416003972291946,
            0.11315362900495529,
            0.19592386484146118,
            0.10761496424674988,
            0.03952180966734886,
            0.09089469909667969,
            0.10177677124738693,
            0.029565459117293358,
            -0.023877128958702087,
            0.057444483041763306,
            0.11684669554233551,
            0.05568545311689377,
            0.07227031141519547,
            0.030803808942437172,
            0.0229538232088089,
            0.09443587809801102,
            0.14050772786140442,
            0.126974418759346,
            0.09333609789609909,
            0.050766587257385254,
            0.0045751542784273624,
            -0.004480433650314808,
            0.14581765234470367,
            0.18412308394908905,
            0.20614339411258698,
            0.13320641219615936,
            0.16786988079547882,
            0.13839960098266602,
            -0.04837771877646446,
            0.15397675335407257,
            0.003628362203016877,
            0.00998436938971281,
            0.05523554980754852,
            0.0032211951911449432,
            0.023083465173840523,
            -0.01939902827143669,
            0.048928044736385345,
            0.08687835186719894,
            0.06986985355615616,
            0.06340306252241135,
            0.03480881452560425,
            0.028887679800391197,
            -0.03379686176776886,
            0.06976332515478134,
            -0.06252603232860565,
            0.04139783978462219,
            0.04145415499806404,
            -0.07238861173391342,
            -0.03724745288491249,
            -0.0636039599776268,
            -0.12316339462995529,
            -0.028693687170743942,
            -0.004340529907494783,
            -0.044861774891614914,
            -0.1626417487859726,
            -0.020091382786631584,
            -0.05477149412035942,
            0.04315595328807831,
            0.03167777135968208,
            0.07064716517925262,
            0.011105208657681942,
            -0.04698983207345009,
            -0.043580424040555954,
            -0.11657338589429855,
            -0.1577027440071106,
            -0.0867302194237709,
            -0.0549427792429924,
            -0.17518341541290283,
            -0.180719792842865,
            0.020113389939069748,
            -0.07077765464782715,
            -0.006751168053597212,
            0.015226917341351509,
            0.10407476127147675,
            0.083807572722435,
            0.009436734952032566,
            -0.10375019907951355,
            -0.17457421123981476,
            -0.14029008150100708,
            -0.1190151646733284,
            -0.11494950205087662,
            0.014376032166182995,
            -0.10903210937976837,
            -0.01317637786269188,
            -0.06572183966636658,
            0.040167611092329025,
            0.1538710743188858,
            0.12889423966407776,
            0.09150302410125732,
            0.05241841450333595,
            -0.05341514199972153,
            -0.08738989382982254,
            -0.0746053010225296,
            -0.11858735978603363,
            -0.03593748062849045,
            0.04554922506213188,
            -0.03735002502799034,
            0.05025709420442581,
            -0.030362170189619064,
            0.05512528494000435,
            0.1254684180021286,
            0.18647223711013794,
            0.10002108663320541,
            0.1086161807179451,
            0.00012748499284498394,
            -0.06661027669906616,
            -0.0308003481477499,
            -0.039293624460697174,
            0.027889709919691086,
            0.02126423828303814,
            -0.10878346860408783,
            -0.07875455915927887,
            0.0019034547731280327,
            -0.027947988361120224,
            0.11472903192043304,
            0.09833988547325134,
            0.1478390395641327,
            0.13131433725357056,
            0.06062109023332596,
            0.09744090586900711,
            0.08108790963888168,
            0.01893497444689274,
            -0.004208673257380724,
            0.08911046385765076,
            0.021619267761707306,
            -0.0063902572728693485,
            0.010272110812366009,
            -0.08640428632497787,
            -0.012865228578448296,
            0.06044105812907219,
            0.07695333659648895,
            0.08370531350374222,
            0.012297159060835838,
            0.05172363668680191,
            -0.001943067880347371,
            -0.003129845019429922,
            0.0022351008374243975,
            0.05455697700381279,
            0.020773833617568016,
            0.04288487881422043,
            -0.06853579729795456,
            -0.1531456559896469,
            -0.1129191443324089,
            0.016309795901179314,
            0.007176721002906561,
            0.10115620493888855,
            -0.04378031939268112,
            -0.07835667580366135,
            -0.038941968232393265,
            -0.056173574179410934,
            -0.07463081181049347,
            -0.15987123548984528,
            -0.17376664280891418,
            0.025960560888051987,
            -0.03332427516579628,
            -0.24624380469322205,
            -0.17698757350444794,
            -0.057425472885370255,
            0.008678522892296314,
            0.07241909950971603,
            0.0880618542432785,
            -0.08846564590930939,
            -0.15712234377861023,
            -0.07085592299699783,
            -0.20415326952934265,
            -0.31643712520599365,
            -0.09369742125272751,
            0.018681978806853294,
            -0.02651882916688919,
            -0.14369258284568787,
            -0.4295617640018463,
            -0.24842382967472076,
            -0.10403389483690262,
            -0.11049666255712509,
            -0.007203429006040096,
            0.0085305729880929,
            -0.13210523128509521,
            -0.20436464250087738,
            -0.3858010470867157,
            -0.24528621137142181,
            -0.08978863060474396,
            0.06178641319274902,
            0.02006584033370018,
            -0.0766218900680542,
            -0.13737262785434723,
            -0.23381218314170837,
            -0.22912277281284332,
            -0.18470779061317444,
            -0.03276173770427704,
            0.03352905809879303,
            0.02300756610929966,
            -0.2168329507112503,
            -0.2045631855726242,
            -0.13013148307800293,
            -0.08946823328733444,
            0.04695308208465576
        ],
        [
            0.08467347919940948,
            0.034576207399368286,
            0.1085868775844574,
            0.073458231985569,
            0.024339526891708374,
            0.0030654938891530037,
            0.0407152883708477,
            0.020031560212373734,
            0.07769196480512619,
            0.04932962730526924,
            0.005564666353166103,
            0.08690046519041061,
            0.05793222412467003,
            0.05175602808594704,
            0.023691894486546516,
            -0.008980593644082546,
            0.05138655751943588,
            0.07020489871501923,
            0.06803383678197861,
            0.0015837581595405936,
            0.010967068374156952,
            -0.0471356175839901,
            -0.05175551399588585,
            -0.11981084197759628,
            -0.19442331790924072,
            -0.11229366064071655,
            -0.062458839267492294,
            -0.020849648863077164,
            0.040182925760746,
            0.05100308358669281,
            0.01864539459347725,
            0.09044332057237625,
            0.15573520958423615,
            0.18653026223182678,
            0.17515195906162262,
            0.06196567416191101,
            0.03635996952652931,
            0.02147805504500866,
            -0.015512444078922272,
            -0.07897394150495529,
            -0.08194872736930847,
            -0.07959969341754913,
            0.05381486192345619,
            -0.006091888062655926,
            0.09281642735004425,
            0.1516285091638565,
            0.175926074385643,
            0.15298645198345184,
            0.16785815358161926,
            0.12210649996995926,
            0.10799895226955414,
            0.0670330822467804,
            0.05576132982969284,
            -0.0072547965683043,
            -0.08110614120960236,
            -0.09346186369657516,
            0.03120795637369156,
            0.011104516685009003,
            0.039739374071359634,
            0.17560213804244995,
            0.2446596920490265,
            0.14141276478767395,
            0.14779357612133026,
            0.10397885739803314,
            0.0707346573472023,
            -0.03213398903608322,
            -0.00246625579893589,
            -0.007227265276014805,
            -0.12615655362606049,
            -0.14245665073394775,
            0.042187079787254333,
            0.025540074333548546,
            0.11190080642700195,
            0.21769994497299194,
            0.18134905397891998,
            0.08067211508750916,
            -0.11123863607645035,
            -0.1477109044790268,
            -0.05484185740351677,
            -0.09093035012483597,
            -0.08889307826757431,
            -0.07807029038667679,
            -0.07008878141641617,
            0.04738236591219902,
            0.0041123079136013985,
            0.03822065144777298,
            0.026263633742928505,
            -0.020004846155643463,
            -0.019172728061676025,
            -0.051745589822530746,
            -0.12869329750537872,
            -0.23156213760375977,
            -0.14156170189380646,
            0.10181812196969986,
            0.1373109519481659,
            0.12361022084951401,
            -0.013572386465966702,
            -0.0260451789945364,
            0.03010154888033867,
            -0.06852847337722778,
            -0.1264543980360031,
            -0.003114222316071391,
            -0.04896453395485878,
            -0.07723736017942429,
            -0.16818957030773163,
            -0.1051519364118576,
            0.016871273517608643,
            0.11203247308731079,
            0.1748228222131729,
            0.08062384277582169,
            0.00883666705340147,
            -0.014800301752984524,
            0.046921681612730026,
            0.07130193710327148,
            -0.10349571704864502,
            -0.046718813478946686,
            -0.039041657000780106,
            -0.18700891733169556,
            -0.19646233320236206,
            -0.11457277089357376,
            0.01602769084274769,
            0.06728854030370712,
            0.17498983442783356,
            -0.04135514795780182,
            -0.047401003539562225,
            0.09286998212337494,
            0.038584012538194656,
            -0.06448383629322052,
            0.02246076986193657,
            -0.0046503678895533085,
            -0.09126114845275879,
            -0.20162494480609894,
            -0.23755192756652832,
            -0.13821378350257874,
            -0.0708412379026413,
            0.015896635130047798,
            -0.06441249698400497,
            -0.1454249620437622,
            -0.06515001505613327,
            -0.010635916143655777,
            0.09264242649078369,
            0.15796181559562683,
            0.09166184812784195,
